2302 128
693 -0.27250126 -0.12078912 0.11130198 -0.012448351 0.068655245 -0.035351485 0.2399373 -0.12491002 -0.06744699 -0.21961492 0.24172354 -0.25988844 0.13728291 -0.04498317 -0.0412228 0.11725 -0.24528246 0.10895393 0.012518856 -0.1465574 0.063963875 0.02052745 0.19319643 -0.20218764 0.0363756 0.20330548 0.29692733 0.060971994 -0.17905863 -0.07738975 -0.19476168 0.23784769 -0.08435562 0.036202632 0.03187307 -0.2632113 0.24484575 0.107763045 -0.1427986 0.36474574 -0.24934515 0.032614097 0.26782307 0.3395345 0.3244272 -0.116364636 0.28191715 -0.15327252 -0.08169901 -0.28141433 -0.24942796 -0.20874645 -0.037579756 0.24938169 0.0068316706 0.32222468 0.13777182 0.28145704 -0.074203275 0.2334332 0.061875317 0.041567408 -0.19864763 0.32284352 -0.14330497 0.015434844 0.30714068 -0.116871886 -0.11730791 0.050809 0.2903547 0.3417227 0.46060702 -0.18692231 -0.09367219 -0.19160421 -0.19649802 -0.22819202 0.4430737 -0.2822634 -0.23272246 0.4430932 0.0863043 -0.3716498 0.22844486 -0.17312962 -0.33271623 0.08220875 0.06377573 0.26319712 0.22977096 -0.33024186 0.26409715 -0.038144805 -0.106079005 -0.22138244 0.13472602 -0.06334621 0.25867912 0.043568607 -0.16685645 0.06887927 -0.11907575 -0.2450604 -0.55571616 -0.102383114 -0.2334303 -0.33946326 0.45868188 -0.01547611 -0.086787775 0.3683609 -0.33134398 0.2126505 0.30208507 -0.17217276 0.009739041 -0.050186638 -0.14873208 0.49189174 -0.22614211 0.36434722 0.008149906 0.042821806 0.04917757 -0.16777083 -0.14256053 -0.39387676
41 0.20103143 0.14069742 -0.2876777 -0.028221633 -0.2936214 0.22656581 0.11225416 0.17436807 0.25872305 0.46945283 -0.2992898 -0.06264064 0.4202362 -0.37335438 0.2117883 0.10567848 0.013281609 -0.017185584 0.47438797 0.105849296 0.0608422 0.4433917 0.286398 -0.1796816 -0.23994054 -0.01717629 0.15836914 -0.101901114 0.12510625 -0.09485514 -0.31016597 -0.033826258 -0.11076154 0.060945123 -0.012005705 0.09991831 -0.013365651 0.31995127 -0.314627 0.1721366 0.031134686 -0.3292775 -0.095537364 0.3630585 -0.12105897 0.2700886 0.4612212 0.06908995 -0.021440325 -0.20601805 0.01628887 -0.17127159 -0.17633195 0.32126847 -0.2194695 0.050048374 0.04706845 0.066229776 0.280426 -0.20864503 -0.16047539 -0.003073764 0.1270019 0.015539083 -0.4634963 -0.67358184 -0.29049647 0.1726562 -0.20045921 -0.22853573 0.30362377 -0.16952996 0.23828559 -0.10184407 -0.7265766 -0.07734934 0.18709442 -0.15303868 0.29669887 0.22026046 -0.31686628 0.05054848 -0.36205375 0.06762062 0.39453578 0.10270993 -0.15704788 0.54800564 -0.37572965 0.03883376 -0.18277183 0.08189112 0.029363 -0.027744222 -0.31796998 -0.1413597 0.37677962 0.006544526 0.13729559 -0.24600138 0.047642607 0.13700086 -0.066824704 -0.3906268 -0.15901287 0.18457574 0.22997358 0.009337907 0.1340835 -0.016712029 0.15009634 0.4478248 -0.1866701 0.17416574 0.28067568 -0.09299621 0.3568591 0.038906246 0.14469095 0.1263743 -0.43862846 0.35201386 -0.35556567 -0.011727594 -0.097063795 0.37964225 0.2780495 -0.38295877
1589 -0.055330053 0.2332824 -0.15939112 0.08182863 0.06731191 0.08519581 0.17768374 -0.27004072 0.1683045 -0.042272825 -0.16535383 -0.33319262 -0.22788857 0.09025673 -0.2219205 -0.3248177 -0.07870574 0.007930888 0.09317462 0.1511802 0.1123484 -0.15924256 -0.31262657 -0.036347408 -0.10216282 -0.39578772 0.020625979 -0.13995998 0.33813772 0.43010342 0.32706997 -0.14739074 -0.108091086 -0.17141166 -0.14624672 0.05796955 -0.2304015 -0.054753203 -0.26790652 -0.09692236 0.12661919 0.18935485 -0.2609663 0.2514376 -0.003661577 -0.13441822 0.3943557 0.4371032 -0.18800808 -0.10468747 0.16737527 0.10176375 -0.06307332 0.20437688 0.28890872 -0.11067625 -0.34614563 0.36138695 -0.19186509 0.1654869 -0.2026978 0.18879527 0.25422752 -0.4452737 -0.31706882 0.017167937 0.2773193 -0.28752512 -0.0772077 -0.5238997 0.27236277 -0.15230682 0.08183316 -0.30093703 -0.14993499 0.06156345 -0.09688458 -0.042118646 0.49976045 -0.037827577 -0.35474744 -0.31739467 0.0043213177 0.05402595 0.16010612 -0.032527953 -0.15271963 0.22410132 0.19252071 0.02944113 -0.0056438874 0.06377563 -0.19043958 0.09816011 -0.16978006 0.2202955 0.47559088 0.06939526 0.042708147 -0.31019732 0.3495703 -0.06071362 0.33604872 -0.073055714 -0.07603692 0.27450797 0.015958428 -0.22156678 -0.053450257 0.1031664 0.41883206 -0.09446179 0.30156496 0.16958652 0.062100645 -0.26655424 0.21667066 -0.031463955 0.14760077 0.27542573 0.0931981 0.24671501 -0.06667988 -0.42924163 0.18970263 0.18846688 -0.21408944 -0.11138598
2012 -0.13405856 -0.052223366 -0.20451216 -0.54578763 0.21270597 0.102539994 -0.10091292 0.4376329 -0.2756002 0.10610342 -0.1576345 -0.08825289 0.030307844 0.21849841 -0.057359483 -0.043658495 -0.1386397 -0.051440515 0.27415377 -0.13914876 0.11446713 0.16928175 0.18723041 0.5082235 -0.23296142 -0.0669489 0.20889899 0.3020945 0.15065308 -0.1439629 0.3002629 0.29247892 0.21739234 0.14554173 0.10564507 -0.110523194 0.06517935 0.021418886 -0.2903724 0.021791749 -0.010943898 0.09598939 0.28124377 0.38501644 -0.18635899 0.23562703 0.3421945 -0.23445483 0.09268375 -0.0062808273 -0.006175113 0.099204265 -0.4602787 0.5640396 -0.35855702 -0.08113387 -0.21683156 0.012060925 -0.020306762 0.111368 -0.08993365 0.1414554 0.16172102 -0.29042962 -0.029246306 0.069015905 0.008328689 -0.044969387 0.07280333 -0.39254463 0.34897387 0.20121546 0.35505936 -0.07526412 0.10913281 -0.42196473 -0.25224954 0.3002004 0.37781546 -0.15333949 -0.48553002 -0.034052376 -0.08974811 -0.059857458 0.20350334 0.38848537 -0.18620144 0.366379 0.19404042 -0.24541782 0.08413297 -0.21917425 0.11588678 0.047793657 -0.041434165 -0.004498373 -0.02720384 0.1988548 0.14532183 -0.0057719587 0.14838542 -0.008244569 0.09670383 -0.078366555 0.1484279 0.17296118 0.07593965 -0.17854865 0.07721401 0.07629703 -0.118556924 0.10929759 -0.1275603 -0.29900602 0.3726331 -0.29102698 -0.09970906 0.024849856 0.11349644 0.043790612 0.14443009 0.23753451 -0.17122489 -0.010662513 -0.080820635 -0.11243412 -0.1354868 -0.18098864
709 0.09016478 0.38600668 0.10473559 -0.01935411 0.09510017 0.14966866 -0.04202237 0.31343907 0.07249052 0.46238756 0.2492369 -0.18760207 0.08458961 0.122511365 -0.19555208 0.12519526 -0.16586466 0.3475824 0.29419288 -0.29055312 -0.24323982 0.01508794 0.16590102 0.23264796 0.014570607 -0.20974207 0.19083476 -0.020455558 0.190856 0.21744263 -0.17390445 0.22053838 0.38271278 0.15419589 0.067237414 -0.040384017 0.2105549 0.15638135 0.08466331 -0.5233864 0.08976034 0.28813535 0.24879207 0.00790084 0.01862317 -0.13305487 0.1673787 -0.31740433 -0.20960319 -0.7100354 -0.16771054 -0.04539737 -0.2113738 0.1931288 0.25473794 0.25996166 0.48968613 -0.017985888 -0.19869204 -0.04028392 -0.49541703 -0.08232472 0.36183053 -0.56279325 -0.21150817 -0.28428793 0.10425576 -0.2113705 0.033902895 -0.20612293 0.21396199 0.08922487 -0.26782197 0.056311205 0.14361668 -0.444886 -0.23404555 0.07586926 -0.053974032 0.15526992 -0.016648943 0.28980273 0.03987951 -0.1946575 0.29598138 0.12365267 0.31096113 0.26177084 0.14929853 0.25699967 -0.048318464 -0.13540052 0.29302776 0.15070336 -0.12937996 -0.08267186 -0.13464469 -0.17807627 0.30488852 -0.060893707 -0.11140972 0.07020313 -0.006430415 -0.24173512 -0.097330905 -0.13853645 -0.30619654 -0.17965244 -0.2399422 -0.060971837 -0.021315793 0.34057575 -0.04473806 0.25599524 0.08501038 -0.08023348 0.17734101 -0.051994074 -0.043658618 0.10709736 0.11163526 0.284051 -0.21420781 0.061801597 0.023021473 0.046707746 -0.027404394 -0.24746442
743 -0.09622161 0.16313323 0.12489855 0.23912114 -0.15601154 0.14333782 0.29245254 -0.14296713 0.38406864 -0.12614995 -0.13904853 -0.44117662 -0.6091484 -0.11024644 -0.12521729 -0.08057569 -0.09409257 0.14112565 0.18929687 0.07346961 0.18811665 -0.17365603 -0.28344893 -0.029855253 -0.038483925 -0.08978001 0.31470022 0.09860724 0.5923171 0.21537665 0.0066710995 0.18195325 0.020877857 0.12538904 -0.027048541 0.21400051 -0.054091148 -0.012072554 -0.20925009 0.22034957 0.1948204 0.2067006 0.16120736 -0.0415595 -0.53941923 -0.175644 0.08064754 0.1955989 0.27269503 -0.062000673 -0.04504157 -0.43779156 -0.043439608 0.46411732 -0.14823899 0.28867447 -0.2330893 0.30361855 -0.0573943 0.2055444 0.1184654 0.31930816 0.33438906 -0.17644165 -0.11984823 -0.47671044 0.2771791 -0.26968816 0.222298 -0.20887963 0.39669582 -0.2117181 0.046224907 -0.0039815265 0.04379817 -0.1921341 -0.118614785 -0.042300504 0.2437592 0.26718736 -0.24655856 0.07528874 -0.022493022 0.284159 -0.019127764 0.35694185 -0.3304702 0.10531869 0.2681885 0.33762354 -0.18753788 0.45402834 -0.064053506 0.11278336 -0.16646163 -0.17965043 0.031442016 0.03424217 -0.13292798 -0.63044184 -0.0029756508 -0.33389083 0.20596102 -0.02100386 -0.17012604 0.011577757 0.091882594 -0.1330267 0.2321379 -0.068536445 -0.06903062 0.1907553 0.09395158 0.08111232 0.21427372 -0.24310592 0.25507402 -0.092612065 -0.2496163 -0.045747887 -0.124190345 -0.20798253 -0.1959207 -0.35371506 0.15767576 0.15884587 0.1773469 0.24762252
11 0.31810626 -0.107133366 -0.15545502 -0.04750486 0.08798434 0.19324216 0.2695083 0.14988172 0.03228857 0.040777862 0.029714346 -0.26106134 -0.28844038 -0.04577922 -0.62669104 -0.14697102 -0.20752737 0.22528781 0.53508306 0.31914166 0.10891397 0.38846275 0.052993037 -0.18959647 -0.37200528 -0.11540224 0.26297247 -0.06029513 0.17138207 0.06857112 -0.09984849 0.12572391 0.21678983 0.04380592 -0.05253113 0.23969658 0.516787 -0.46418965 -0.073981315 -0.1599879 -0.34830308 0.32630736 0.22802019 0.35854918 0.18057273 0.01305771 0.26163584 -0.043710094 -0.17719616 -0.014498395 0.0105920695 -0.1723236 -0.3895271 0.065047145 -0.020296058 -0.08376949 -0.053771522 0.0013368365 -0.19873117 -0.22216879 0.37927485 -0.22735511 -0.114202954 -0.068468995 0.00050008594 0.025660828 0.19692485 -0.49714276 0.094646685 -0.48410052 0.13975812 -0.21365707 0.36769372 -0.19245812 -0.01926023 0.06271051 0.120377555 -0.0722616 0.11614874 0.29013568 -0.16620773 0.024402047 -0.21363518 -0.24027117 0.46100327 0.31392667 -0.3885896 0.068170905 0.15482572 -0.056317575 -0.41779584 0.09755987 0.07796974 -0.105674125 0.2850136 -0.2569257 0.18756953 0.06420083 0.046656642 -0.5239234 -0.18175335 0.2076937 0.30279252 0.13870665 -0.05851805 -0.3091868 -0.040746912 -0.5041369 0.13030873 -0.39646426 0.22126049 0.3904392 -0.13758187 0.05453362 0.36232468 -0.25199085 -0.039391834 -0.52378815 0.027252983 -0.095059395 -0.37872314 0.21231937 0.042828552 -0.29368824 0.016802764 0.017146312 -0.20688371 0.1968296
1770 0.1271837 -0.016568981 -0.09581606 -0.22026171 0.014003058 -0.21447492 0.11936329 0.1774041 0.41420412 0.43708107 -0.048749663 -0.12767263 0.034875244 0.28479496 -0.3817493 -0.031344406 -0.13452977 0.20124115 0.078803755 -0.06716747 0.084996864 0.16114974 0.3791095 -0.3023256 0.005084196 -0.43815267 0.22253434 -0.2030991 0.122166686 0.49435648 0.038402475 0.06859786 0.005719282 -0.023337197 -0.03205554 -0.04125165 0.13410582 -0.19584028 0.051581368 0.21170627 0.2995637 -0.21632703 0.14345275 0.15504135 -0.27004445 0.052515157 0.26917145 -0.49642402 -0.15291968 -0.7505592 -0.19962332 0.40517417 0.18600643 0.27622125 0.24599761 0.52594423 0.03557489 0.07961834 -0.16346703 -0.03381443 -0.15210606 -0.18306816 0.14698626 -0.29874262 -0.48947936 -0.3663361 0.19510081 -0.39464942 0.38810813 0.15221906 -0.16275975 0.20447093 -0.056620684 0.2893223 -0.080077276 -0.23772076 -0.29304677 -0.0720394 0.23224546 0.07124625 0.03882432 0.10075939 -0.009431565 -0.08175276 0.35929433 -0.103103764 0.16814284 0.3184856 0.26098546 -0.33851323 -0.05963373 -0.17878462 0.00648824 0.048631996 -0.07025934 -0.15600614 0.24081719 -0.03572043 0.28784826 -0.3613936 -0.37317175 -0.18970236 0.12856552 -0.082844734 -0.04902676 -0.0777621 -0.19735892 0.025437267 -0.25633985 -0.2857142 -0.22045839 0.49088505 -0.3177356 0.065282896 -0.07110418 -0.27114835 -0.008022093 0.07003834 -0.1481293 -0.013495433 0.08440299 0.67698956 -0.3202351 0.05346767 0.11999299 0.2415872 0.010370563 -0.1746727
1205 -0.12214982 0.5114104 0.3183379 -0.2655304 0.40793902 -0.037800405 0.12428559 -0.03399747 0.41207024 0.051698167 -0.0251125 -0.41029516 -0.037840616 0.10681262 -0.07426932 0.20047875 -0.27055532 0.30554637 -0.05466176 -0.11926634 0.39668283 -0.03491744 -0.1599022 0.21685986 -0.40804717 -0.096990645 -0.34319076 0.35917166 -0.029899959 -0.109298296 -0.36255527 0.13372225 0.0376432 0.17174383 -0.3630766 -0.24715203 0.25059143 -0.18718502 0.0015622891 -0.10110531 -0.041934192 0.10704037 -0.19764355 0.19518569 -0.25548896 0.039024837 0.36036953 0.4120491 -0.17055964 -0.10439534 -0.28443313 -0.067551896 0.036818918 0.1959322 -0.08829854 -0.12636967 -0.13576996 0.2668967 0.30237815 0.5591163 -0.05764727 0.20065142 0.18464336 0.0700984 -0.27353963 -0.28631955 0.01518175 0.2820102 -0.27080724 0.035628542 -0.10744765 -0.04594874 0.24324952 -0.12839754 0.2719332 -0.02537582 -0.66286325 0.18866906 0.49021956 0.15788098 -0.2693713 0.12302604 -0.100792214 -0.033481315 0.17115901 0.13822335 -0.00567056 0.19673766 -0.1779389 -0.1113785 -0.13430056 0.2730091 -0.10806617 0.43917304 0.021294631 -0.17191811 -0.03575987 -0.20106441 -0.031041367 -0.14470647 0.014612134 -0.003695138 0.5671972 0.052055005 -0.049546957 -0.09539909 -0.024609853 -0.38969818 -0.091076694 -0.038451992 0.25418773 -0.093684286 -0.49170387 0.08698058 -0.047965012 -0.5911756 0.14788769 -0.23727106 0.124553956 0.10368248 0.20635477 0.061505716 0.05445955 -0.022844918 -0.002184775 0.22148934 0.26084885 -0.0250555
1160 -0.10214905 0.10702183 0.1313138 0.40733546 -0.051779974 0.07148838 0.31719333 -0.15912023 0.4257766 -0.38484377 -0.101180464 -0.6394883 -0.382652 -0.23676543 -0.28897792 0.21414487 -0.27805036 0.30204412 0.23905975 0.25942016 -0.22680815 -0.10293732 -0.16124786 -0.13958623 -0.17950977 -0.03235189 0.46969372 -0.055010885 0.5273471 0.35444862 0.15170395 0.08134411 -0.069815375 0.13285989 -0.10374931 0.024698373 0.15136349 0.31785324 -0.25877255 0.16931838 0.11384333 -0.08375856 -0.01788172 -0.01887675 -0.2697019 -0.21104465 0.063054144 0.13761398 0.45534092 -0.09809716 0.07772126 -0.28309196 -0.02591692 0.4639016 0.07324682 0.36886317 -0.033131883 -0.072284035 -0.1861308 0.33363044 -0.07590855 0.3315795 0.24666288 -0.23433624 -0.12875842 -0.2515971 -0.20220321 -0.32135162 0.09340305 -0.22164999 0.5309105 -0.1385358 0.17145804 0.1330097 0.062613405 -0.2438049 -0.17590179 0.13416101 0.22972552 0.34027123 -0.3546462 0.08641686 -0.1117194 0.2527785 -0.24648401 0.31791833 -0.31826732 0.00035587195 0.26389664 0.18946315 -0.08069697 0.406743 0.13740306 0.20517376 -0.17763233 -0.094847456 -0.17158516 0.0688756 -0.03484315 -0.30105683 -0.12847613 -0.3133644 0.021684278 -0.027711809 -0.12648799 -0.031142611 0.32502893 -0.17542447 0.2741036 -0.15087266 0.08165057 0.279918 0.014425697 0.3322177 0.07600155 -0.28974786 0.25086778 -0.055957798 -0.1756689 -0.018994069 -0.34289664 -0.02292252 -0.0360087 -0.26971537 0.011723931 -0.028429369 0.19932273 0.14518328
1453 -0.27447233 -0.2132744 -0.31304806 -0.022181064 0.17308164 -0.08324957 0.47946668 0.0015864952 0.27239174 -0.11444185 -0.11221073 -0.09950938 0.19925761 -0.20030467 -0.026368447 -0.2611162 -0.09820371 0.24261425 0.36326072 -0.051929757 -0.08498846 0.31306383 -0.39611995 -0.15209742 -0.39757085 0.20431778 -0.21842317 -0.0049392334 0.21569225 -0.09202562 0.015045326 -0.022204354 0.16536832 0.19991723 0.009447176 -0.074607745 -0.1841721 -0.103896745 -0.12815322 -0.03731389 -0.04637783 0.061947662 -0.059946466 0.5437664 0.07430801 -0.24644245 -0.05910376 -0.02079802 0.07889804 0.06537877 -0.043020986 -0.6172433 -0.24234156 0.29529643 -0.06167429 0.19379115 0.12640582 0.099066995 -0.21055049 0.28865927 0.11819411 0.08462222 0.019292815 0.14567557 -0.55757004 -0.26368278 0.1932503 -0.10456811 -0.10539403 -0.18901032 0.43237367 0.026623558 0.32760653 -0.09729082 -0.087395966 0.12418559 -0.31362078 0.2525652 0.051577073 -0.37559587 -0.19924887 0.10803261 0.13849606 0.08671417 0.26453346 -0.26193315 0.16992912 0.02242425 -0.064184405 0.101469465 0.18949506 -0.07235295 0.3603448 0.4340182 -0.25898114 -0.22706933 -0.12721743 0.12552822 -0.04763605 -0.05074983 0.1981491 -0.22256711 0.21659905 -0.03697615 -0.47255257 -0.22500262 -0.16668051 0.10879453 0.13016509 0.010314219 0.056875583 -0.032107487 0.013565511 -0.15789013 0.19236751 -0.44076136 0.01728219 0.16272014 -0.44952303 0.2579601 -0.05445415 0.04008728 0.17767715 0.24711166 0.067632616 -0.0438127 -0.14170998 -0.0795669
1790 -0.38197362 -0.18833579 -0.38330373 -0.10892904 0.38802877 0.040834397 0.28070712 0.14946829 0.26006302 0.081502266 -0.0729228 0.15032144 -0.09488448 -0.24509583 -0.068400964 0.12678197 -0.4412945 0.45388114 0.02598074 -0.6178911 -0.026289979 0.10997912 0.058143135 0.17732728 -0.3140391 0.31888327 -0.013814873 0.0072998474 0.20144969 -0.030081097 0.12822846 0.2917512 0.24301685 0.114228815 -0.4506822 0.116537325 -0.03524848 0.111722484 -0.06869257 -0.36544293 0.14878067 -0.12850192 -0.04699511 0.39131835 -0.038100846 -0.5660043 0.049146287 0.3200829 -0.35209033 0.045732707 0.07149191 -0.17682418 -0.2476905 0.035393294 -0.37622616 -0.041541234 0.09685047 0.28794405 0.03544853 -0.09929752 -0.15186156 0.10778855 -0.12817274 -0.13064966 -0.50857997 -0.51489055 0.040972833 -0.37294886 0.2329414 -0.14755625 0.64180356 0.07560568 0.12221451 -0.08811798 -0.010278438 -0.16977096 -0.37651974 0.03235014 0.03484067 -0.42097044 -0.050346967 0.20531437 -0.09056322 0.11585141 0.13155852 0.006691047 0.2271854 -0.21710524 0.36657143 0.44869974 0.3086881 0.17141062 -0.051653996 -0.14405635 0.19380239 -0.36880773 -0.091857225 0.09888709 -0.06473852 0.028486714 -0.08509012 0.21543607 -0.37947327 0.018450702 -0.31546205 0.003710127 -0.19134195 -0.28502318 0.059835296 0.19789028 -0.089145966 0.03995547 0.0837913 -0.010595263 0.38489538 -0.19867346 -0.15052885 -0.019124117 0.25804317 0.40512574 -0.22210796 0.35996193 0.20494099 -0.15245141 0.18201552 -0.06718235 -0.1012731 0.21431687
56 -0.2914247 -0.18796119 -0.11581381 -0.034865335 0.36183834 -0.0370534 0.47751534 0.01512727 -0.108818166 0.20981456 0.17675027 -0.112111226 0.041827165 0.05632016 0.20510666 0.2393749 0.11430643 -0.013768369 0.49634674 0.3360421 0.34358922 0.3031378 -0.3875475 0.27941567 0.3257522 0.062329154 0.15579318 0.42643958 0.08410995 0.048363637 0.16673772 0.32145005 -0.14922091 0.311192 -0.3245276 -0.14241181 0.00040180606 -0.030524177 -0.29715317 -0.20397897 0.17293838 0.08130802 0.13549577 0.18879513 -0.0553775 -0.018877346 0.32905215 -0.037406463 -0.06053352 0.2464256 0.4542735 -0.061305795 0.095390886 0.44792205 -0.53434545 0.46641982 -0.1410414 0.25152057 -0.41743872 0.251533 -0.6712177 0.2289399 -0.035632405 0.24853945 -0.2799461 0.18588212 0.014551718 -0.37297884 -0.44804776 -0.15826662 -0.13010198 0.13285525 0.27660117 -0.2676176 0.13788785 -0.28901777 -0.6944023 -0.29819092 0.110703826 -0.0018168004 0.2806814 -0.26318008 0.3399153 0.10059402 0.15928699 -0.025190795 -0.07588961 0.2557831 0.25149375 -0.0029298489 0.045958098 -0.057612997 0.3056927 0.1575747 -0.024889845 0.125065 0.20094249 0.35603714 -0.45698586 0.095763184 0.086252764 0.36799225 0.45638013 -0.052344177 -0.099042565 -0.34472305 -0.34626788 -0.78273535 0.22598688 0.089111336 0.2002036 -0.40669376 -0.025476817 -0.04946451 -0.08283453 -0.39871415 -0.08080359 -0.21661274 0.014811703 0.11253689 -0.25441095 0.0021609992 -0.30344972 0.0153110055 -0.33791667 -0.1918011 -0.29602256 0.2279709
1923 -0.052149117 0.227006 0.21386983 0.1582189 0.23262908 -0.0040383963 0.26363358 -0.1891048 0.13474998 -0.11067283 -0.02758029 -0.38685986 0.023744535 0.12601925 -0.094428584 0.12587765 -0.035138387 0.31215414 0.09005479 -0.16467237 -0.0010403201 0.30433303 0.16331252 -0.24430549 0.15402411 -0.4140172 0.29788333 -0.03420897 0.10186976 0.17513157 0.19430947 -0.04297681 -0.21860445 0.39854422 -0.26503202 -0.3239343 0.15524769 0.20954266 -0.30968264 0.14957681 -0.1481065 0.22792086 0.2573877 0.5864458 -0.105137065 -0.11594249 0.09373563 -0.0014124099 -0.037326396 -0.09174712 -0.16681002 -0.062145617 -0.28284863 0.48357803 0.36790878 -0.13195363 -0.09355914 0.089851074 -0.021960625 0.24175026 -0.09852902 0.21240534 0.37859342 -0.084436394 0.07028049 -0.4490965 0.109290615 -0.14290369 0.101251036 -0.45566845 -0.011775756 -0.23670591 -0.002267046 0.059354093 0.13936917 -0.32354707 -0.047125023 -0.08266733 0.006567438 0.12647933 -0.5255904 0.11412357 0.0014035249 0.07491468 -0.0008567972 0.2721181 -0.17704844 -0.15348852 0.4688758 0.13650122 -0.13383518 0.10233303 -0.22881763 0.17263459 -0.0474515 0.045652352 0.3274968 0.30541125 -0.31277037 0.003505165 0.1270813 -0.045117427 0.2606342 -0.034572173 -0.36552408 -0.014940697 0.028629275 -0.34848 -0.30248898 -0.025837295 -0.10623502 -0.12918462 -0.26990673 -0.3277775 0.13727997 -0.30180898 0.1261716 -0.009267291 -0.24096552 0.34997448 -0.5836861 -0.13057818 -0.16127507 -0.016041692 0.17406477 0.6065176 -0.11114105 -0.008591191
662 0.028783495 -0.08755096 -0.42665607 -0.05947168 0.24041285 0.20744951 -0.14933139 0.084553815 0.40825483 -0.015699787 0.25482425 -0.17805144 -0.101757616 0.08271855 -0.09476526 0.21216656 -0.6131509 -0.11649471 -0.053132784 0.14788587 0.053060167 -0.081395395 0.12396859 0.021007773 -0.36641023 -0.041910134 0.09349274 -0.20661543 0.27368855 -0.23179461 0.2913744 -0.02719997 -0.06477715 -0.24661677 -0.16054772 -0.23480465 -0.293155 0.019903991 0.09883151 -0.060403887 -0.22571246 -0.38266513 -0.04733486 0.53812546 -0.17700677 0.14829925 0.33465305 0.030658118 -0.07503748 -0.3245716 0.0065788766 0.22689159 0.15968415 -0.11665504 -0.19259219 0.27725527 -0.32381222 -0.09533673 0.08908311 0.19579905 -0.15130888 -0.11940515 0.051048845 -0.2987071 -0.17030123 -0.3083184 0.05429897 -0.18324344 -0.19383529 -0.3974062 0.45495412 -0.11737471 0.08518478 0.048492163 0.010571335 -0.36320645 -0.399369 -0.050278954 0.21950501 -0.06907116 -0.1487565 0.12853234 -0.09992486 0.08691296 0.48946476 -0.011803978 -0.055811368 0.49900022 0.0032918423 -0.1651178 -0.07181049 0.071601175 0.39161074 0.096056715 0.15324003 0.3595611 -0.052793454 0.11526447 0.083775274 -0.2138663 -0.066980146 0.3601489 0.2980297 -0.09628884 0.272501 0.0435311 0.11815239 -0.30321893 -0.08338432 -0.27946156 -0.11784412 0.22181389 -0.22517644 0.07296135 -0.14448929 -0.2487568 0.42185676 0.1507379 0.02059835 0.18754534 -0.04465542 0.10818419 0.4472949 0.5287794 0.22691877 -0.20554678 0.065667346 -0.4057137
1206 -0.4383984 -0.053770058 -0.1781405 -0.23505595 0.14543712 -0.3143466 0.06918076 0.5062095 0.2421948 0.113745525 0.10234425 -0.3000211 0.3235188 0.101764105 -0.09565988 -0.06381659 -0.30971795 -0.25324094 0.38166675 -0.044028543 0.25429082 0.08289861 0.045929555 0.24170235 0.01027014 -0.10494704 0.25236717 0.15454346 0.17547762 0.08518764 0.114849955 0.31133616 0.19951698 0.014399976 -0.08574241 -0.21880274 0.11905136 -0.15778682 -0.52397466 0.06465753 -0.08719295 -0.13586192 0.013456372 -0.031998776 0.12533063 0.29635507 0.2016809 0.14473204 -0.29619396 0.067059204 -0.140666 -0.1299982 -0.27128074 0.5352336 -0.5257642 0.09648311 -0.07056183 -0.2470114 0.2570768 0.0032144631 -0.24392758 -0.0105318865 -0.05925484 -0.4405609 -0.093326665 -0.16482562 -0.012616708 -0.08308562 0.35880187 0.07913616 0.14028789 -0.11903994 0.20726608 -0.35538116 0.3384256 -0.0945261 -0.32995066 0.10655516 0.25121284 -0.15027829 -0.070600964 0.21584608 0.07658294 -0.14377238 0.32468405 -0.065744944 -0.29845083 -0.010643059 0.14108862 -0.028586349 -0.012612075 -0.107258216 -0.022447705 0.02703468 0.27055553 -0.016234573 0.29692182 0.092607744 -0.302599 0.35448727 -0.060202397 0.049860574 -0.04558377 0.08797559 -0.1836673 -0.2500025 -0.06092157 -0.13854624 0.35227656 -0.112950325 -0.041540187 0.65353847 0.029012823 -0.06485996 0.035202138 -0.5188005 0.24107146 0.16582975 0.16482973 0.08959983 0.02389561 -0.18016016 0.18939595 0.19199501 0.00961729 0.23937154 -0.01186053 -0.41859362
1811 0.072831124 -0.034165673 -0.13641757 -0.20818788 -0.12657571 -0.24487188 0.22074164 0.042335384 0.051968683 -0.06946026 0.1678061 -0.39325 0.05417523 0.24047893 -0.4245978 -0.15777445 -0.290735 0.3553526 0.09012646 -0.05290288 0.005240747 -0.1148676 0.14034872 -0.19764717 -0.08961886 -0.039874982 0.2128181 -0.28043178 0.33472258 -0.18298365 0.39217877 0.30268496 -0.030617379 0.068301156 -0.13015161 0.014981014 -0.056734696 0.08025539 -0.00075482175 -0.10762852 -0.01852655 0.15447977 0.46027106 0.065078996 0.18708473 -0.23141384 0.38565108 0.06011277 -0.060246654 -0.2676687 0.08268318 -0.0005983138 0.10714013 0.110847056 -0.0514755 0.16657354 -0.052403864 0.3369312 0.06783696 0.091117345 0.086735606 0.026000943 0.3286687 0.10217377 -0.13953634 -0.23332582 0.15917227 -0.25700948 -0.2642621 -0.28271714 0.04282885 -0.70439786 0.38198608 0.35151383 0.26644227 -0.021349037 -0.11175027 0.024694147 0.45739797 0.11831828 -0.50429004 -0.0377747 -0.27668875 0.002866094 -0.06391413 0.25930855 0.019872803 0.06326057 -0.057507828 0.1250103 0.07810451 0.04454117 -0.35927227 -0.095884375 0.047898687 -0.095042564 0.25479692 0.246631 -0.014819724 0.12876382 0.36995423 -0.43579885 0.67459166 -0.21669644 -0.4433555 -0.19222084 0.0123755 -0.35614434 -0.06888536 0.169489 -0.1826905 0.3999125 0.15239578 -0.3387837 -0.029357702 -0.43589455 0.17435989 -0.07997395 -0.013331992 0.039774753 0.0005465405 0.31936052 -0.30814907 0.25159422 0.062772445 -0.028353631 0.23017645 -0.031338744
511 0.19792663 0.01564857 0.3407499 0.058290977 -0.027137477 0.06936335 0.25800806 -0.23790014 -0.18660983 -0.21833783 -0.08599 -0.4418216 0.11726636 -0.027861321 -0.4845505 -0.07873719 -0.0114359185 0.39332214 0.04445055 0.08468691 0.31145805 0.2934758 0.06361468 -0.26900855 0.08862259 -0.37760293 0.16389076 0.034426108 0.077067964 0.24186184 0.3030394 -0.044699308 -0.11319911 0.20833452 0.19177426 -0.48717752 0.40293908 -0.06677939 -0.17337689 0.06710601 0.11302249 0.20155147 0.17275715 0.73031086 -0.122168355 -0.10726901 0.4015427 0.19319266 0.054142974 0.1261108 0.014164594 -0.079023935 0.014121267 0.35619226 0.35870796 0.08366546 0.06677664 -0.09827527 0.05893946 0.2390857 -0.1837969 0.19776946 0.25603834 -0.07044495 -0.09922014 -0.2444518 0.06112404 -0.13147396 0.029175878 -0.2569766 0.116216265 -0.27666393 0.13406412 0.03059728 0.09767235 -0.10875693 -0.117038116 -0.018813198 0.21291898 -0.105768435 -0.36815876 -0.060898606 0.27293262 -0.07067176 0.2075461 0.30176142 -0.05521511 0.02548364 0.4952029 -0.26601818 0.097768694 0.19953047 0.012332925 -0.12113555 0.14176895 0.05877294 0.37288296 0.2579595 -0.14750895 -0.39707705 0.2046735 -0.066628985 0.32791153 -0.10501673 -0.33915135 -0.15193288 0.20011571 -0.10797694 -0.07485005 -0.037246197 0.2080768 -0.28059626 0.005516529 0.08853581 0.07068223 -0.42438903 0.019527942 0.070279285 0.05460977 0.4613477 -0.37565598 -0.048104938 0.059845265 -0.0887829 0.3198829 0.22085328 0.090603866 -0.2001641
2165 -0.16724044 0.436639 -0.12262323 0.046638627 0.072129235 -0.15749776 -0.12157043 0.18658258 0.5146091 -0.548095 0.29908583 -0.6840133 0.07979753 0.29463458 0.20479958 0.14524023 -0.06268364 0.089612745 0.10625374 -0.06538872 0.14364563 0.2736204 -0.07376214 -0.04990388 0.09845565 -0.51935095 -0.062085874 -0.05861714 0.27659634 -0.18191972 0.35739914 0.20608485 -0.08128933 0.08887614 -0.19575004 0.14241406 0.1602499 -0.06909331 -0.054284774 0.064275086 0.065700755 0.0777706 0.3072024 0.13765678 0.28208104 0.011012 0.3927266 0.21349591 -0.013737114 -0.056071904 -0.07592369 0.09064247 -0.39931065 -0.09926089 0.32512298 -0.22872388 -0.2981689 0.06643293 0.16336605 0.34724194 0.022588853 0.41197196 0.34683332 0.018261677 -0.3416861 -0.2857303 -0.0066188015 -0.39713082 -0.07838189 -0.18738574 -0.010218311 -0.08328357 0.09002943 0.23875602 0.014680109 -0.20186426 0.07955623 0.12272611 0.22566582 0.19874953 0.043667883 -0.023703761 0.20501964 -0.07080387 0.2940027 0.285247 -0.289791 0.036056425 -0.032290086 0.24961196 -0.1461044 0.42839095 -0.19223323 -0.09334769 -0.040457387 -0.101532914 -0.050517548 0.3270376 -0.24383241 -0.36799914 0.013048656 0.022085391 -0.16136645 -0.21120068 -0.15011413 -0.3208358 -0.0415281 -0.23301786 -0.029017339 0.0019505509 0.06456692 0.26092026 -0.024624143 -0.31863874 0.23665349 -0.49829033 0.17153114 -0.0049745874 -0.1808602 0.11091143 -0.28373918 0.19564426 -0.2313933 -0.12042267 -0.0361651 -0.022303712 0.1832079 -0.18315828
1814 -0.07884219 0.10053226 0.2592423 0.106555335 -0.045718994 0.5573067 0.16731755 -0.19157779 0.50675565 0.09178404 -0.32172853 -0.3896146 -0.28262433 0.06772576 -0.24685301 -0.19455029 -0.2960398 0.30475453 0.09793514 0.041974172 0.04941459 0.028608494 0.110748865 -0.09576792 0.017115537 0.0075720074 0.2820699 0.10763053 0.11083356 0.12473775 0.23328353 -0.110951275 0.20800176 0.057370402 -0.1711623 -0.21174912 -0.026469994 -0.124384515 -0.3146436 -0.08695184 -0.52212405 0.07948201 0.26421976 -0.19506575 0.018616857 -0.25386232 0.30982095 -0.14716107 0.35668552 -0.1040837 -0.4654331 -0.08907603 -0.14560862 0.33547503 0.2582043 0.06327254 0.1425631 0.10034238 0.022439204 0.09040602 -0.10862321 0.0121636465 -0.06373159 0.06610463 -0.49172282 -0.013538297 0.060925767 -0.46919656 -0.1822635 -0.17315505 0.52671087 -0.19360597 0.20360686 -0.21303487 -0.41011742 -0.1324887 -0.24941841 0.258492 0.18268308 0.20747022 0.065475 0.026403103 0.24902041 -0.18696658 -0.122839324 0.36027467 -0.17206098 0.11943031 0.14733832 0.18602347 -0.17987001 -0.23585877 -0.17153011 0.29612225 0.2868934 0.24516946 0.17026526 0.1504749 -0.34113345 -0.5189008 0.22704469 -0.19544795 0.09966249 -0.24233878 -0.32524183 0.027911901 -0.12983148 -0.22180808 0.13065773 -0.30551338 0.06727627 -0.1556732 0.10052714 -0.09591938 0.35184637 -0.07661492 0.11427747 -0.09597455 0.54100734 0.3247519 0.17178886 -0.15803748 -0.15850697 0.07492812 -0.033885192 0.15349028 0.29776606 0.008077507
783 0.14347115 -0.07144287 -0.10243083 0.17261583 -0.22618213 0.31486058 0.39156538 -0.0022764737 0.39522746 -0.20787431 0.04375151 -0.44596437 -0.14731364 -0.016589895 -0.04553402 0.021242188 -0.36420605 0.2969948 0.1800713 0.13437635 -0.12751193 -0.0011094233 -0.03308378 0.054565918 -0.50852954 -0.06133859 -0.055337355 -0.02725287 0.08836389 0.15545662 -0.07194788 0.1335476 -0.08382901 0.35418266 -0.20139877 0.18486159 -0.051032875 -0.36232996 -0.15033755 -0.12982479 0.067929626 -0.20755841 0.0005702809 0.47455338 0.05821646 -0.010507605 0.36183822 0.018769518 -0.3252508 -0.18336624 -0.26322636 -0.37183988 -0.0128324395 0.4820374 0.45880225 -0.10652597 -0.14233321 0.18345137 -0.12795939 0.003509043 -0.09572545 0.2763998 0.22871172 -0.27630454 -0.0647151 -0.055880688 0.15264435 -0.26981205 -0.115862586 0.032527983 0.19659057 0.007871726 0.1942302 0.14876832 -0.16559401 -0.46951845 -0.16405539 -0.23712397 0.27982268 -0.13115084 -0.15469027 0.1936585 0.05687419 -0.019772375 0.011584767 0.14507364 -0.029128598 -0.1747793 0.10081841 0.007882771 -0.17334257 0.38435817 -0.5157591 0.109312646 -0.29861885 0.31781244 0.2140917 0.24883676 -0.14633623 -0.39033306 0.13574772 -0.15989225 0.11093923 0.04874399 -0.4222362 -0.20315711 -0.059482697 0.0073854798 0.31719115 -0.3593477 -0.1355556 0.15794516 0.13274844 -0.105317526 0.07428186 -0.08659092 0.021604583 -0.045245584 -0.10199748 0.42356232 0.12781326 0.06628901 0.25243747 -0.072153874 -0.02505773 0.2183386 0.10694223 -0.12507413
918 0.18396096 0.22810909 -0.09045968 -0.11027285 0.21325593 -0.05578561 0.03680304 0.27900484 -0.098333284 0.3089311 -0.08615024 0.018297246 -0.14463887 0.21384513 -0.55463 0.01305086 -0.07674521 0.14431691 0.37239137 -0.19258039 0.36295408 0.24213333 -0.31093737 0.015059088 0.012558338 0.092843 -0.15998416 -0.3871094 -0.02829108 0.018034177 0.1306184 -0.091001414 0.002487837 0.057944607 0.14338346 -0.19144663 0.26427752 -0.0116790105 -0.12068441 0.25234857 0.11168105 0.30764282 0.42269787 0.21572544 -0.34107113 -0.179813 0.2695197 0.20722626 0.20382589 -0.52232605 -0.25275782 -0.34920236 -0.35575646 -0.13851826 -0.022229346 0.6642638 0.06676108 -0.037165917 0.07316633 -0.2966965 -0.45557895 0.35907266 -0.1417424 -0.47217256 -0.612153 -0.08715791 -0.025537914 -0.32108423 -0.3484269 -0.22024286 0.31671184 0.085577205 -0.39528757 0.26006362 -0.50407934 -0.40055376 -0.0149970995 0.075917125 0.27192152 -0.26801115 0.4646581 -0.10199454 -0.051336378 0.091303885 -0.12875725 -0.2472609 -0.20036565 0.34355956 0.34950957 0.3778103 0.1522861 0.48721218 -0.31122056 0.19836941 0.2008422 -0.06948919 0.024239324 -0.2824842 0.24755645 -0.06777566 -0.21234912 0.12784685 0.17668898 0.22866993 -0.019369086 -0.39323187 0.026453579 0.22842431 0.09391933 -0.21880451 -0.097967744 0.18532304 -0.4885615 0.311051 0.11567836 0.13971578 -0.09616391 0.17399423 0.060451537 0.040404577 -0.20825285 0.36617815 0.11192384 0.089208245 -0.19499144 -0.4222644 -0.33973172 -0.20540918
501 -0.26478863 -0.14331979 0.16984062 0.0920391 0.11317614 -0.17676003 0.30439755 0.13964167 0.30748972 0.5122033 -0.09292605 -0.1185867 -0.3148335 0.12658718 -0.44037068 -0.082803935 0.08869319 0.24164692 0.11152898 -0.06452669 -0.19012938 0.23296843 -0.11842336 -0.10209254 0.03169034 0.2756324 -0.33837992 -0.14461182 0.3109059 0.11281199 0.23764598 0.043861605 0.27049237 -0.13225335 -0.10063116 0.3022239 0.03375364 -0.09895831 -0.16759163 0.06369514 -0.02071973 -0.1620646 0.42817023 0.35661665 -0.1367211 -0.08209357 0.44639578 0.022616845 -0.23874487 0.24461523 0.053594243 -0.07625887 -0.047909226 0.33194864 -0.093095146 0.015130539 -0.054874837 0.2117412 0.34371275 0.076861404 -0.61202264 -0.02754026 0.42396483 -0.22930251 -0.2774196 -0.25490323 -0.14249949 0.11270307 0.42470053 0.060263555 0.108534135 -0.11304728 0.8296148 -0.4060619 -0.13837261 -0.13072532 -0.03363317 -0.17373449 0.22652419 -0.50005245 -0.438134 0.36306572 0.16156846 -0.022712547 0.26047677 -0.23414516 -0.021189451 0.22617744 0.010494422 0.30945963 0.18814069 -0.05547263 0.2919383 0.14318047 0.113431685 0.0963326 0.17580631 0.29087412 -0.20665367 -0.14898524 0.51310617 -0.017573962 0.0012154328 -0.2504183 -0.06698243 0.17926306 -0.12930346 -0.32932165 -0.1890218 -0.06342153 0.29880428 0.17494655 0.19225903 0.09680688 0.01842469 0.1139008 -0.11305922 0.0020532727 -0.11656834 0.033049956 -0.0058105392 0.12502193 0.21154986 0.20101053 0.04212189 -0.08855254 0.3327223 0.15130267
237 -0.12367656 -0.20320417 0.39176515 -0.06397931 0.04935296 -0.004438905 0.24230324 -0.047959853 0.4730918 0.041644827 0.117950544 -0.34237233 -0.14541748 0.18865305 -0.18025021 0.10701139 -0.16968766 -0.11070689 -0.025466051 0.18348566 0.13084836 0.20204718 -0.10500226 0.28894943 0.3334969 -0.006828373 -0.19257993 -0.04767642 0.034041096 0.07408536 0.20094235 0.26782286 0.08171192 0.01955816 -0.30432668 0.11716939 0.26033604 0.15019713 0.33394837 -0.19487351 0.1640501 0.20430844 0.11557042 0.12112039 -0.069812775 0.035110638 0.3726649 0.095660806 -0.1701851 0.17267619 -0.28296867 -0.3864402 -0.14258862 0.4735144 -0.07259912 -0.2392443 -0.31248742 0.036071394 0.1307876 0.15926039 -0.18663186 -0.33547938 0.13838872 -0.22422267 -0.057572756 -0.14227994 -0.43034995 -0.23844032 -0.24556486 -0.04239747 0.37335277 0.2839465 0.25396284 -0.038771704 0.09119818 -0.50218374 -0.16564436 0.117367655 0.17436655 -0.4535163 -0.23656164 0.15789624 0.089565314 0.297308 0.2657047 -0.20309664 -0.15972185 -0.23881526 0.035013624 0.33467722 -0.14297222 -0.029064773 0.06877229 0.19863139 0.23710732 0.16851199 0.1865189 0.27272463 -0.30207628 0.28471342 0.16761352 0.14770603 -0.04753717 -0.32805493 -0.21707785 -0.25163168 0.020261949 -0.14470391 0.14881593 -0.10015968 0.49028012 0.2975995 -0.37227315 -0.28114444 0.31804463 -0.2105847 -0.01640497 0.04569764 -0.18437877 0.17846386 -0.23625754 0.5240168 -0.21145917 -0.038457286 0.0067277728 0.31614664 0.06520442 0.034382176
1561 0.042195793 -0.13352366 -0.0731947 -0.27703187 0.16754667 0.22795059 0.24119905 0.39925727 0.07121176 0.05355915 -0.281759 -0.24493803 -0.13293299 0.0004989163 -0.017905401 -0.4902254 -0.2643987 0.15832421 0.0053703664 -0.28181326 0.063123494 0.4448151 -0.027464103 0.03878928 -0.14652 -0.12064928 -0.1606773 0.03863138 0.16580863 0.009094227 0.16052583 0.27040946 0.09859434 -0.2789571 -0.28576928 0.037769698 0.10425059 0.28792647 0.0026847392 0.12238944 0.009299699 -0.016197229 -0.24864666 -0.023894843 0.014474845 0.24752794 0.75620043 -0.4689116 0.06899221 -0.1356379 0.017748946 -0.12925789 -0.29813865 0.15327878 -0.29272914 0.048600655 0.21171962 0.21890561 0.29750326 0.35707712 -0.18554476 0.3068386 -0.18915555 -0.16463903 -0.2770221 -0.2169139 0.43249202 -0.28400403 0.108149715 -0.16383708 0.4967145 0.22529466 0.3910389 0.41291744 -0.19793956 -0.050179042 -0.35107863 -0.11683491 0.40917134 -0.3342664 -0.18888001 -0.17133996 0.044098303 -0.034634862 -0.16549695 0.42633006 0.19969106 0.056971777 -0.12843592 -0.15105416 -0.1261386 0.063079804 0.13661584 -0.28832713 0.10803879 0.00856658 0.3739535 -0.115674436 0.23014937 -0.19359814 -0.31805706 0.35732967 0.18007518 -0.12004366 -0.076263614 0.20735613 0.021649638 -0.28628066 0.21784101 0.18564174 0.047476076 0.045006197 -0.33243406 0.09177336 0.005245751 -0.34303948 -0.008812419 0.16698273 -0.21678524 0.03228229 -0.32360876 -0.04145818 -0.21723388 0.17938533 -0.0519827 0.112454094 0.3178857 -0.0936042
90 0.08747414 0.36816448 0.16768582 0.20430154 -0.61752313 0.03048045 0.2687731 -0.21781011 0.28274366 -0.26103687 0.17081094 -0.29961962 0.018093407 -0.062486887 -0.25147405 0.0050691455 -0.38889623 0.068011925 0.2204009 -0.17072555 0.035661016 0.15686142 0.03327622 -0.32289767 0.1299965 -0.28678897 -0.07094476 0.40380546 0.19623375 0.053454693 -0.07413671 -0.006029255 0.083372444 -0.04063138 -0.3812719 -0.14506929 -0.0689076 -0.14090633 -0.12662387 0.15604043 -0.12624933 -0.10603205 0.52761626 0.035291284 0.14309135 0.10834117 0.24579164 0.23633613 0.20365949 0.31676224 -0.092136204 -0.3487481 -0.13291611 0.8703683 0.34956437 -0.1559353 -0.1025351 0.24705581 0.15111421 -0.08083767 0.23527803 0.20468715 0.38229084 -0.13161004 -0.5543884 0.15449856 0.2890113 -0.36798963 -0.34707603 -0.046834942 0.5533818 -0.1851997 0.0837431 -0.5216554 0.08701848 -0.079225816 -0.14778158 0.06781937 0.3632399 0.22377342 -0.20524879 -0.1480781 -0.056312244 -0.06776434 -0.020664323 0.01961504 0.19141269 0.15857507 -0.123040736 0.01862333 0.072584964 -0.09633252 -0.16805919 0.03556149 0.2361124 -0.19420378 0.09584899 -0.20647994 0.008317032 -0.5098731 -0.1865581 -0.082230106 0.2962793 -0.25995046 -0.06235373 -0.04700546 0.03473395 -0.065397866 -0.008008432 -0.20328042 0.046001732 0.34964985 -0.09316074 -0.52173185 0.18199116 -0.29577515 0.09440381 -0.258772 -0.009342253 0.07570286 -0.22329038 -0.16109824 -0.101464584 -0.053916663 0.09154998 0.23253 0.10332817 0.07201714
2121 -0.3479089 0.18487747 0.3363542 0.11306454 0.17676756 -0.1664013 0.11544048 0.16198397 0.5756198 0.0134866815 -0.03435096 -0.058723606 0.09785452 -0.18101837 -0.075415105 -0.045742705 -0.3050702 0.09030712 0.13248326 -0.4890343 0.04105719 -0.09567241 -0.082543395 -0.13062651 0.15361966 -0.0753819 -0.032555837 -0.41019148 0.03853946 0.2944968 -0.27029082 -0.12893644 0.091595 0.042740915 -0.12267086 0.27594623 0.46110564 -0.105945036 0.023711167 -0.17211898 -0.50226325 0.31857052 -0.14834246 0.021616975 -0.15997112 -0.46851534 0.53444296 -0.4769819 -0.22326073 -0.2566246 0.14840099 -0.22270626 -0.08999459 0.20941247 0.17076424 0.0045091426 -0.06817099 0.039687566 0.1875766 0.096444994 -0.22711526 0.25718838 0.12995023 -0.45840847 0.10173432 0.2606978 0.03579147 -0.21212958 -0.31434107 -0.21134293 0.09734945 -0.10524868 0.015144787 0.22731583 -0.47103924 0.20288123 0.0062802085 -0.3967109 0.26002273 0.19045334 0.09057675 0.00954304 0.0671847 -0.24322437 0.5014266 0.16663808 -0.31823626 0.6173131 0.44566375 0.020051546 -0.108854465 0.27325806 0.09781859 0.1894739 0.003737461 0.06385236 0.22241367 -0.39070493 0.38336223 0.28096634 -0.10879188 -0.2758461 0.08686422 -0.056790583 0.20563863 0.31660873 -0.5227572 0.1892829 -0.2914386 0.07551162 -0.4554579 0.2612481 -0.36211023 -0.1698141 0.23813988 -0.0141987875 0.19507132 0.016349636 0.31641018 0.2341949 -0.026443588 0.37565544 -0.18760096 -0.20033784 -0.06009094 0.28155792 -0.018686425 -0.41120115
238 -0.8658945 -0.16000749 -0.21751 -0.16617936 0.13937214 0.10526534 0.3838167 0.16248608 0.24666646 0.35730028 0.0019417889 -0.06656659 0.12484074 -0.017101038 -0.13697472 0.21375687 -0.39915898 0.18925641 0.49593973 0.34253213 -0.14590819 0.10692797 -0.49724185 -0.06339041 0.3085254 -0.07109567 0.06516284 0.38388652 0.1688151 0.25416574 0.15718056 0.051815588 -0.15260886 0.15989971 -0.38146943 -0.23783492 0.2341457 0.19040832 0.2004084 0.01779711 0.066595346 0.110023245 0.01611211 -0.014570494 -0.01278448 -0.024338217 -0.14041054 0.0838632 0.04040342 0.06971332 -0.25133896 -0.3907522 0.04292618 0.44518378 0.1045794 0.22745058 0.10609509 0.19454929 0.16849428 -0.046379257 -0.3049963 0.3646713 0.26134723 -0.0066486616 -0.44858527 0.16150746 -0.014348265 -0.664781 -0.061710842 -0.30523607 0.036732756 0.123948835 0.53069645 -0.21767811 0.33475703 0.1651178 -0.1640975 -0.27531102 0.27388453 -0.09051452 -0.1799477 0.2252803 -0.0411246 -0.022331806 0.18837278 0.04676674 0.5421839 0.12385139 -0.053935967 -0.12264368 -0.18660614 -0.26229742 -0.0926818 0.06434073 -0.01604192 0.024790712 0.11092959 0.313937 -0.081796065 -0.26736534 0.091571845 0.2505708 0.2521624 0.16717362 -0.17578661 -0.5131065 -0.36577582 -0.17383838 -0.18180904 0.20514686 -0.0069668056 -0.13300501 0.04119613 0.15226203 0.41036612 -0.5143698 -0.28644097 0.33825454 -0.2835414 -0.065309525 -0.068338275 0.40905157 -0.14539672 -0.11418599 -0.6458832 0.021843681 0.19071639 -0.101830944
2154 0.33163634 0.44899765 0.20913889 0.19478908 -0.21689197 0.07951115 0.1816871 -0.30286467 0.05249956 -0.13409097 -0.24158977 -0.23746008 0.13783488 -0.16891831 0.18418981 0.26114908 -0.17643145 0.24592577 0.119640395 -0.16788438 0.18089199 -0.26600447 0.084595576 -0.05737943 -0.006933833 -0.075034246 0.0055239904 -0.1638066 -0.14666331 0.3748928 -0.3605318 -0.016464453 -0.08555539 0.041176654 0.62187606 0.0512345 -0.0039102505 0.16968235 -0.0038391016 -0.027638715 0.17434137 0.1108235 0.44813457 0.0899316 -0.17321828 -0.068049155 0.53483516 0.3449484 0.14418413 0.050404508 0.1848507 -0.06420151 -0.055126872 0.1019806 0.12874234 -0.045244105 -0.2345122 0.09380058 0.3162161 0.25456798 -0.13052826 0.06814532 0.7007013 -0.14967905 -0.25080556 -0.1794543 0.087753944 -0.41136834 0.10060684 -0.316324 0.13237488 0.020091336 0.40736112 0.019925155 0.018954642 -0.21452044 -0.3567794 0.09337623 0.2296488 0.001915868 -0.52017736 -0.31581548 -0.17397954 0.34325296 0.123573385 -0.07593413 -0.3241179 -0.2027896 0.5627489 0.044776123 0.09606211 -0.033548847 0.14727741 -0.054615643 0.15456104 -0.11292192 -0.0864055 0.32944164 -0.13589987 -0.19743201 -0.3062814 0.42361122 0.094353795 -0.0077131432 -0.33465064 -0.34895882 -0.09945734 -0.47627217 -0.031506263 0.055347938 0.23279254 -0.026504284 0.048562333 -0.15544184 -0.03284846 -0.27786732 -0.040142857 0.12931496 0.11742069 0.44536504 -0.13537917 0.41039616 -0.06549013 0.29262397 0.12713197 0.45072562 -0.20997858 0.039691802
626 0.29774842 -0.1864046 0.18679044 0.2016617 -0.1438495 -0.1420505 0.4181438 -0.2950222 0.17049529 0.013126181 0.16620809 -0.4155884 -0.09046057 0.15825695 -0.16901287 0.3579732 -0.50215703 0.23162322 0.16034389 0.008920092 0.13664302 0.093977794 -0.03182269 0.03330658 0.047773704 -0.22783798 -0.03464373 -0.15063779 0.42135465 0.008012895 0.15804294 -0.021219224 0.0015107691 0.06204201 -0.3344391 -0.036446754 0.2236308 0.057364326 0.11836053 -0.08598177 0.24136965 -0.1342614 0.15251695 0.34089026 -0.26675525 -0.2875898 0.23617414 0.1279137 0.08486318 -0.08937056 -0.11988496 -0.21613842 -0.1796632 0.3147014 0.40656647 -0.13641845 -0.049480516 -0.11660582 -0.05183729 0.26957247 0.11962687 0.34514028 0.046440028 -0.15754814 -0.049183354 -0.045017615 -0.031710695 -0.13732187 -0.13694239 -0.38228738 0.25217283 -0.053450424 0.30487067 0.054869168 -0.15789622 0.1072349 0.047451273 -0.20908868 0.07827643 -0.14119118 -0.08559411 0.009539164 0.45697033 0.36728004 0.0653815 -0.034187634 0.19843169 -0.041523233 0.11391853 -0.008220549 -0.46561262 0.39544207 0.07774263 0.13779566 -0.22196712 0.23938005 0.42183158 0.26889777 -0.24251936 -0.1117101 0.16579677 0.32831514 0.13775265 -0.109471366 -0.122933894 -0.17282021 0.021750836 -0.28791723 0.2862362 -0.17398418 0.11516998 0.32128564 -0.09471182 -0.15604086 0.2617299 -0.27707908 0.07942818 0.087263376 0.042474985 0.2629431 0.0885506 0.09064135 0.14770523 0.14402524 0.34367737 0.35875735 0.08938727 -0.2788402
1402 -0.53394794 0.011726548 -0.032571793 -0.36466792 0.15005402 0.12057519 0.35574406 -0.015512542 0.19418164 -0.18446273 -0.0061317496 -0.50042903 0.025951657 0.15400845 -0.15691847 0.2942415 -0.18247256 0.1289844 0.26033676 -0.018982636 0.38288197 0.11829371 -0.22273639 -0.26168033 -0.01359038 -0.10991803 -0.65192974 0.25857267 0.48348194 -0.18247241 0.12134314 0.0672461 0.074894376 -0.022841876 0.0031578266 -0.09191584 -0.02168084 -0.051021326 0.063509546 -0.06765215 -0.2482475 0.3236259 0.08335493 0.29894784 0.045686275 -0.14435476 -0.07471897 -0.00495136 -0.30957952 -0.15824787 -0.048099976 -0.44370422 -0.25067768 0.043058813 -0.07928565 0.16222979 0.08433333 0.051208466 -0.21992178 0.29237035 0.07763955 -0.04839007 -0.1782953 0.2993475 -0.25239015 -0.14580905 0.02128361 -0.0019477785 0.19124916 -0.133178 0.7077735 0.10203265 0.16837615 -0.44716427 -0.009158296 -0.373628 -0.2872383 0.03922502 0.0680184 -0.22066094 -0.08265372 0.35261032 -0.027880412 -0.106715664 0.27540848 -0.33520722 0.11379707 0.052675024 0.082076326 0.1837182 0.09044617 -0.027170554 0.36687094 0.26360953 -0.1764323 0.057049386 -0.26795647 0.1386091 -0.13756987 0.14591764 -0.20160547 -0.106653385 0.054612488 0.041738212 -0.23787507 -0.1175373 -0.15958278 -0.16508463 0.09944004 0.016769582 0.04737857 0.05288814 0.14285313 -0.0053568287 0.5940586 -0.27441183 -0.017574871 0.25401056 0.17992866 0.27924773 -0.040888757 0.44505942 -0.098070435 0.19902475 0.07273848 0.0760424 0.055695545 -0.045271717
1299 -0.5598666 -0.108822696 -0.22989275 -0.21578681 -0.007764292 0.032092705 0.43216026 0.053671535 0.05606597 -0.21497755 0.30199268 -0.24229129 -0.20951629 -0.011223 0.017282361 -0.36218646 -0.3709882 0.4717356 0.064176925 -0.013758421 0.15692008 0.3428725 -0.14727457 -0.30430564 -0.025664326 -0.021601792 -0.058598217 -0.16663024 0.49153405 0.114266284 0.141945 0.18161595 -0.041348204 0.04284777 -0.11766126 0.14735328 -0.054047007 0.07215516 -0.10876362 0.21415737 -0.31490105 -0.036000863 -0.059450537 0.5323399 -0.076620355 -0.11290527 -0.001888922 0.04780424 -0.4269404 -0.083751544 -0.1905617 -0.28008756 -0.32264957 0.4143158 0.035415698 0.2016252 -0.19351694 -0.01768481 -0.11631459 0.47342288 -0.2603817 -0.40112466 -0.30508015 0.21831878 -0.38658002 0.08913691 0.06374365 -0.19117013 -0.10243791 -0.32499063 0.3107451 0.21802579 -0.10152418 -0.17526047 -0.12614778 0.20413373 -0.22262275 0.27504778 -0.04901754 -0.26456872 -0.41604236 0.21786907 0.090437114 -0.44329914 0.18120073 -0.24029581 0.092427276 -0.13008195 0.15017456 0.3389668 0.17583236 -0.0048211063 0.30114737 0.1482778 -0.19842547 -0.2258889 -0.010651905 -0.08895027 0.09819588 -0.044253122 -0.07368036 0.073624685 0.04741357 0.31232324 -0.3297095 0.02705951 -0.29289642 -0.3186019 -0.022972392 -0.040165883 0.043614868 0.31024495 -0.13622779 0.19658472 0.25732848 -0.054395545 0.10221512 0.09875506 -0.106959194 0.33348683 -0.1561863 0.027258398 0.090973124 0.023451595 0.0022479724 0.17788108 0.03324758 -0.15273947
1049 0.049579535 0.152654 -0.08576605 0.100464575 -0.029585803 -0.13123843 0.3381963 0.18722954 0.07272559 -0.06867399 -0.011547788 -0.22224492 0.014918453 0.026819041 -0.12677367 0.25129652 -0.26105475 0.30373314 0.105834566 0.02636596 0.18608083 -0.15931092 0.16977541 -0.028686645 -0.19098224 -0.123707294 0.28843206 -0.27502763 0.50793874 -0.2259795 -0.08207601 0.39673916 0.28578144 -0.09103217 -0.3305292 -0.058441397 -0.051881928 0.19106309 -0.08674385 -0.07511796 0.16920249 0.043512583 0.06702165 0.18369713 -0.10128934 -0.15734951 0.7073501 -0.05872722 -0.13594317 0.22348578 0.37241578 0.12531778 -0.15270591 0.16246367 0.06368311 0.12849388 0.16600531 -0.12037414 -0.10347017 -0.04754155 -0.16399764 -0.007931671 0.25158626 -0.25853476 0.003918733 -0.31470382 0.11486807 -0.4692768 -0.35363063 -0.19376813 0.0530786 -0.39560592 0.020779256 0.20750329 -0.06980772 -0.27297893 0.046947543 -0.11663419 0.22961028 -0.28989393 -0.50515586 0.039876457 0.12762168 0.046614937 0.06238618 0.1456702 0.38328683 0.27685454 -0.058603764 0.1397325 -0.07217384 -0.07228427 -0.31060183 -0.1314894 0.14262955 -0.18744366 0.32905784 0.019086882 -0.18927743 0.0992908 0.3310464 -0.16061905 0.30245253 -0.18590298 -0.3678669 0.03019747 -0.04728116 -0.30035892 -0.1550171 0.16573875 0.12444285 0.14443766 0.014571344 -0.22969015 0.06731537 -0.64606297 -0.01415789 0.057711747 0.1754902 0.25764146 -0.17561084 0.31493977 -0.3361118 0.12462157 0.2917855 -0.24056613 0.43339503 -0.042288955
2216 -0.09190879 0.3337493 0.25244358 0.0856638 -0.008858466 0.40606034 0.5111574 -0.041539956 0.20054804 -0.19692902 -0.0032075546 -0.6455987 0.30034336 0.20170246 -0.07348314 -0.14594495 -0.20595835 0.31307614 0.19257535 -0.0954681 0.11030276 0.14608863 0.5023379 -0.15399846 0.09957802 -0.05667653 0.3863359 0.0777693 -0.104099184 -0.14170225 0.07531276 0.07761655 0.105602905 -0.1600373 -0.44614944 -0.13598391 -0.27398458 -0.18137825 -0.33142737 -0.013382899 -0.009593425 0.04811524 0.295417 0.2526947 -0.38396537 -0.17453848 0.31263396 0.15354662 0.00053673674 0.051907957 -0.072390914 -0.27329093 -0.14654168 0.275536 0.26525116 -0.3105373 -0.44117296 0.10509848 0.20492944 -0.053416714 -0.0778808 0.18174161 0.05248105 -0.010373727 -0.20485759 -0.20430024 0.2658853 -0.20582624 -0.23140265 -0.09017811 0.45692182 -0.42805544 0.29727957 -0.018127717 -0.20500733 -0.016197715 0.048646864 -0.1439999 -0.14816935 -0.17698073 -0.338312 -0.112030014 0.104249306 0.28152436 -0.0010076168 -0.10884993 -0.111211546 -0.06792195 0.40426108 -0.033009224 3.1020132e-05 0.4661774 -0.19540788 0.24186166 0.067811534 0.11404748 0.23749492 -0.039046343 0.057488933 -0.21652064 0.31755435 -0.20222625 0.013131389 -0.16565941 -0.30500242 -0.22539139 -0.10529482 -0.19694823 0.2513164 0.13719535 0.08216756 0.22909848 0.117354 -0.012765533 0.19885795 -0.34659287 0.06875766 -0.3545098 -0.17154807 0.16010255 -0.39792007 0.03191951 0.08811131 0.04460786 0.34860525 0.20851374 0.06413999 0.14681306
1765 -0.077749565 -0.42963263 -0.225001 -0.41334394 0.32177714 0.37186545 -0.03329938 0.4327751 0.42060146 -0.100572295 -0.10454504 -0.25116652 0.03734622 0.16099651 -0.13161081 -0.1284303 -0.25995046 0.1711661 0.01577778 -0.18219881 -0.12684137 0.24687676 -0.35720125 -0.17149022 -0.07145465 0.09371818 0.40414006 -0.017621627 0.3801646 -0.022249153 0.06541147 0.1586243 0.02798984 -0.45109743 -0.41688344 -0.35741115 -0.018594222 -0.068841025 0.03960867 0.088729486 -0.4768545 -0.2426398 0.12411483 0.27474672 -0.3101544 -0.3075817 0.05919068 0.07777783 0.1070062 0.12458574 -0.12982032 0.08348739 -0.053404797 -0.16182506 -0.19275899 0.17563541 -0.27651802 0.2367348 0.14328629 0.031301048 -0.07440872 0.044774327 0.12605207 -0.27164584 -0.16222048 -0.32227382 0.45622042 -0.04578326 -0.14565681 -0.22007301 -0.09710057 -0.10832086 0.49805737 -0.14264676 0.24887772 -0.49300703 -0.28761533 -0.1483881 0.35046747 -0.02166668 0.03988892 0.11421622 -0.033616528 0.24334393 0.2962769 -0.14748715 -0.36264634 0.335718 0.10978462 -0.07298221 -0.18232936 -0.4309335 0.20830055 0.36447856 0.23892015 -0.16641553 -0.19668198 0.08169902 0.068551175 -0.20354155 0.041147023 0.08159886 0.07442024 -0.07308853 -0.14641096 -0.3850887 -0.15979306 0.11334309 0.06810567 -0.23966037 0.33747134 0.41027206 -0.3962884 0.10515365 0.04238531 -0.17193021 0.3106504 0.0013873155 -0.1317246 0.10413052 -0.27738363 -0.095753774 -0.010422153 0.44628653 0.11218286 -0.3102481 0.16210909 -0.27909774
332 -0.0076690535 -0.31931317 0.05483375 -0.27556258 -0.37361622 0.22113478 0.051782146 0.122407205 0.22820853 -0.19658682 -0.13100608 -0.43055442 0.08715123 0.15619813 -0.24101076 0.038453497 -0.086119846 0.3900049 0.5021933 0.009117816 -0.044179607 -0.30364993 0.14771415 -0.21059482 -0.09329621 0.28844747 -0.14002092 0.16895632 0.060876247 0.1777072 0.23728651 0.33751473 -0.0032446184 0.21489196 -0.31119666 0.23899415 0.016812963 -0.034503747 -0.20981461 -0.38468328 0.5101467 0.316578 0.36915293 0.11340145 0.17502627 -0.30920526 0.24574804 0.4383894 -0.17439659 0.30620375 -0.32995716 -0.38758755 -0.10365032 -0.016483823 0.26236764 -0.106673926 -0.26918152 0.13384074 0.115064286 -0.03102705 -0.46902695 0.09020849 -0.0639457 -0.013296325 -0.18425143 -0.25925392 0.21693471 -0.27786475 -0.07373221 -0.026719488 0.18853441 -0.03419033 0.17503282 -0.034541536 0.14528066 -0.40169907 -0.36307314 0.014862084 0.13635702 -0.25481588 -0.4759884 0.17391114 0.14140904 -0.07199647 0.17495431 -0.074597195 -0.10978834 0.20774351 0.13715118 0.15679967 -0.15123391 0.040847342 0.36874798 -0.25134578 -0.30331033 0.37505528 0.03629298 0.20363085 -0.4431884 -0.07973164 -0.2824174 0.17047055 0.6788311 0.26872796 -0.13935569 -0.036557738 -0.06764215 0.019027283 0.39730632 0.2515815 0.07683826 0.4751559 0.11179993 0.005648778 -0.20300627 -0.21722078 0.11840114 -0.12815061 0.066274166 0.029707445 0.42632985 0.28017136 0.3066739 0.050619192 0.07015379 -0.11968211 0.04432239 -0.12530799
969 0.13744465 0.08454609 -0.25184467 -0.21781202 -0.14880562 -0.24917892 0.12290749 -0.1994281 0.3154643 -0.5019693 0.086591266 -0.3280518 0.2061899 -0.062239353 0.4946199 0.4176608 -0.1036424 0.4519633 0.21269374 0.11549202 0.3666955 0.31695712 0.02180422 0.16420388 -0.0866237 0.10683331 -0.10977611 -0.10071395 0.28272536 0.44692126 0.28709775 -0.29204592 -0.08776461 0.0693962 -0.037285972 -0.32898483 0.39266604 -0.16983771 -0.44384095 0.3192917 0.28220946 0.2501956 0.3993375 0.12522988 0.22215815 -0.242325 0.39820433 0.09017438 0.06356724 -0.099443235 -0.30893826 -0.37591785 -0.049587294 0.24438475 0.012308745 -0.19379254 0.15616776 0.52254033 0.008967233 0.25192884 -0.45249334 0.018186897 0.2546687 0.15425164 -0.116180055 -0.06666298 0.18151891 -0.21741235 0.30691582 -0.5021782 0.3753031 -0.08097876 0.37422848 0.17722584 -0.16550845 0.100600995 -0.3980571 0.061191093 0.11138127 -0.08554847 0.0067689666 -0.24676329 0.052088253 0.01462515 0.15782759 0.12096255 0.13292578 0.33933666 -0.050658457 0.085521474 0.013702264 -0.08158862 -0.11847462 0.199725 -0.07728687 -0.011420039 -0.13208084 -0.028768318 -0.01001221 -0.2629643 0.46773332 -0.11756256 0.12302837 -0.026196552 -0.18665577 -0.13642961 -0.21188107 -0.2959488 -0.18730114 -0.001084073 0.42282283 0.29640257 0.18328193 -0.034090783 0.0229738 -0.001814537 -0.047447637 0.21493857 -0.17178197 0.20115681 0.08883434 -0.07938663 -0.10486523 0.22483303 -0.057327718 0.028193463 0.0032224695 0.27273342
1251 -0.0983221 0.3078434 -0.06861405 0.42208654 0.17132424 0.10663899 0.39567348 0.50316256 0.22151889 -0.16516563 -0.054817405 -0.17520583 0.050038792 0.14536943 -0.41572705 0.2770856 0.12496942 0.007416854 0.40421954 -0.031197684 0.07654762 -0.13347946 0.1729259 0.09226918 -0.21345413 0.017902747 0.068929106 -0.12671871 0.2702206 0.37978455 0.095472544 -0.26883325 -0.18728966 -0.14207216 0.021737898 -0.26699018 -0.419704 -0.37015358 -0.37738433 -0.1917228 0.0116850715 -0.44357547 -0.17484891 0.10334555 0.10423862 0.12996887 -0.0054207337 0.09114723 -0.11745792 -0.14381948 0.24261025 -0.051019814 -0.083842605 0.19499615 -0.21471696 0.047800254 -0.05572823 0.1846919 0.52694666 0.007519517 -0.015889332 0.21174066 0.08966177 0.03383552 -0.49137127 -0.39191556 -0.333571 -0.12252646 0.09043531 -0.2260427 0.3428196 -0.22273858 -0.04290943 0.23142317 -0.41328195 -0.058926146 -0.05597161 -0.16843718 0.7761329 -0.036015917 -0.1298208 0.021435665 -0.1402222 0.13518356 0.22864556 0.11028579 -0.30626017 0.11507801 -0.083122715 0.20749947 -0.022954151 0.14322802 -0.04664134 0.24060361 0.0060751215 -0.23822299 0.3705292 -0.065329395 0.22917822 0.09866438 -0.30002177 0.36064455 -0.00019134342 -0.14326404 -0.008365323 0.06644696 -0.15180476 -0.057130788 0.36569312 -0.15453926 0.20832264 0.3212341 -0.34649533 0.2043372 0.49476838 -0.09571007 0.14370589 0.010154686 0.14842188 -0.28863123 -0.3566707 0.20952663 -0.36789715 0.0829219 -0.0679976 0.21118338 0.07068002 -0.41694152
1514 0.004922876 0.2382848 0.06516615 -0.34686053 0.27489823 -0.16836053 0.07174789 0.5868377 0.46832561 0.20780364 0.25788578 -0.077454075 0.07674337 0.05225954 -0.19921026 -0.11872246 -0.17869528 0.23756629 0.08211703 0.20669974 -0.2540498 0.2818155 0.12716879 -0.34255806 -0.4416704 -0.44702646 0.1423083 0.11806499 -0.16079788 -0.21405277 -0.118927754 0.009730885 0.3995542 0.075668804 -0.15240759 -0.1598581 0.009402656 0.019717952 -0.07237709 -0.14753419 0.16172826 0.3458084 0.64250374 -0.1609335 0.15707955 0.17833404 0.8270809 -0.06598188 -0.15655093 -0.31955403 -0.07803348 -0.23214638 -0.16928352 0.12985836 -0.14389327 0.18919674 -0.1259418 -0.115561046 -0.14376813 -0.18143013 -0.25043017 0.023625892 -0.007302903 -0.14749417 -0.260374 -0.044313673 0.2853436 -0.43012896 -0.007855939 -0.15853904 0.03341222 -0.025441974 -0.08339616 0.12402747 -0.036838375 -0.10915102 0.18219493 0.035833623 0.4097261 -0.26083818 -0.107254624 0.22888981 0.09348034 0.12619518 0.15305626 -0.08798909 -0.050195042 0.5793672 -0.029242307 0.2856245 0.40781292 0.17429815 0.16611694 -0.15012388 -0.16308495 -0.22060785 -0.071446314 -0.022231923 -0.1308037 -0.41009608 0.14376628 0.08793121 0.07874044 -0.053988952 -0.13493705 -0.17238092 0.011559462 -0.033098586 0.087766245 -0.17614973 0.035273656 -0.086352244 -0.48189232 -0.12347105 0.1382455 -0.42291975 0.26040313 0.043655347 0.25232673 0.3672238 0.0051975525 0.051444598 -0.122739755 0.07957525 0.22184289 -0.009910723 0.24539798 0.33108807
841 -0.29132953 0.2711618 -0.036105484 0.023129022 0.097760566 -0.108062975 -0.13975377 0.07975087 0.38136473 -0.37397167 0.1637779 -0.5322865 -0.13736267 -0.13134386 0.084435485 -0.23134294 -0.029909967 0.08161922 0.27983245 -0.18507448 -0.06924336 0.32942548 -0.12007934 0.037958913 0.16485912 0.05988834 0.061290823 -0.2030766 0.15054846 -0.2239045 0.23462501 0.042284843 0.04005405 -0.007467549 0.14522317 0.17460182 -0.024985095 -0.018456958 -0.082831025 -0.096486464 -0.016536118 -0.15992258 0.37206116 0.41459388 0.066212825 -0.46401238 0.1888662 0.46819907 0.14857674 -0.40573058 -0.1256196 0.09264773 -0.5553264 -0.09623259 0.15949386 -0.16415736 -0.100139804 -0.062481456 0.3643798 0.14767174 -0.33419603 0.24326994 0.15138207 0.21560597 -0.24762833 -0.19614993 -0.007995799 -0.072787546 -0.007721713 -0.23020712 0.5155434 -0.11052672 0.34346342 0.02607634 0.30289468 -0.034009587 0.1618038 -0.1140579 -0.1003788 0.10864569 0.041150257 -0.18839653 0.26893017 -0.047720645 0.3035931 0.25809833 -0.38160157 0.06518008 0.038587634 0.087925464 -0.36570984 0.5141504 -0.12229135 -0.114246294 0.057998426 -0.045643322 0.026244346 0.3608587 0.06609077 -0.44020903 0.08506073 0.18376881 -0.33316934 -0.060782988 -0.51733005 -0.2739898 -0.034224957 -0.117501915 0.08874843 -0.06809556 0.11981574 0.17569703 -0.12426279 -0.11111846 -0.038318977 -0.5317319 0.24679945 -0.08173273 0.046908498 0.3433717 -0.08143327 0.37980902 -0.020531181 -0.026737448 -0.19594738 0.104914315 -0.022195831 -0.030703647
1538 -0.38710666 0.41406345 0.056504086 0.020392472 0.3003074 -0.022818359 0.14559425 -0.1612711 0.39056548 0.24180543 -0.015013384 -0.14716256 0.14372209 -0.08532544 0.14864425 0.55932975 0.17155531 0.35784784 0.7532311 0.09741268 0.2618642 -0.3278386 -0.10048584 -0.23589857 -0.20934306 -0.43163884 0.021981917 -0.23535511 -0.10454361 0.26975316 0.18454994 0.15289685 0.118667796 -0.31555218 0.25275734 0.41600305 -0.08592663 -0.44583946 0.12079686 0.14730005 0.04162181 -0.36510733 -0.28890583 0.453718 -0.010025105 -0.29127282 0.36224732 -0.4607445 0.15758748 -0.1525285 -0.030123837 0.48690465 0.0534262 0.35930023 0.021814747 -0.10553361 0.041568458 0.3898623 0.34925395 0.3265863 0.2506183 0.53893304 0.44360426 -0.38012186 0.178422 -0.009659799 -0.0334362 -0.41017032 0.25987718 -0.30871898 0.6461383 -0.45477176 0.3768033 0.033259634 -0.14783151 -0.19311786 -0.14735952 0.48651403 -0.10287911 0.1282843 -0.16466472 0.33559304 -0.20393382 0.065587915 -0.10872519 0.1540316 0.20009322 0.1880937 0.39690953 -0.13315684 -0.29859287 -0.001644697 0.3151832 -0.14515117 -0.11846817 -0.2639341 0.12228426 0.06965312 -0.093878545 0.27033126 0.1782532 -0.05782408 0.49096364 -0.3025411 -0.37527475 -0.3912933 0.22072467 -0.0011819187 0.32552695 -0.1508658 0.10157364 0.29445496 -0.5636048 0.032506496 0.12664114 0.31328157 -0.1321985 0.20017448 0.2878135 0.13384949 -0.24092865 -0.08961652 -0.07166655 -0.47766697 -0.27121225 -0.1841487 -0.22673973 -0.29157624
378 -0.16378646 0.031484637 -0.0068654246 0.34417835 -0.46820563 -0.32555708 -0.099074125 0.27401814 0.3446997 0.2638185 0.48288274 -0.25617275 -0.049841803 0.08169576 -0.2238898 -0.072269104 -0.24197216 0.281233 0.18638276 0.010175697 -0.12651953 -0.10870841 0.13549672 0.009901744 -0.05721768 -0.22324327 0.30612376 -0.17526142 0.14140753 -0.16747634 0.3492449 0.23148915 0.05549394 -0.06179043 -0.031059148 0.29400647 -0.17686698 -0.0063671377 -0.037173867 -0.12352485 0.21123949 -0.0035180617 0.5121518 -0.28713605 0.050218657 -0.24558598 0.39328575 0.075898 -0.1620824 -0.023647387 0.42459795 -0.12035459 -0.2807542 -0.009078922 -0.03221853 0.06977825 0.21982333 0.016444862 0.14153364 0.26330248 0.0009190162 -0.17166983 0.40182957 -0.3739695 0.032612145 -0.059772637 0.12287217 -0.18418814 0.2778102 -0.017637711 0.609892 -0.06276798 0.2339316 0.06510627 0.05146726 -0.51904255 -0.16510923 -0.14427875 0.24357337 -0.17672478 -0.30291533 0.119375676 0.19168107 0.30309567 0.058227047 -0.16634749 0.04526535 0.44372907 -0.2470953 0.13219325 0.21606447 0.10500573 0.09622954 0.22115749 -0.40628007 -0.2014764 -0.0016456216 0.018759977 0.2856333 0.20141637 0.027073547 -0.12007535 0.2836018 -0.36804718 -0.31759188 -0.068744525 -0.3570597 0.22342694 0.15228234 -0.114619076 0.052991863 -0.047177054 -0.63722825 -0.1072431 -0.01004382 0.08168807 -0.08519698 0.4354676 0.32485688 0.25597578 0.015971435 -0.23661977 -0.23398772 0.10703328 0.16856787 0.3207845 -0.2652647 -0.12951998
277 -0.7445064 0.13585562 0.020110473 0.09153121 -0.11481109 -0.038584657 0.08351556 -0.13617165 -0.0071124397 0.19244526 -0.29241055 -0.30738097 -0.085080594 0.0662937 0.20900378 -0.3012326 -0.1858951 0.17241135 0.061417427 -0.08153844 0.009220335 0.17058577 -0.21307404 0.23689637 0.33475143 -0.023265572 -0.237464 -0.02610299 0.14119953 0.076825574 0.2990894 0.15339951 0.022762015 0.27744758 0.014821069 -0.07437634 0.12600107 -0.22903973 -0.1349536 -0.054456398 -0.2921856 -0.10752621 0.28845376 0.35179466 0.070450686 -0.030221468 0.1991955 -0.12759188 -0.26907912 0.06963465 -0.023884282 -0.45871362 0.0024698647 0.28345767 0.19468816 0.25640094 -0.09771749 0.33761626 -0.060489547 -0.17119743 0.14142911 0.20677565 0.05582437 0.13239996 -0.3615386 -0.390346 -0.26268375 -0.26291564 0.061741278 -0.22864425 0.67531925 -0.012356416 0.2429787 0.152883 -0.20077464 -0.37553653 -0.32161173 -0.06410912 0.07019719 -0.027988043 -0.3237138 0.38348368 0.17811547 -0.35191664 0.08187142 -0.16912857 0.24621321 0.283232 0.16408525 0.03163144 0.10118522 -0.106930435 0.07527282 0.3148233 0.12336529 -0.25513977 -0.46865472 0.42557982 0.19689684 0.16409728 0.2754236 -0.20388204 -0.41500917 0.15636449 0.02368135 -0.027782615 -0.2176947 -0.2954171 0.3268702 0.06687035 0.4957143 0.051971737 -0.15499437 0.21508592 0.36474344 -0.42984694 -0.1595426 -0.025358556 -0.12105586 -0.057133775 0.061921634 0.09049947 -0.066574164 0.12892443 0.30228147 0.10810404 0.014087715 -0.23027916
1486 -0.72806495 -0.33988363 -0.13337925 0.1366788 -0.011699754 0.10307513 0.015405705 0.22695513 0.45924956 0.13537772 0.21284232 -0.07623643 -0.014903056 0.63445574 0.06944085 -0.15532605 0.015323632 -0.07388644 0.56895065 -0.16448987 0.11598523 0.20579758 -0.10437648 -0.16604677 -0.32214648 -0.34226736 -0.2235278 0.27282748 0.112509914 0.17440993 0.16276208 -0.1301241 0.0037902137 -0.18167278 -0.4005387 0.033352513 0.08115432 -0.124348566 0.19379476 0.14132996 0.23288074 0.022203185 0.24001794 0.2601669 0.0420612 0.22546063 0.42598975 0.09577637 -0.21034749 0.17375404 0.054676577 -0.23921853 -0.6511505 0.05907901 0.1454322 0.32224086 -0.18257475 0.13529515 0.032030307 0.1811895 -0.30470714 0.085804775 0.2757366 0.10478445 -0.049251363 -0.1469174 -0.12203009 -0.11382117 0.2012521 -0.25914934 0.5430694 0.0025573496 0.14482561 -0.273516 0.19111912 0.0011537425 -0.34853816 -0.439226 -0.0088006295 -0.20438835 -0.2162801 -0.14701426 -0.27169952 -0.37126076 -0.17962784 -0.34723797 0.15286763 0.2510385 -0.051573828 0.33328944 0.2244288 0.084929034 -0.05687422 0.17819154 -0.0790209 0.055423833 -0.42140055 0.13569255 0.06475308 -0.034426007 0.01985187 0.09395939 0.32396352 0.12925161 -0.08559408 -0.16517112 -0.38978657 0.26043916 0.36591735 -0.24462514 0.14869823 0.22771609 -0.117244184 0.09064068 -0.11704629 -0.17088047 0.43731436 0.029509146 -0.07390284 0.40933737 -0.03517487 0.11957207 0.024666844 -0.34098446 0.23572332 -0.10526612 -0.32981077 -0.12947454
1744 -0.049455184 -0.102692366 -0.09117733 -0.26302356 -0.1337556 -0.1504485 -0.19583483 -0.03262508 0.004627182 0.32862762 0.050357785 -0.16340429 0.06352306 -0.05654423 -0.5120039 0.18684147 -0.25114983 0.32180527 0.12981945 0.104057856 0.28005564 -0.061779734 0.22214954 -0.081808746 0.058832187 -0.034783393 0.15418425 -0.1899971 0.30303243 0.16229211 -0.12791471 0.083384626 -0.110333115 0.16872272 0.1512749 -0.007849041 -0.076433696 -0.21138251 -0.14990222 -0.32163814 0.017706214 0.12485634 0.46674845 0.23387334 -0.2544547 -0.007705568 0.6997822 -0.35807905 0.008260601 -0.106113516 0.40421477 -0.096319996 -0.2575279 -0.13862126 -0.13597076 0.20582995 0.29439354 0.27320692 0.39040267 0.16500978 0.11687762 -0.1399698 -0.07803666 -0.15284286 -0.0026396513 0.0008557796 -0.25390762 -0.20597036 -0.011749372 -0.37241516 0.18824479 0.08226167 -0.10335382 0.24694107 -0.27281564 -0.18492332 0.07081013 0.14688216 -0.036306214 0.07569337 -0.28227398 0.32350475 -0.12009881 0.07544346 0.025283003 -0.03678499 0.07436921 -0.0671317 0.02768837 0.21466537 -0.33018583 -0.22481194 -0.01771434 0.44175863 -0.06741273 -0.37388444 0.3782365 -0.27489957 -0.062380187 -0.28580308 -0.09242398 0.053298544 -0.0024119485 -0.58229226 -0.31320083 0.033352274 -0.10394181 0.030664265 0.20153747 -0.5156789 0.19657855 0.6927735 0.021302044 -0.027088648 -0.15731893 -0.47343716 0.4558203 0.14884713 0.24786764 0.14305049 -0.2775864 0.13513754 0.10461474 -0.02506119 -0.09504729 0.29479507 0.14273098 -0.31330684
1198 0.34095487 0.54605305 0.1950673 -0.2779274 0.20955943 -0.033054944 -0.2721014 -0.17337458 0.01942661 -0.09005962 0.142712 -0.11300086 -0.06735913 0.0137134 0.19155525 -0.039199628 0.38190514 0.14432399 0.30648658 -0.16218105 -0.100199305 -0.06689125 -0.8035924 -0.024305847 -0.101014294 0.08442892 0.09563249 -0.25360253 0.263859 0.028778005 -0.089898616 0.033823494 0.23709477 -0.12642258 -0.12668023 -0.31026205 0.07507914 -0.05689798 -0.4103718 -0.06695177 0.044995923 -0.27982366 0.22873253 0.5025772 -0.3371292 -0.037595622 -0.05076115 -0.25554174 -0.36663023 -0.19058102 -0.052905034 -0.14051457 0.015467634 0.108979896 0.3251416 0.19206442 -0.405461 0.47500306 0.34180492 -0.023936933 -0.02048071 0.30086523 0.02705437 -0.41254306 -0.038287308 0.39571753 0.050631978 -0.12186935 0.09456097 -0.7626007 0.4789265 -0.22972599 -0.031562958 -0.17702612 0.13732004 -0.38216755 -0.32489663 0.2398926 0.115018725 0.09676591 -0.14726612 -0.07681334 -0.087280646 -0.23040909 0.07164383 -0.0064518154 0.05472649 0.06132436 -0.009714471 0.048182692 0.0024447488 0.73199624 0.2959606 -0.071903266 -0.28109553 0.19255868 0.2699969 0.21211667 0.26737043 -0.18478121 0.14504099 -0.1254845 0.4421275 -0.25404936 -0.05609827 0.012123015 -0.081358925 -0.170112 0.36419633 0.49658307 -0.23860072 0.44708672 -0.067802235 -0.028806387 0.28956243 -0.29869536 -0.15405343 -0.29355872 0.3291286 -0.24808931 -0.27018157 0.3183505 -0.14481224 0.13427629 0.034161538 0.06925763 -0.24411494 0.016201703
1912 -0.7024848 0.14575137 -0.16784745 -0.3392924 -0.32679787 0.06443141 0.46883008 0.11852354 -0.121044084 0.03505128 -0.023855008 -0.016586 -0.3403724 -0.10637955 0.42984757 0.39324272 -0.25031093 0.2618332 0.2439665 -0.2948455 0.06983328 0.335042 -0.10050391 -0.2380309 0.07899715 -0.17642644 -0.030673651 0.55412394 -0.128659 -0.027978687 0.24304563 0.050367657 0.01992321 -0.060332127 -0.07804671 0.052947644 0.042411193 -0.19183931 -0.20056039 -0.042059124 -0.12857397 0.13798483 0.25206015 0.45949325 0.26175296 0.36413845 0.23069331 -0.071904734 -0.06628893 0.25220588 -0.38190198 -0.05679692 0.2939545 0.28163335 -0.30326304 0.08415677 0.38481247 0.42846087 0.08749744 0.3552509 0.062046696 0.34662905 0.052937668 -0.2720644 -0.42001238 -0.2804523 -0.45832565 -0.25408876 0.2973589 -0.205859 0.44972613 -0.14060736 -0.12507278 0.116970845 0.14067686 0.17894906 -0.3375484 -0.23959434 0.110364236 -0.32049656 -0.1559657 0.38042727 0.5411301 0.34327188 0.2717127 -0.0651085 -0.023446338 0.29442817 -0.18280369 0.39446416 0.03235357 -0.0012207626 0.5089944 0.09736271 0.006596915 0.37516478 -0.10183225 -0.065578334 0.28894907 -0.034560286 -0.09808919 -0.107979044 0.047960594 0.09338227 -0.64297855 -0.37187678 -0.39247558 0.055666532 -0.27214384 0.2973383 0.091588624 0.34808537 -0.23189755 -0.032488834 0.26357496 -0.4870087 0.058310658 -0.00539889 0.50767535 0.051472 0.16825664 0.031305786 0.020973343 0.17613967 0.10884637 0.21373543 -0.27373475 0.06904674
72 -0.061041474 0.01442892 0.4083283 0.32870135 0.039626244 0.21583082 0.14080997 -0.1850585 0.22840926 -0.12723476 0.16512775 -0.4117092 0.02782828 0.41616032 -0.19209997 0.036467224 -0.15551017 0.5771972 0.21426494 -0.16489007 -0.030304052 0.10225458 0.0064311475 0.13227642 -0.080278315 0.12390633 0.23512803 -0.0840905 0.5786754 0.2099129 0.053328637 0.13430081 0.33876288 0.34846446 -0.3534417 -0.16796133 0.3000959 -0.20155555 0.036917754 -0.057310887 -0.23842715 0.06764031 0.16822179 0.2525196 -0.3347105 0.0056633134 0.34819487 0.049475115 0.32633504 -0.3574909 -0.13219726 -0.22268263 0.0947499 0.16567343 0.2860864 -0.2800876 -0.14612357 0.26621178 0.12168871 0.107041515 0.07873741 -0.005966708 -0.017234925 -0.050394233 -0.12300022 -0.24968296 0.16305166 -0.17734358 -0.32209396 -0.21168067 0.07844747 -0.41036722 0.34968093 -0.018505825 -0.10287583 -0.07843955 -0.002462618 -0.10404457 0.03929958 0.07217928 -0.21009736 0.013679182 -0.0051740003 0.18608117 0.22092979 -0.107337914 -0.12677112 -0.29801717 0.18410864 -0.06753661 0.10353208 0.32648352 -0.17509425 -0.055582937 0.2940122 0.103217416 0.22572292 0.19851498 -0.15304051 0.23067378 0.22617206 0.031106943 0.23426206 -0.34395543 -0.39214188 -0.24266478 -0.120020926 -0.31809774 0.01999988 0.070824735 0.20375091 0.20702034 -0.12681915 0.19946763 0.298807 -0.30327445 0.11247424 -0.02536484 0.19972864 0.01778426 -0.028639186 -0.19946206 -0.24326406 -0.12047894 0.53113353 0.27446368 -0.21757042 -0.0040292065
615 -0.2292073 -0.12377818 -0.022985302 -0.052660648 -0.42740738 0.08325981 -0.1899441 0.23246494 0.16460103 0.39134085 0.3254663 -0.12849432 -0.02637386 0.040700506 -0.0049365005 0.11694405 -0.010590081 0.34916162 -0.08549206 -0.24494803 -0.036275536 0.1074366 -0.05510001 -0.05503421 -0.21257067 -0.2774251 0.09325563 0.022715433 0.19269578 -0.0719275 0.1462528 0.1333923 0.06622175 -0.31918287 -0.29858288 -0.15467276 0.034600936 0.0010080321 -0.24317707 -0.16018462 0.2244862 0.1733243 0.44207916 -0.26730117 0.054759096 0.055246223 0.5036116 -0.014863163 -0.1299544 -0.35730103 0.025580276 0.0030999696 -0.24723351 0.049575526 0.03621634 0.1978403 0.23534325 0.10056588 -0.008516301 0.034868635 -0.2650044 -0.06942996 0.011245376 -0.5188968 -0.0028038614 -0.1969174 0.1611594 -0.38790706 0.095355906 -0.071044445 0.23159562 -0.30100995 0.3454482 -0.15713467 -0.018735087 -0.50485396 0.021010088 -0.22100964 0.31775704 -0.3628246 -0.19914256 -0.21680327 -0.124495134 0.15916546 0.08457972 -0.102249905 0.23261586 0.11546157 0.006513169 0.19771771 0.45687458 0.23891103 0.12150312 0.24349065 -0.37412804 -0.41369784 -0.17049143 -0.3089056 -0.17066203 0.0076368395 0.27125007 -0.03916508 0.3933417 -0.30959973 -0.272939 0.09441262 -0.239176 -0.09411398 0.4127712 0.060191 0.067485966 -0.26839963 -0.36359176 0.023280246 0.32522207 -0.5296074 0.18212947 0.16435139 0.22676715 0.38197762 -0.015769681 0.18493886 -0.013398742 0.10048929 0.20181626 0.10267874 -0.30571887 -0.022042913
577 -0.26764485 0.21511653 0.13992216 -0.16053155 0.0017127753 0.10407615 0.2567682 0.25900435 0.068029724 0.38963932 -0.31122655 -0.29361793 -0.21143644 0.07081086 -0.14647265 0.027650224 -0.27736458 0.21455586 0.19370271 0.26644632 -0.034722142 0.21843085 0.11755741 0.34021786 0.44948885 -0.019128807 0.13722146 -0.05081937 0.4427493 0.10448917 0.085205 0.25200292 0.19815102 -0.107210144 0.15495068 -0.05615932 0.0823355 -0.18525124 0.032709204 -0.25004524 0.206084 -0.01603921 0.20917194 0.19620913 -0.013871456 0.07622025 0.3583526 0.0069489735 -0.36521715 0.16305321 0.34019494 -0.344525 0.24269764 0.018765913 0.2154324 0.14077032 -0.26661673 0.109058015 0.3089805 0.42675322 -0.13462035 -0.30797973 -0.1742273 -0.11878482 -0.08894817 -0.25661072 0.34663287 -0.39069006 -0.31805336 -0.18423608 0.24907897 -0.4455732 0.38185266 0.108252496 0.21106523 -0.099281594 -0.21846592 0.0606134 0.045130346 -0.1434828 -0.09048647 0.033271432 0.19424008 0.13276532 0.041520905 -0.28137684 0.24882424 0.20724247 0.057914052 -0.019511003 0.20645718 -0.0043778513 0.13605084 -0.06984964 0.022314822 -0.3303583 0.11511723 -0.041469373 0.41135642 -0.10334194 0.1118233 -0.10965723 0.2637888 0.0435308 -0.081467144 0.38561895 -0.006862983 -0.104881614 0.19166861 -0.053167652 -0.03285343 0.011986323 -0.44321266 0.0185104 0.1435906 -0.41078722 0.27305585 0.21313454 0.12678951 0.17675738 -0.09660789 0.2778354 -0.08883413 0.21306309 -0.026571373 0.2127262 0.0650447 0.097072735
2276 -0.20507695 -0.16558667 0.2247921 -0.016840564 0.07043583 0.020481737 0.29532436 -0.14195578 0.4627544 0.07734251 0.05948734 -0.5234797 -0.11935534 -0.10581835 -0.20404977 -0.22912714 0.08766844 0.1621009 0.27328265 0.14375162 0.11744502 0.26460633 -0.47867313 0.0037803412 0.6197338 0.07190083 -0.21281078 0.14150211 0.05695853 0.09017849 0.09560187 0.25641012 0.18106012 0.170552 -0.35370424 0.07033025 -0.025381248 0.26514232 -0.16399285 -0.34905207 -0.00012545628 0.49390796 -0.296159 0.211252 -0.35114378 0.06560411 0.3472893 -0.1917659 -0.13975906 0.27800032 -0.08766309 -0.620597 -0.03798314 0.25414842 -0.050328698 0.074472964 -0.18966973 0.4128416 0.18945779 0.0314346 -0.25516993 -0.4087931 0.010887527 -0.21089174 -0.098261885 -0.2207723 -0.26058662 -0.19382186 0.07098212 -0.047401205 0.38732433 0.16976602 0.28341547 -0.31017178 0.16048081 -0.29236954 -0.14730845 0.040058434 0.16879109 -0.25710022 -0.38003692 0.001493275 -0.10916462 0.043339204 0.5070304 -0.20897584 -0.052458577 -0.27718922 -0.049624722 0.095201485 -0.08184311 0.19025883 -0.02353413 0.30746675 0.1914471 -0.019594023 0.10114931 0.11167416 -0.15592468 0.10725687 -0.09850648 0.14514948 0.01458008 -0.03565902 -0.3039334 -0.48438123 0.09412241 -0.00050520216 -0.15477803 -0.12275932 0.03300708 0.087612405 -0.17916752 -0.31465182 0.098519504 -0.3420279 0.016895143 -0.23352647 -0.34993687 0.031543482 -0.13562796 0.26334682 -0.31995627 0.09551354 -0.07998161 0.21599136 0.015676742 0.10161273
2103 0.15001374 -0.08208731 -0.3525165 0.109630905 -0.14395754 0.057260547 -0.040343214 -0.066119686 -0.17308743 0.044032782 -0.021275995 -0.24139664 0.18142162 0.111465186 0.0023678138 0.39181715 -0.069127485 0.3391445 0.2097984 0.102884114 -0.1426281 0.40181598 -0.06620053 0.194451 -0.0042368034 -0.1262298 -0.028298719 -0.2611186 0.18273191 0.059640888 0.07177708 -0.24147211 -0.050168302 0.4273246 -0.05158218 0.36739245 -0.07007768 0.1867831 -0.24084768 0.0918893 -0.39585477 -0.016509758 0.30888394 0.56245404 -0.03890379 0.054368746 0.6079491 0.12967616 0.16418712 0.40431014 0.224966 -0.1654 0.01490121 0.3630518 -0.012711705 0.049426194 0.18909408 0.13493493 0.56284493 0.1984936 -0.18282788 0.05544453 0.10906718 0.10727341 -0.2902277 -0.26578888 -0.110063955 -0.24078846 0.17118141 -0.16719829 0.11138885 -0.15796809 0.060767937 -0.13298766 -0.51512504 -0.33554387 -0.00125644 -0.2979344 0.5412202 0.3794074 -0.21502171 0.10834279 -0.2809961 -0.12485975 -0.12193753 0.24872018 -0.096238084 0.4602586 -0.20509982 0.2363079 -0.1693457 -0.35903606 -0.057482947 0.10099146 -0.5266516 -0.32851124 0.45272052 -0.048365086 0.188555 -0.36571005 0.096153535 -0.13331293 0.18328099 -0.14038745 -0.24810587 0.2604037 0.021966942 -0.6434766 0.28909457 0.0144053735 -0.3451348 0.34928292 -0.12400995 -0.19737831 0.129701 0.22987708 0.35295466 0.050976455 0.030315181 -0.062000323 -0.22932799 0.16746587 -0.13528949 0.2398228 0.15683572 0.28255945 -0.114149906 -0.09998938
2186 -0.3071983 -0.47975308 0.22337148 0.044786554 -0.20603646 -0.07526895 0.22315691 0.5448854 0.11880597 0.04864919 0.04244465 -0.23504645 -0.113772 -0.1393585 -0.11316304 -0.03796355 -0.21513437 0.07468041 0.41795996 -0.13873515 0.11873871 0.19716741 -0.024496555 0.115091 0.027955033 -0.022193464 0.20170894 0.17871132 -0.084875315 0.018898806 0.049552858 0.2653523 0.40075406 0.06545464 0.09926515 -0.06535593 0.159954 -0.09526186 -0.47436792 -0.018525599 0.03982031 0.25706738 0.016662125 0.026821125 0.24525642 0.1484566 0.16218172 0.2458192 0.14557038 0.19998002 0.040502787 -0.045296103 -0.5987708 0.7445697 -0.07722921 0.14231984 -0.22042356 -0.045491334 0.23792844 0.24295777 -0.39175147 -0.21057741 0.0037439312 -0.43971702 -0.21283272 -0.19089691 -0.14566687 -0.0915981 0.19411513 -0.25268596 -0.04182271 -0.012350813 -0.0018956317 -0.45107368 0.2040897 -0.12294998 -0.26048055 0.2478857 0.26403046 -0.35579163 -0.33734015 0.27213913 -0.3951434 -0.025581416 0.043765217 0.011971502 -0.4132478 0.08479339 0.08246975 -0.24073978 0.041733954 -0.089544594 0.11034698 -0.030656733 -0.03148689 -0.1272657 0.11554584 -0.16360795 -0.31659195 -0.044611428 0.073545665 -0.29845655 0.119681135 -0.032139555 -0.20462362 -0.24746533 0.13487814 -0.22868602 -0.08662252 -0.1353955 -0.05097762 0.46960664 -0.05270867 0.2539045 0.09903946 -0.25510937 0.061832935 0.1807695 0.20148288 -0.13883626 -0.129598 0.094239995 -0.18485758 0.28953582 -0.001825693 -0.03187298 -0.41083223 -0.5641229
62 -0.41485023 0.30883914 0.17436191 -0.18058817 -0.28601202 -0.21655606 0.18286814 -0.14268924 0.39331526 0.054551776 0.053704776 -0.27635664 -0.2507694 -0.2538199 0.2136131 -0.16318978 0.079427816 0.2014237 0.33120632 -0.3227044 -0.19261856 0.27138597 -0.13404806 0.082666 0.017403116 -0.45048347 0.09442714 -0.035843957 0.11628745 0.20029938 0.25716424 0.10609138 0.27147362 -0.12950903 -0.19347426 -0.17393675 -0.1608647 0.24489705 -0.30950886 -0.16986756 0.05431086 0.11764268 0.47129807 0.3122693 0.17409606 0.075719185 0.24442896 -0.26228037 -0.07992466 -0.027753405 0.09577864 0.020248748 -0.27402562 0.20604786 0.2415827 -0.03193053 0.33948237 0.10491434 -0.024214387 -0.1542173 -0.5334547 -0.24896653 0.19940507 0.074109696 0.029845664 0.005385568 0.08782202 -0.4733788 0.19284226 -0.023140509 0.12743127 -0.3480754 0.21213458 0.05509816 -0.046558395 -0.28102624 0.087864 -0.19406982 0.31427568 -0.40457684 -0.204471 0.053256933 -0.1911944 0.31372756 0.31727442 0.052870277 0.27425283 0.028338958 -0.03362343 0.24112813 0.39692682 -0.076529056 0.13335823 0.0700753 0.12621859 -0.12142095 -0.096374124 -0.39175248 -0.21002465 -0.3256761 0.048889443 -0.07043054 0.5366077 0.17431979 -0.044559304 -0.21275097 -0.1911681 -0.38121206 0.112416506 -0.36158618 0.045180026 -0.1300194 0.032605603 0.36584112 0.16321662 -0.21375407 0.22190988 0.24233434 -0.09225601 0.05702169 0.060877115 0.24137232 0.021160109 -0.3333076 0.115334585 0.19862105 -0.25920647 -0.19552566
2155 0.028713042 0.22792652 0.1072458 -0.1104744 0.16113505 -0.24149084 -0.08439422 0.15688342 0.030872483 0.2599462 -0.02553824 0.070587516 0.021915806 -0.23180908 -0.049739107 0.41827443 0.2955726 0.63965154 0.31132793 0.21905392 0.2704639 -0.22554794 -0.6112094 0.005199678 -0.16631651 -0.062118284 0.3219343 -0.50833195 0.13708441 -0.00019111816 0.03718041 -0.358199 0.4036313 -0.08850565 -0.6371138 -0.24651034 -0.12948388 -0.21649551 0.16547798 0.036259703 -0.087890014 -0.20504908 -0.040430397 0.36191812 -0.100707665 -0.3530051 0.36744002 -0.09936249 -0.5270985 -0.24555162 0.19500503 0.0036863303 -0.17110994 0.4232846 0.13895805 0.2482878 -0.5646721 0.08964012 0.2534325 -0.4862819 -0.3096444 0.18173939 0.3394834 -0.12694061 -0.2878211 -0.06288296 0.35838556 -0.11965056 -0.28789487 -0.4810092 0.5145698 0.05969187 -0.051973812 0.13643777 -0.27059034 -0.26535094 -0.45444134 -0.34711176 -0.014000751 0.23945193 0.22769642 0.02216443 0.04808781 0.02414195 0.1464404 0.362979 -0.3056733 -0.17480883 0.17551193 0.2408113 0.15736604 0.09623265 0.087243386 -0.59676373 -0.094394505 -0.011956036 0.17522785 -0.11793997 0.121278934 -0.3159777 -0.09106914 -0.42135695 0.22178128 -0.43077606 0.09792802 -0.30919042 -0.3697693 0.09660635 0.12552302 0.24258894 0.027918171 0.33961987 -0.36034542 -0.10583529 0.03225723 -0.08459726 0.18097879 -0.3493498 -0.04508626 -0.032667637 -0.2526433 0.22373667 -0.09436727 0.25882897 0.33245614 0.25908867 -0.4441999 -0.13708074
1363 0.15330584 0.038638838 0.033890128 -0.2431815 0.00051529537 -0.10630516 0.4721055 0.4043656 0.1022771 0.03021656 0.069234274 -0.41187984 -0.03198992 -0.07122669 -0.28155252 0.09651863 0.009571777 0.24029817 0.16287878 0.62657964 0.13166687 0.0791172 0.13364123 0.35826376 -0.2803161 -0.01444572 0.29655537 -0.20316362 0.16188756 -0.3093903 0.24683803 0.10521991 0.16182879 -0.24383993 0.03215369 0.10840331 0.03515579 -0.07078807 -0.101984456 0.15326507 0.44976792 0.1617223 -0.13222677 0.19894832 -0.016483856 -0.10972505 0.6986246 -0.27591765 -0.08127355 -0.55456614 0.20660204 0.31537065 -0.043709673 -0.111660995 0.009178864 0.2560819 -0.05787299 0.12230035 -0.006354256 0.111865856 -0.0227039 -0.2240828 0.41127393 -0.22872289 -0.3061445 -0.121212974 0.27818167 -0.3027963 -0.26365405 -0.20371154 0.20133992 -0.3736259 0.0395781 -0.03575018 -0.2903807 -0.4751247 0.28458968 -0.040957287 0.28732017 0.32394782 -0.5024381 -0.17994279 0.06970355 -0.08696608 0.21484208 0.0034299127 0.28427568 0.42146528 -0.07924037 0.2953491 -0.10976366 0.08441121 0.30278364 0.05228843 0.28294832 -0.10479999 -0.024888637 -0.009428543 0.1160972 -0.06763648 0.18502566 -0.18615246 0.13569048 0.10359258 -0.14194837 0.012665227 0.15395154 -0.40215406 0.18760198 -0.0940883 0.005593029 0.20465767 -0.3685665 -0.16703826 0.27414405 -0.47910336 0.013529113 -0.28893018 0.021221709 -0.103962064 -0.046331186 0.4020186 -0.18864559 0.5243911 0.3487362 -0.17423657 0.067522414 -0.019725282
1570 -0.32441977 -0.029825352 0.57767147 0.075613126 0.18435654 -0.11622591 -0.09332489 0.22515038 0.012683564 0.17714866 -0.033745088 0.4663761 0.022547804 0.5218367 0.044482693 -0.00700028 -0.082706586 0.12920694 0.42512155 0.0026311905 -0.08378216 0.42749467 0.0021178147 0.17682697 0.107456595 -0.16041945 0.016122846 -0.02505527 0.33415323 -0.20602679 0.17392197 0.08257631 0.34923124 0.0802457 0.083678514 -0.24357931 -0.20826912 -0.5133475 -0.37085414 0.027359892 0.038979847 -0.15911844 -0.012237378 0.64225566 0.34131792 0.42030764 0.35429022 -0.17221592 -0.2543986 -0.013075315 -0.44665682 -0.055857945 0.19536681 0.042525694 0.18484643 0.13860612 -0.053759173 0.16204794 0.022127284 0.3976945 -0.05430512 0.09256041 0.11624132 -0.54261 0.1468349 -0.015405326 0.20295194 -0.12965587 0.1988487 0.23540793 0.59439176 -0.122845344 -0.057815213 -0.15534842 -0.08929706 -0.20012312 -0.1745395 0.14064811 0.19244495 0.08326734 -0.11754531 -0.3621661 0.08377335 0.11035629 0.095845185 -0.23365578 -0.13009682 -0.16339238 0.110334024 0.43921986 -0.10195216 0.5510344 0.002746073 -0.057760984 -0.06446981 -0.066693485 -0.1604742 -0.40470752 0.012832103 -0.3740169 0.030361662 0.29119536 0.063241236 0.14374821 -0.13421732 -0.020403214 -0.16924757 -0.23044766 0.14505742 0.11370989 0.5039309 -0.031859543 0.06267057 0.2824402 -0.20112956 -0.4758706 -0.0037699195 -0.03715931 0.006522208 0.2291635 -0.24024358 0.030959273 -0.09986828 0.46331102 -0.6318467 0.08969204 -0.13319243 -0.031480163
912 -0.3849099 -0.28227416 -0.01043514 -0.07252235 -0.15030256 -0.1564724 -0.15846902 0.27100605 0.0031118984 0.1451478 -0.245615 -0.14139618 0.24414647 -0.010841817 -0.09868669 0.0873141 -0.17750826 0.27803078 0.6250266 -0.27060065 0.22484142 0.14636153 -0.075135686 0.35356396 -0.2053258 0.22154386 0.41649008 0.34067583 0.2808992 0.17104293 0.26458028 0.09840274 0.3980122 -0.026112966 0.12863556 -0.19043168 0.23978636 -0.14444879 -0.11026067 -0.032974 -0.25488845 0.17641865 0.106434524 0.13936709 0.124481566 -0.03551807 0.19562694 0.2648512 0.17136666 0.14109404 0.29280367 -0.03210587 -0.45004606 0.9158974 0.023206295 -0.22545597 -0.166085 -0.07338374 -0.21906462 0.2772023 -0.38656378 -0.17757435 -0.2918877 -0.22841588 -0.11309128 -0.30527538 -0.010106514 -0.11492061 0.26056045 -0.1640207 0.003472683 0.21646567 0.07330891 0.11393365 -0.079620264 -0.26636156 -0.38245758 0.5610534 0.115549006 -0.5213454 -0.3777538 0.024716586 -0.02721065 0.06793234 0.27869856 -0.10082518 0.1344017 0.053296346 0.17256905 -0.04343794 -0.10685139 -0.0059334617 0.20813061 0.28448895 -0.057152737 0.28760803 -0.016046174 -0.14611414 -0.17115776 0.19254614 0.38589492 0.20637695 0.21502577 -0.044845253 -0.06877177 -0.2764768 0.038771488 -0.10862039 0.38743675 -0.12132714 0.045918528 0.29532838 -0.097914726 -0.38449562 0.049937833 -0.2357997 0.0134282345 0.04899621 0.043766357 0.16547917 0.1514561 -0.048240975 -0.26861554 -0.066992894 0.15742071 -0.27092537 0.38399246 -0.23557296
483 -0.3240221 -0.33350465 0.11638317 0.56808925 -0.06139898 -0.06340437 0.24903637 0.32760823 0.24413872 0.11571052 -0.11323874 -0.3737667 0.2773355 -0.10804285 0.16100995 0.1600948 -0.16817226 -0.054512586 0.14102457 0.037095156 0.085444696 0.6327721 -0.3378285 0.03894358 0.15220788 0.072579876 0.08122497 0.16044702 0.4369128 0.14809364 0.14568208 0.32243785 0.0847285 -0.05087371 -0.0855101 -0.15909304 -0.08882925 0.11240613 -0.27860153 -0.31906828 0.25175628 0.011545058 0.48685893 -0.15383267 -0.06560954 -0.23407471 0.47459236 0.0952227 -0.018732538 -0.005919721 -0.06849456 -0.11770305 -0.1463226 0.35831374 0.2374662 0.17199902 0.11969012 0.08064355 0.16482507 0.32114196 0.09855103 -0.05919715 0.03881275 -0.2855412 -0.05875087 -0.20004807 0.07916416 -0.40472543 0.1292286 -0.011834673 0.30239898 0.0003369308 0.46174785 0.108444095 -0.11405943 -0.031607196 -0.17518447 -0.2582352 -0.1261954 -0.16872145 -0.22689216 0.16881365 0.23632324 0.22129056 0.063225314 -0.23970981 0.084312215 0.028891109 0.01584124 0.03396129 0.3739444 0.29217067 0.23162514 -0.038545094 -0.13183196 -0.21023527 0.1543844 -0.14164105 0.0064157355 -0.5962272 0.0046094046 -0.049094122 0.46675205 -0.21744795 -0.049509328 -0.13088854 -0.16656424 -0.40891978 -0.042008147 -0.083312795 -0.029595617 -0.24438104 -0.49954548 -0.1040352 -0.51379514 -0.25132313 0.048794374 -0.12433884 -0.046712905 -0.032275032 -0.016021512 0.22388892 -0.06482084 0.16503829 0.28037363 0.21383844 0.25277528 0.12898543
806 0.21981847 -0.1451988 -0.12033217 0.5076955 -0.1157245 0.10418232 0.32187837 -0.28584662 0.3130449 -0.0575509 0.15182972 0.20071489 0.25019038 0.1512917 -0.24399954 0.21077718 -0.29591796 0.6577131 0.29272598 -0.03622172 -0.12820293 0.029101573 -0.011417991 0.12807275 -0.29115477 -0.42640832 0.050414644 -0.20936361 0.294213 0.08509612 0.31698167 -0.23963802 -0.19598313 0.13350178 0.032637153 -0.095298365 0.09365836 -0.21652229 0.039784774 -0.3736768 -0.5839585 -0.08615836 0.31560653 0.2790046 -0.12173488 0.25812423 0.5527666 -0.0064717745 0.088658735 -0.06406888 0.06832439 -0.017074574 0.047386434 -0.14984429 0.34841838 -0.10589896 -0.056979228 -0.021058297 -0.046295006 0.32638487 -0.113989666 -0.021594966 0.12375237 -0.10794202 -0.21306513 -0.21936013 0.03471478 0.21615987 -0.20546488 -0.2703513 0.52658105 -0.17766781 -0.18203363 -0.27209938 -0.29615068 -0.3338342 -0.49412802 -0.062303364 0.21968874 0.11380115 0.08092757 -0.14056061 0.0463824 0.2377321 0.2969703 0.07729195 -0.11870747 -0.0695903 -0.09184952 -0.1797651 -0.105647914 0.22265737 -0.2888945 0.67321044 0.1414137 -0.2016167 0.3962474 -0.10419715 -0.3259023 -0.05991489 0.12615931 -0.32245994 0.37850156 -0.28639987 -0.002358351 0.1434865 -0.034919623 -0.1347344 0.1689143 -0.14589117 -0.21797977 0.32653406 -0.069997646 0.28977653 0.1440372 -0.36159846 0.20857976 -0.08570117 -0.0056861984 0.3356206 -0.4615432 0.27625176 -0.14004749 -0.095064245 -0.20841564 0.05574798 0.3002647 -0.24948038
948 -0.7412293 -0.23930377 0.067435674 -0.18689519 -0.04948077 0.018606855 0.05025671 0.0706969 0.17457521 0.1580186 -0.074203216 -0.05227168 -0.028099185 0.3233043 0.017474025 -0.30369774 -0.11916014 -0.10208726 0.38590056 -0.0069761574 0.40486372 0.3175316 -0.046715856 -0.47382584 -0.30339026 0.24065664 -0.26610813 0.21966706 0.012050759 0.2012312 -0.004123115 0.14649731 -0.0050151013 0.2974733 -0.21678255 -0.30455726 0.03581662 0.017476406 0.18714471 0.059588592 0.20770171 0.269432 0.12502213 0.22766724 -0.033819444 -0.04399544 0.59418005 -0.10087268 -0.017472237 0.011581794 0.1184904 -0.2491032 -0.5773674 0.117503814 0.26107502 -0.097629644 0.20950992 0.32832778 -0.15092278 0.19415317 0.06548364 0.071287476 -0.14934154 -0.035065692 -0.2226458 -0.31715196 0.10973727 -0.05756931 0.037594996 -0.36259493 0.33379218 -0.071948454 0.06994124 -0.17487086 -0.01336381 0.089983866 -0.38068202 -0.3525936 0.10962624 -0.0019359324 -0.086828485 -0.061022673 0.056233067 -0.41301626 0.05539028 -0.14619994 0.23896082 0.20105009 0.14711678 0.43891808 0.022908974 -0.0057704938 -0.00064473477 0.24171045 -0.018584436 -0.24400964 -0.2188157 0.38463524 0.27414566 0.3746229 0.0041611255 0.008866632 0.20667973 -0.16565922 0.044314776 -0.24188663 -0.21794678 0.05332699 0.45384017 -0.18283337 0.06592902 0.2599094 -0.28064197 -0.2857211 -0.3043862 -0.22722039 0.44247466 -0.011068444 -0.094820336 0.3372508 -0.15100081 -0.07742657 0.08850081 0.058795966 0.21090756 0.0370344 -0.1087924 -0.372426
13 -0.59552646 0.31434867 0.070275106 -0.0065209367 -0.15315637 -0.040468585 0.21244673 -0.13537797 -0.26568508 0.03368937 -0.25345865 -0.39339995 -0.20089088 0.32812285 -0.01869619 -0.38131252 -0.30293635 0.16796963 0.04185351 0.11678103 0.41789585 0.03470571 0.08316175 -0.31815347 0.030257065 0.05944495 -0.39275593 0.0917624 0.27137035 -0.25178245 0.2257093 -0.023668483 0.17470473 0.02135235 -0.10402271 0.0044111605 0.034545302 0.016995147 0.07133954 0.27699402 -0.19782828 0.17125899 0.34266052 0.44458196 -0.10556073 -0.17147878 0.3946916 0.042270906 -0.41083062 -0.15238762 -0.061988123 -0.24945287 0.05941808 0.3296503 0.037604492 0.2868828 -0.16421375 0.079789 0.051062923 0.37101975 -0.16299224 0.1458942 -0.418019 0.16881184 -0.4052118 -0.45117858 0.15162541 -0.35707822 0.17922352 -0.23454244 0.49225038 0.17767541 -0.015372578 -0.030645648 -0.003355784 -0.076589495 -0.32782245 -0.13225174 0.3541404 -0.17286132 -0.25834727 0.20327716 0.19752087 -0.24246275 0.57898915 -0.34005523 0.23442668 -0.10246399 0.04131398 0.027973406 0.21920717 -0.08611241 0.29169044 0.28216633 -0.063335784 -0.385785 -0.18352942 0.22432153 0.04936915 0.11765901 -0.16424103 -0.413331 -0.19330727 -0.08227545 -0.12237712 0.00945358 -0.36497727 -0.005236703 0.08193906 0.16538316 -0.014956675 0.097351074 0.0662814 -0.06427583 0.34372193 -0.14220275 -0.15531959 0.09092525 -0.13895519 0.2810769 0.06886621 0.14039236 -0.06501233 -0.05301886 0.1420189 0.0038481816 -0.29812565 -0.08886261
1214 -0.1572368 0.21767198 0.095949806 -0.27063572 0.18398611 0.21225134 0.19900687 -0.071459524 0.5239604 0.07090777 0.015944311 -0.38638672 0.113066405 0.15793246 -0.30124637 0.32714596 -0.054326095 0.33303812 -0.06749646 -0.16173302 0.33047497 -0.049753014 -0.14259845 0.28204188 -0.32406995 0.17898929 -0.49708867 0.10263214 -0.11198732 0.058520883 -0.3111771 -0.0041271406 0.086372755 0.17360103 -0.34833598 -0.3242812 0.2919805 -0.19251099 -0.094513945 -0.1371303 -0.07559205 0.08036475 0.07683753 0.103187695 -0.2525376 -0.088348374 0.3042521 0.37573567 -0.035765942 -0.22882777 -0.19939247 0.008910179 0.0965161 0.20046921 0.021588596 -0.093777776 -0.13478523 0.1624319 -0.049035333 0.63093597 -0.05143359 -0.0014592067 0.114375636 0.30856046 -0.3704097 -0.3011704 -0.28771332 -0.035219703 -0.26480317 0.20383096 0.17569225 -0.221731 0.1591492 -0.027862277 0.45888805 -0.11344976 -0.6276003 0.39039844 0.4382521 0.2644747 -0.3583471 0.32896602 -0.2684294 0.087674215 0.13836654 0.3615535 0.0812581 0.12094747 -0.20207399 -0.108179785 -0.19834411 0.1913389 -0.12358493 0.45339233 0.03556237 -0.21445452 0.14025703 -0.13112414 -0.22846285 -0.09442558 -0.10548163 0.11781783 0.54168296 -0.27590555 0.048098058 -0.0054144072 -0.23638768 -0.22464742 0.16295502 0.14644085 0.4181559 -0.039112635 -0.32940668 0.2758384 -0.07460629 -0.41314107 0.100876965 -0.13812584 0.24946809 0.13506068 0.19685891 -0.0377118 0.09669744 -0.021362871 0.059111405 0.18232113 0.19008376 -0.06444595
1812 -0.051104225 0.02724204 0.08305754 0.22711876 -0.19235161 0.24367318 0.32986 0.0054450072 0.32008612 -0.0057618483 0.14543019 -0.28107467 -0.016404567 0.2160903 -0.42159528 -0.09336955 -0.15339135 0.627662 0.22711128 0.16021988 -0.085029356 0.18842511 0.20568214 0.3739212 0.077551104 -0.23239307 -0.037722304 -0.08172905 -0.020654496 0.16361286 -0.078174494 -0.11985027 -0.0825235 0.21623813 0.22088051 0.041459423 0.044405375 -0.12872311 -0.26129192 0.016814584 -0.18864898 -0.119962096 0.3265803 0.32817242 -0.55808794 0.03677541 0.5292923 0.10043108 0.12725978 0.19691975 -0.18115664 0.09288826 0.027757643 0.21642132 0.19934137 -0.17138784 -0.020115009 0.07848225 0.23389633 0.33829606 0.515887 0.4386424 -0.21933189 0.240935 -0.39542517 -0.17554949 0.0555456 0.034712285 -0.29518646 -0.34009406 0.28047416 -0.46984076 0.24182692 -0.24227722 0.015305341 -0.21890227 -0.25603333 -0.15950342 0.1786295 0.17253749 -0.44823128 -0.38590536 -0.093872644 0.027373793 0.17065057 0.045297958 0.28595158 0.1428062 0.32268786 -0.19243287 0.18166077 0.13214476 -0.0005326102 0.1760946 0.06851318 0.018963236 0.17447135 0.010007885 -0.31514588 -0.22666208 0.05835286 -0.08562886 0.35436514 0.036297847 -0.28311506 -0.22690846 0.22468105 -0.1515477 -0.4718271 0.068936564 0.017345954 0.24212036 -0.09587296 -0.15480354 0.14309779 -0.61948574 0.24431849 -0.3709161 0.06913946 0.31091782 -0.46078876 0.55370367 -0.14514792 -0.19299418 0.21479405 0.24980201 0.12663738 0.10186565
400 -0.18177518 0.4662415 0.1348144 0.097874336 0.057308458 0.02726997 -0.039044924 0.057024263 0.5231407 -0.24336635 0.10697803 -0.42426074 -0.090980195 -0.22128578 0.03907154 0.0741541 -0.31847098 0.31572452 0.47391263 -0.14775302 0.12701115 0.33224246 -0.33254743 0.08970922 0.25264192 -0.19321042 -0.17170317 -0.008304691 0.26742435 -0.18515916 0.31571916 0.16988154 -0.030581456 -0.19052206 0.13718887 -0.15448533 0.14388137 -0.06029271 0.18507122 -0.094339326 -0.09605237 -0.19794902 0.29319242 0.35316268 0.0095959995 0.016121063 0.46726367 0.2397936 -0.13714153 -0.3277911 -0.2985795 0.14982891 -0.36104316 -0.061050374 0.1782474 -0.2454683 -0.17621951 -0.01546922 -0.12910157 0.029550217 -0.1484196 0.25055218 -0.23189886 0.009832739 -0.2985587 -0.28354168 0.054575536 -0.26789486 0.22655538 0.28953275 0.12095032 -0.23317008 0.13781604 0.2915031 -0.009516323 0.19542518 0.22448604 0.20629069 0.19525363 0.036672994 -0.053995367 0.020037292 0.20491442 -0.23683585 0.30873027 0.57369465 -0.14409204 0.14993885 0.21484284 0.4172296 -0.29732585 0.15720914 -0.23327696 -0.44893214 0.15944111 -0.18123005 0.2279339 0.29413074 -0.36699802 -0.4923418 0.05494746 0.025740972 -0.09983657 -0.08278502 -0.14513212 -0.17462875 -0.0960586 -0.40183762 0.13598397 0.086388305 0.24826255 0.29032525 0.30374876 -0.15832303 0.11270017 -0.5195782 0.313611 0.09519668 -0.04883728 0.16346066 -0.174993 0.30153313 0.016522354 -0.114839554 -0.020887204 0.11333917 0.00036458494 -0.018108482
468 -0.51126504 -0.0911877 0.17646348 -0.0053986586 0.11554447 -0.07726093 0.31726044 0.23636922 0.15659454 0.060230937 -0.20765996 -0.014312989 0.023498677 0.10101457 -0.16361773 0.28558138 -0.48441052 0.17074649 0.4129648 -0.29746407 -0.06248345 0.4171022 -0.13322176 -0.22612125 0.42225116 0.4750644 -0.22842266 0.27568203 0.26472592 0.004272759 0.08223484 0.027803503 0.107504494 0.32128617 -0.46389169 0.011570017 -0.13609579 0.089888334 0.037456088 -0.11679652 -0.055273738 0.21180841 -0.17797342 0.3717383 0.19251688 -0.29400852 0.13570787 -0.060518704 -0.02728447 0.20263585 0.012737649 -0.31479874 -0.07225312 0.58544225 0.1165935 -0.20522517 0.2348184 -0.049873117 -0.0591895 -0.10253028 -0.31310022 0.20667991 0.042109225 0.021184677 -0.23046944 -0.077586256 0.30362514 -0.06526611 -0.036370862 -0.21596141 0.62933314 -0.19176704 0.29249474 -0.10542969 0.25505716 -0.37350476 0.0004730759 -0.09231319 -0.062114757 -0.3364756 -0.17452425 0.09030553 -0.086969286 0.1379866 0.26282763 -0.22961898 0.08823349 0.035640005 -0.20270087 -0.06683351 0.050944414 -0.12240265 0.1226773 0.20120709 0.15529872 -0.013165515 -0.013586838 0.31376582 -0.21675947 -0.2951736 0.17162037 0.02659225 0.05009227 -0.030256126 -0.23155941 -0.004646266 -0.108100556 -0.055800248 0.3005242 0.34546673 0.17589277 0.252133 -0.21340618 -0.020053739 -0.4140294 -0.6591019 -0.1631514 0.1994877 0.038899716 -0.112997904 -0.15852644 0.45847866 -0.07634436 0.17706563 -0.29510117 -0.06831076 -0.11266989 -0.12359303
2182 -0.05801354 -0.16214256 -0.36200547 -0.049730044 0.10227581 0.027828772 0.40191126 0.18199357 -0.07368845 0.27740198 0.21686506 -0.2671599 -0.059094924 -0.07022584 -0.5465736 0.065307125 0.15118483 -0.13425492 0.119094424 -0.1422657 -0.012746928 0.2840882 0.0824241 -0.095167585 -0.1449213 -0.27294642 -0.019992404 -0.11522265 0.40985247 0.018768717 0.16345358 -0.029674554 0.39033645 -0.15739812 -0.086537875 0.0052164113 0.10326629 0.07824646 -0.48552585 -0.19774474 0.078937545 0.25536177 0.0502922 0.22353312 0.19222653 -0.2524034 0.52924466 -0.16643159 -0.10779642 -0.31140313 -0.021448644 -0.0741997 0.19721518 -0.10790193 0.05309779 0.05716542 0.012496468 -0.0338001 -0.005317343 -0.11446927 -0.016493663 -0.091818236 -0.118828684 -0.36401328 -0.16101646 -0.39146614 0.54703176 -0.31660295 0.069161326 -0.40473497 0.051429562 -0.13520731 -0.046501566 0.18940066 0.07238605 -0.35180753 -0.25800493 -0.13413788 0.10405255 -0.27137533 -0.33556473 -0.3397555 0.32266593 0.26230028 0.20438613 0.004066467 -0.052218925 0.48826498 -0.017283559 -0.04932712 -0.29104194 -0.34272665 0.18609199 -0.08283583 -0.42723694 -0.3474863 0.40669447 0.14243168 0.3493624 -0.13196836 0.1232597 -0.32329625 0.47159553 0.008711172 0.03165001 0.18420374 -0.21451506 -0.616759 0.023144107 -0.026613882 0.2674423 0.518118 -0.30644122 -0.046881326 -0.09551363 -0.64609283 -0.10287808 0.079801664 0.13774185 0.06507628 -0.09347828 0.08588155 -0.19138727 0.20139985 0.39699358 0.26811415 -0.08990627 -0.044404417
