2302 128
693 0.0029255555 -0.0011753748 0.0019322896 -0.0029132583 -0.0007780595 -0.0027809425 0.003232841 -0.0008810129 0.0007847999 -0.0017437601 0.0008211845 0.00286456 0.0030004166 -0.0016498864 0.0018700534 -0.00040517276 0.00096302753 -0.0009852769 0.0036744159 -0.00046955099 0.000491704 -0.001686623 -0.00232212 -0.001622743 -0.00034331132 0.0020012653 -0.0024879233 -0.0027838286 0.0006166715 0.0037126874 0.0012665871 0.00018804558 0.00372745 0.0028640733 0.0029663313 7.275933e-05 -0.00024798562 -0.0028578702 -0.002021292 0.0012253794 0.0035623363 -0.0010700013 0.0025307813 0.00326229 0.00030325179 0.00024082279 -0.0013499047 0.003011797 0.0014712512 0.003550621 -0.00036577738 0.0025949276 -0.0026036007 -0.00024015062 0.00061658875 -0.00055456447 -0.0013227842 7.41167e-05 -0.003714961 0.00279677 -0.0011926988 -0.002464542 -0.003069914 0.003124788 -0.0006797277 0.0012931055 0.002139966 -0.002423497 0.001516759 0.0024015796 0.0037628755 0.0010160332 0.0032097674 -0.0013199808 0.002951527 -0.0030058844 -0.003452011 0.002806002 -0.0013720175 0.0025780736 0.0008749444 -0.002478864 0.0013493126 -0.0004066301 -0.00086883624 0.00078839244 0.0017596115 -0.001163394 0.0011761541 -0.0036688275 -0.00161605 0.003726136 -0.0038365445 -0.0010228639 0.000992358 -0.0033148595 0.0003551974 -0.001194719 0.0014271913 0.0026548952 -0.00123064 0.0038348564 -0.002550589 -0.003454048 0.0010038055 0.0038675512 0.0015881512 0.0035007235 -0.002411778 -0.0034300212 -0.0017473851 0.0023960269 -0.0027901195 0.0029274386 0.0004788952 0.0029973397 -0.0018926753 -0.0010355113 -0.0034159303 -0.0008005096 0.0014315492 0.0013372578 0.0006638779 0.0037150239 -0.0012690276 0.0009849808 0.0022409123 -0.002083196
41 -0.0021735516 -0.00285001 0.0037789866 -0.00087065063 -0.003720094 0.0025357201 -9.377813e-05 0.0007147085 -0.0010203132 0.0020032825 0.003257659 -0.0021383944 -0.002314198 -0.0015360889 -0.0019265456 -8.882126e-05 -0.0032076947 0.00023624109 -0.0007117555 0.0017084923 -0.0010497874 -0.003186372 -0.0008345648 -7.76053e-05 -0.0030920643 0.0033932198 -0.0024652686 -0.003738417 0.00035964345 0.003251709 0.0022918093 0.003645987 -0.0001979437 -0.0024992258 -0.0028041322 -0.0016220452 0.001217849 -0.00095245015 0.0010745638 -0.0029045276 -0.0022172092 0.0035661645 -0.00019400122 -0.0026275998 -0.002534187 -0.0008194713 -0.0012590525 0.003310392 -0.0010953222 -0.0037193708 -0.0037244984 0.0032977932 0.0033326687 -0.0034258252 -0.002033567 -0.0021266926 0.00065457105 -0.003352327 -0.0011119455 -0.0010565264 -0.0035923158 -0.001753504 -0.0024133103 -0.0001423903 0.0021336393 0.00039700037 0.0012917139 -0.0004593674 0.0006171962 -0.001954924 0.00017807982 -0.0017166133 -0.0016652344 8.1621365e-05 -0.002639553 0.0006781139 -0.0015169465 0.001510776 0.00031303035 -0.0030756155 0.0023715948 0.0012656362 -0.0026029362 0.0020207653 0.00025751913 0.0021824664 0.0009464998 0.0010482284 -0.003087384 -0.0025173384 0.0037448183 -0.00043417266 -0.00072203676 0.001068723 0.0012173166 3.92911e-05 -0.00027729018 -0.0026558773 -0.0011721122 0.0037505187 0.0035431085 -0.0015311671 0.0025429598 -0.0014005011 -3.6705263e-05 0.00014140259 -0.0008476093 0.002273886 -0.00048416964 0.0032782145 -0.0038701727 0.0005047842 0.0009525684 0.0010529871 -0.0028855242 0.00298676 0.0013694111 -0.0036319946 -0.003089664 -0.002287901 7.2193143e-06 -0.002641863 -0.0022387851 0.0031034516 0.00079093355 0.0007072228 -0.0035066474 0.0011729243
1589 4.518916e-05 0.0035383215 0.001206177 6.231887e-05 -0.00012412546 0.0012831647 -0.0019366045 -5.5835135e-05 -0.0030101633 0.0011213929 0.0026845695 -0.00029858496 0.003676127 0.0016312568 0.00046511728 -0.0017737309 -0.0009619908 -0.0030954992 0.0028068712 -0.0037343137 0.0023058981 -0.0035968593 0.0032769814 -9.998429e-05 0.0036909918 0.0022376748 -0.0012065629 -0.00025692242 -0.0022727326 0.00013101228 0.001061023 0.0013427319 0.00056920364 -0.00034620357 0.0010105803 -0.0014581983 0.0026385537 0.0019768828 -0.002853808 -0.0018895044 0.0007964941 -0.0034143475 -0.0037228249 0.0016292182 -0.0015724815 0.0034363773 -0.002589386 0.0006074458 -0.0021101558 -0.0014206248 0.002303535 -0.0029724382 -0.0025583354 0.0026221913 0.00096411206 0.0022499664 -0.002079434 0.001991687 0.0022567508 0.0038438155 -0.0037161352 -0.0011572809 0.0006789868 -0.0026951618 -0.002744228 0.0026413368 -0.0036087814 0.0009106413 0.0022927534 -0.0014497829 5.5889755e-05 0.0004090602 -0.0006682004 -0.00040969998 -0.000752832 0.00082221633 0.001257555 0.0027509176 0.0017557649 0.00050117454 -0.0033866945 0.0011112599 0.0023788817 -0.0016993508 -0.00089353736 -0.0021474601 -0.0036352414 0.0038815988 -7.451485e-05 -0.001387104 0.0026860328 0.00046677678 -0.0022094455 0.0020361429 -0.0001785912 0.0025654251 -0.000118230135 0.0029494946 0.0011866606 0.0028230478 -0.0029203726 0.0025157875 0.003345109 0.0028273752 0.003387783 -0.0015353546 0.002906624 0.00071031076 -0.0017678936 -0.0019450384 -0.0030333505 0.00045026562 0.0035318153 -0.0024620525 -0.0029213605 0.001304622 -0.002534783 -0.0024174347 -0.0032344987 -0.0036926055 0.0029373665 0.0019640457 0.00035195553 0.0036239824 -0.002477176 0.0012169025 0.0031446754 0.0014326096
2012 0.0015074034 -0.003712524 -0.0010195503 0.0035497644 0.00022200965 -0.0010248407 0.0012158602 -0.0022605432 -0.00071779115 -0.0029264607 0.0013038658 0.0005637371 0.0025090277 0.003639246 0.00021556432 -0.0035015806 0.0005775777 -0.0038356287 -0.0032030374 0.0012388735 0.0033873578 -0.001985573 0.0031308236 0.0012493217 0.00056928385 0.0003515322 0.002105022 0.0029748904 -0.0035386707 -0.0029611376 -0.0035171981 -0.003871593 -0.0028873882 -0.0036861484 0.0007797489 -0.0028080961 0.002774103 0.0022960245 -0.003367469 -0.0003247266 0.0032237177 0.0005907191 0.0025449572 -0.0007689689 -0.0018575226 0.0010539574 -0.002159952 -0.00058159133 0.0034745024 0.0011836148 -0.003593256 0.0038873903 0.00367837 -0.001190225 4.7440542e-05 0.0029533019 -0.0015088359 -0.0021987776 0.0012648505 -0.0018286841 0.0021934574 -0.00047233683 -0.00023208393 0.0014030612 0.00044760547 0.0022110606 0.0038447343 0.0027031484 -0.0028339515 0.001713274 0.0018609354 0.0038535579 0.003608468 -0.002245927 0.0025542327 -0.0026513753 0.0004705248 0.0025536737 -0.000107169406 -0.0025648705 -0.0019327858 -0.0019905095 0.003265381 0.0016941153 -0.0024758917 -0.00017677425 -0.0020794866 0.0035653221 0.0011303021 0.0012025749 -0.00025011975 -0.002582908 0.0025062151 -0.0028366758 -0.00174627 0.0007443652 0.0012606826 0.0014732454 -0.0021500853 -0.0030547427 -0.00027937102 -0.0013746602 0.00039038152 -0.0019386956 -0.0026307127 0.002372116 -0.0016841742 -0.0005737429 0.0011614276 0.0028376507 0.0011034872 0.0030425377 0.0028615566 -0.003850273 0.0022841662 -0.0026716143 0.0012897397 -0.0034524414 0.0018091318 0.0017550499 -0.0030185925 -0.0032657788 -0.0012789161 -0.003288231 -0.0022410525 0.0012986838 -0.0036704456 -6.307872e-05
709 -0.0019332814 -0.0014216348 0.0012953896 0.0020874294 -0.0015986988 0.0025756725 0.00030785202 -0.0011415475 0.0024632819 0.0019856815 0.0016180433 0.00038858704 0.0038856613 0.0017493111 -5.281563e-08 -0.0027965924 0.0035153003 0.0021083201 0.0026512297 0.0020431273 -0.0016967349 0.0030205387 0.002872813 0.0017974166 0.00017117428 -0.0016399935 0.0016334407 0.00024172475 0.001529418 0.0013664017 0.0036898362 0.0032598234 0.002673123 0.002704867 -0.0037811396 -0.0021454052 -0.00065666495 -0.00072473666 -0.0037507648 -0.002139301 -0.0026792684 0.0013616858 0.00072444015 -0.0013178108 -0.0022091696 0.0013286611 -0.0012389658 -7.106957e-05 0.0015273676 0.0020839209 -0.0023136162 0.0021141276 0.0014751446 0.002947153 -0.0025207049 -0.0017944984 1.0857967e-05 -0.00072508544 0.0004343571 -0.0008164817 0.00067852734 0.0023369053 0.0011074754 0.0014469627 0.0013814353 -0.0005928569 0.00030603248 0.0009767967 0.0017151367 -4.9240894e-05 -0.0032005724 -0.0011682834 -0.00092436955 -0.00039616582 -0.001983902 -0.00078869995 0.00044332453 -0.0032869668 -0.0030314706 -0.0020595326 0.0021218834 0.0029324174 -0.0026549755 -0.003536188 0.0002729335 0.0005455879 -0.0025498788 0.003799053 0.0026015847 -0.002605125 0.0037533618 -0.003846365 -0.0028977643 0.0016896423 -0.0019722376 4.6622466e-05 0.0011666834 -0.002524732 0.0030034198 0.0020560948 -0.0013470402 0.0014915046 0.003566154 0.0027639037 0.0023983517 0.00093775283 -0.0034818493 -0.0017962303 -0.00021735758 -0.0031114956 0.00044961457 0.0024707918 -0.0036944759 -0.0013597416 0.001925846 0.0016332532 0.0034497813 -0.00048314367 0.0005184776 -0.0013226056 -0.0021224103 0.0021265233 -0.0008831152 0.0007328039 0.00066309696 0.0027957228 0.0023964315 0.00066748576
743 -0.0026612408 -0.002209937 -0.003869769 0.001644309 -0.0030872764 -0.0018775489 -0.0013174375 0.0028734352 0.001418427 0.0008344712 0.0017873514 0.00055926415 -0.0019507334 -0.0018023949 0.00020014474 -0.0038095524 0.00012050607 0.0030742402 0.0016718074 -0.0004027605 0.00022299934 0.00038382332 -0.0037178441 -0.0012202899 -3.5233068e-05 0.0019492365 0.0014401835 -0.0035463057 -0.00081749127 -0.0021920812 -0.0009541576 0.0011415705 0.0037795801 -0.0036516709 0.0026591946 -0.0012216998 -0.002044396 0.0033103446 -0.001787194 -0.0037580067 -0.0001265428 -0.0010413574 0.0032871275 -0.0030476064 -0.0013764488 0.00027275202 -0.00043471876 0.0017877776 0.0030860447 0.0030685333 -0.0005427081 0.0028122037 0.00070757954 0.0018017495 0.0032382854 0.002228151 0.0023219762 -0.002005844 -0.0030085994 -0.00016543342 0.0021837733 -0.0033088662 0.0025200252 0.0005293541 -0.003548237 -0.0021039485 -0.0037878624 -0.003247026 0.0027471182 -0.0011852989 0.00268673 0.0010270816 -0.0035226655 -0.0029739428 0.0006881395 -0.00048688063 0.00094769197 0.0038251134 -0.003724585 0.0030139664 -0.0034701119 -0.00014011988 -0.00344608 0.0025405167 -0.00070218113 0.0025305501 0.0031968323 -0.00094082794 0.0012570142 0.0014282312 0.00023192543 0.0032681902 -0.0011784924 0.0026583083 -0.00067579706 -0.0038836456 0.0014475373 -0.00014637219 -0.00031090516 -0.0011709988 -0.0032768964 0.0038218373 -0.0028239526 -0.00065078057 5.35192e-05 -0.0032423248 -0.0025925776 -7.954584e-05 -0.0030324715 0.0003974491 -0.0037241085 0.0016277992 -5.1319035e-05 0.00054704014 0.0009680156 -0.0005900428 -0.0003762961 0.003057166 -0.0017389785 0.0003288865 -0.00014594874 0.0012518658 0.0029599713 0.0009808618 -0.0035469045 -0.0030193406 0.0007880191 -0.0030549457
11 -0.0018806207 -0.00048366303 0.0015623753 -0.003440512 -0.00094968476 0.003892947 0.0036327245 -0.0032671045 0.0026013579 -0.00085702445 -0.0008294226 0.0032865172 0.0038958653 0.002716606 0.0034519031 -0.0008813967 0.0031315063 -0.00055942865 0.0028666293 -0.00016595211 0.0028142063 -0.0011481303 -0.00024358637 -0.0027502102 -0.0012593515 0.0021165344 -0.0014995079 -0.0033197685 -0.0019078013 -0.0017958203 0.003713834 -0.0011897028 -2.942181e-05 -0.0015257467 0.0016428059 -0.0022890717 0.0019599004 -0.0037455794 0.0022864956 0.002895314 -0.002706795 -0.003022979 -0.003046817 -0.0010217349 0.0035481316 0.0013008043 0.00044849922 0.0003743907 0.0019247627 -0.0031290418 0.0011817686 0.0007242022 -0.0009434657 0.0014704778 -6.2875326e-05 0.0021544953 -0.0019380979 -0.0002806338 -0.0015533332 -0.0024962786 0.0005701333 -0.0005491269 -0.00337409 -0.0010994475 0.0019187465 0.0018727563 0.0016229679 -0.00045238345 0.0037776027 -0.0004692397 -0.0022539448 0.001850921 0.0010666043 0.002565761 -0.0024926397 -0.0016595343 -0.0010913715 -0.0028974346 0.0025493233 -0.0009426423 0.0012992 -0.002472252 -0.0010669836 0.0033086822 -0.0014967081 -0.0036354272 0.0018698864 -0.0013367538 -0.0027756945 0.001736341 -0.0016577187 0.0023286147 -0.0016401114 0.0014751973 -0.0014363126 0.0017034952 0.00028109923 0.0011559174 -0.001700413 0.001164538 0.0027796088 -0.003782865 -0.003622597 -0.0031867304 0.00086853956 0.0014319554 -0.0016750463 -0.0017277123 -0.0030982743 0.0016660655 0.002514283 0.0035092158 0.0007560668 0.0018207597 -0.002437681 -0.0019292431 -0.0021651438 0.0021720263 0.0027058297 -0.0032135255 0.0026290715 0.0027455017 -0.0038266026 7.588517e-05 -0.0034161923 0.0019045523 -0.0022702334 0.0029610835
1770 -0.0034646317 0.0019052081 -0.0033510728 -0.003595933 -0.0011030022 -0.002253503 -0.00071556057 0.0014207648 0.0035574646 -0.0004290009 -0.0028127427 0.0034242435 -0.0029536365 -0.0019720371 0.0009614631 0.0035392228 0.0036630973 0.00017571673 0.0016362958 0.0020843546 0.0015862895 -0.003048887 0.0024848739 -0.0039004483 0.0022397798 0.0023458041 -0.0038919956 0.0015902659 -0.0039015175 0.0015045252 -0.002596595 0.0034843306 0.0022821806 0.0018135617 0.002883936 -0.0012080199 0.0017567492 0.0018209369 0.00040382176 -0.002503403 0.0015433483 -0.0006556567 -0.0033385572 -0.0007676704 -0.0035000097 -0.00150183 -0.0031579095 -0.0025454953 -0.0012814093 0.00034071255 -0.0023662858 0.0010991715 0.0027918767 0.0024225337 0.003498325 0.0012833168 0.0029600207 -0.0014021059 -0.00042697118 0.00087553466 0.0007452643 -0.0010562715 -0.0023920306 0.0031576 0.0021043925 0.00044836555 -0.0002270232 0.0031387764 -0.0012304031 0.0028371038 -0.0038490219 -0.000633166 0.000935314 0.0036289534 0.0034414383 -0.0015759183 0.0003408533 0.0016626874 0.0024910155 -6.7221765e-05 0.0019649314 -0.0037027039 -0.0037301723 -0.0037197282 0.0024663205 -0.0008149969 -0.0014819443 0.00089879934 -0.0014398918 -0.0036634542 0.0014876652 0.0028662665 -0.0023311593 0.0029089644 0.00013353917 0.001704453 -0.0020909633 -0.0022670145 0.0023235043 -0.0016775684 0.003880071 -0.0037927444 -0.0020588608 -0.0020642376 -0.0023110174 0.0028574397 0.0033516681 0.0035884401 -0.0034774838 -0.002216251 -0.0037550111 -0.0021081034 -0.00089156197 -9.9899196e-05 -0.0036396668 -0.0037272836 -0.0029645925 0.0034776488 -0.003690186 0.0023911928 0.0011450527 0.0032028994 -0.002996346 0.0031720677 -0.0019996178 0.003049671 -0.0011069938 -0.00052629865
1205 -0.002929543 0.002633532 -0.001037241 -0.0007447128 -0.003555888 -0.003620224 -0.0014629309 0.0015406413 -0.0031404058 0.0004475923 0.0016173327 0.0030210807 0.0013665273 -0.0029315783 0.00022454083 0.0014454587 0.0014442916 0.0011021688 -0.0037261692 0.0036317955 0.00024330796 -0.0036945122 0.00012936741 -0.0011009944 -0.0036849924 0.0037992564 0.00033108756 -0.0034262468 -0.0018013999 -6.594019e-05 0.0020785697 0.002343254 -0.0038168766 -0.0005005063 -0.0005806628 0.0024884283 0.0014662753 -0.0035952132 -0.003895286 -0.0024027321 0.0038833916 -0.00067275943 0.0020921475 0.0012302255 -0.003626494 -0.0037393267 -0.0023078695 0.0029400366 0.0025146573 0.0013150687 -0.0016212079 -0.0007274064 -0.0013995948 -0.002025474 -0.0021537514 0.00036219577 -0.0030509226 -0.0023234973 -0.0026587872 0.0010246363 -0.0020734337 0.00066205324 -3.0648076e-05 -0.0030129876 -0.0008515752 0.0020664043 0.002333549 -0.0014353741 -0.0025910162 0.0019394188 0.0006893562 -0.0010036151 -0.003389566 -0.0006471666 5.1457406e-05 -0.00051487866 0.0031697694 -0.0031750265 -0.001379987 0.00075422245 -0.0035667282 -0.003867331 0.00075676007 0.0005564586 -0.0015982724 -0.003700156 0.002303984 -3.5540852e-05 -0.0036174865 0.0007886446 0.0021633331 0.0022495424 -0.0012007385 -0.0029285348 -0.0031143113 -0.0025631138 0.0026925344 -0.00035328168 -0.0013159841 -0.00031872705 0.0020394253 0.0025389662 0.0012675091 0.002218277 0.0016797661 -0.0010269941 0.0013466659 -0.0019014124 -0.0034765399 0.0002417303 -0.0021666747 -0.0023397289 0.00024176696 0.00018578014 -0.002737952 0.0025074764 0.00089695037 0.0016589655 0.0034869022 0.002086409 -0.001419484 0.0016138124 0.0014601155 -0.003610263 0.00045097483 -0.0013796277 0.002285404 0.0026668021
1160 0.0029928253 -0.0012267445 0.0026145354 0.00046140622 0.0017467863 -5.5519664e-05 0.0029963462 -0.0031907319 0.00096713105 -0.003685227 0.0006612473 -0.0015142673 0.0035919813 0.00044447373 0.0018785861 0.0031425867 0.00022927635 -0.0024531365 -0.0015547745 -0.0013517635 0.00042627295 0.0010868851 -0.0036851636 -0.003356461 0.0036826152 -0.0021773006 0.002699193 0.0022856675 0.0015816179 -0.0012842333 0.0017108782 -0.00270635 0.0034316988 0.0032562227 0.0032625843 0.0016671639 -0.0018143045 -0.0018391637 0.0015653328 -0.0028296742 0.00033543175 0.0012249853 0.0017053095 -0.003162716 -0.00062888267 -0.003662151 0.0015923681 0.0026045586 0.003666854 -0.0026275022 0.0006707901 0.002103404 -0.00064655923 0.0016089428 -0.0023524915 0.0029318063 0.0025879766 0.0022583264 0.0031575582 2.7543241e-05 -0.0009602414 0.001543594 -0.0018866156 0.0012371833 0.0033318517 0.0012495676 -0.0014402834 0.002021471 0.0015635736 -0.0033297343 -0.00026976666 -0.003813024 -0.0014322647 -0.0020717208 -0.0028894811 -0.0022625022 -0.0023892887 0.0010426842 0.0034147846 0.0028019736 -0.003656604 -0.0038681168 -0.0015266817 0.0011532604 -0.00027947203 -0.0034138374 0.0024708926 0.0007125939 0.0017987188 -0.0020702817 0.0009978956 -0.00021941164 -0.003842355 -0.0029463621 0.002354153 0.0035427266 0.002938751 0.0033533454 0.0032760403 0.0007409526 -0.0002804004 -0.0021792527 0.00016315831 0.003125002 -0.0019289681 0.0022368866 -0.00245602 0.0021708014 0.00021790732 0.003513669 -0.0011400408 -0.00025858634 -0.0021127348 -0.0037180325 -0.0014167074 -0.00013530099 0.00067930727 -0.0028140072 0.0009087951 -0.0037504109 0.0024713674 0.0023799427 -0.00044998137 -0.0010948163 0.003376216 0.00034043135 -4.8485286e-05 -0.002972732
1453 -0.0010839074 -0.0034113533 0.0019380312 -0.0036586723 0.0018568131 -0.0027568552 0.0020582636 -0.0007064817 0.0009493185 0.0004094456 -0.0026332159 -0.0027001756 -0.0019620084 0.001801216 0.00029955694 -0.0020806778 -0.0039017359 0.00082474673 0.0016152469 0.0006048764 0.00040509988 -0.0032205924 0.0033221268 0.0030378504 0.0037194781 -0.0036218343 -0.0029255426 -0.0014383427 0.0017432091 -0.0024268902 -0.0027760954 0.003109996 -0.0033344228 -0.001720003 -0.0013930731 0.0009900238 0.00037503045 0.001699081 -0.0021761977 0.0034945079 0.0034755487 -0.0020654683 -0.00054208783 -0.0036967308 -0.0006053514 -5.350779e-05 -0.0030808367 0.0012333238 0.0035209907 -0.0036274411 0.0019499322 -0.00050221663 -0.0014335917 0.0006265222 0.0011861362 0.0016662078 0.0007730003 0.000754581 -0.0014707479 0.00015464838 -0.0018326521 -0.0022901811 0.0026824342 0.00335378 -0.0020104854 0.0032909024 0.0022190912 0.0038572012 0.0018663653 0.0028622441 0.0022840607 0.0011422362 -0.0016913378 -1.4622123e-05 -0.0023232223 -0.0022867036 -0.0013546154 0.0033869296 0.0032094005 -0.0037512425 0.0015085865 0.0019097807 -0.0008249997 0.00060825824 -0.003876878 0.001620756 0.0012857441 -0.00069761265 -0.0019913518 -0.002174901 -0.0013083963 0.003852766 -0.0011972782 0.0010034392 0.00088451523 -0.0030554924 0.0019171652 -0.00058430486 -0.0016973923 -0.002452678 -0.0008998668 0.0010833645 0.0027075377 0.0012580641 0.0034221576 0.0037620405 -0.0005994428 -0.00016913729 0.0026259797 -0.0012117219 0.0020454605 0.002866934 0.00035654297 6.2218765e-05 0.0005253638 -0.0017117423 0.0017643421 0.00262607 -0.0030972674 0.0010922854 0.0020783483 0.00049256935 -0.0021297997 -0.0016499069 -0.0011325217 -0.0037301928 -0.00035383753 0.0024708936
662 -0.0006547432 -0.0023560883 0.0012724772 -0.0034544775 -0.0021033178 0.00086631445 -0.003195426 0.00068829354 -0.00038665222 -0.0012223825 -0.0035543493 0.0015751601 0.0028745988 -0.0026946608 0.0026655884 -0.0037050191 -0.002799764 -0.00020212903 0.0017782798 0.0012402158 -0.0005152338 -0.0033475205 0.0026760693 -0.00061608537 0.0014236114 0.0009357716 -0.0017252829 -0.0015812005 -0.0016739814 -0.0007878753 0.003391121 0.002317035 -0.003686555 0.0011571196 0.0010950469 0.0008414186 -0.0022974834 -0.0038376001 0.0009825296 0.002107306 -0.0003673794 -0.00011776489 -0.0013543209 -0.0021496697 0.0016026833 0.0017426608 -0.0021552707 -0.002908255 -0.0013879872 0.0008537361 -0.0025522297 0.0015352935 0.00097168505 -0.00039330084 0.0007134875 0.00039650663 0.0036379169 0.0021527263 0.00052194775 -0.00041537505 0.003257996 0.00051074586 0.0019978462 0.0025621816 0.0027908494 -0.0030624662 0.0029406764 0.0027727806 -0.0011385271 -0.0033345537 -0.0029943509 0.0008724846 0.0014780853 0.0036223836 -0.0021521237 -0.0010245839 -0.003108816 -0.0029501896 0.0023116441 -0.0024066174 0.0033200074 -0.0036905322 0.00033052615 0.00088830176 -0.00013416122 -0.0016188052 -0.00065492914 -0.0037756965 -0.002558592 0.001034182 -0.0022021674 -0.00088630104 -0.0002841662 0.003026946 0.0011451858 0.0013482485 -0.0016529072 0.0012541774 -0.0007652829 0.002710427 -0.0027003055 -0.00013346293 0.0007620673 0.0010252945 -0.0028391196 -0.0030192034 -0.0033324491 0.0007648815 0.002676062 0.0020861232 -0.0038031794 -0.00059978815 -0.0008823592 -0.0038588492 0.0009717104 -0.0008812261 0.0030508006 -0.00073466054 0.003162979 -0.001545566 -0.0001684274 0.0016865503 -0.0019704236 0.0038214426 -0.0010534057 -0.0035930688 -0.0030579888 0.002689526
1790 -0.003038069 -0.001300595 -0.0017636255 0.0022255233 0.0029658843 0.0032614467 0.0030982865 -0.00085248915 -0.0031327247 0.00049798714 0.0005666171 0.00069805025 1.995955e-06 0.0017161998 0.0027519898 -0.0025822965 0.0014909947 -0.0012515766 0.0033652647 0.0016136265 0.0035296958 -0.0034671419 0.00030209596 0.0033885813 0.003413661 0.0022050594 0.0023310585 0.003630356 0.0011381618 -0.0029882817 -0.00048106594 -0.0019114882 -0.0017387447 0.0010571921 0.0017044279 0.0012233376 0.0034097792 -0.0036507808 -0.0027195336 0.0010000736 0.00034104186 0.00057944586 -0.002703378 -0.0033829617 0.0015808298 0.0009607735 0.0019107048 0.0015506395 -0.0035454724 -0.0020456093 0.0023753906 0.0028642826 -0.00022508344 0.0009644108 0.0009883202 0.0023738837 0.0014251397 0.0030047433 -0.0026060464 0.003013582 -0.0005463905 0.001481717 0.0016285889 -0.0021630784 0.0019469352 0.00050038483 0.0023997352 -0.0022984417 -0.00010194392 0.0037027798 0.002973548 0.0031683184 -0.0012695551 0.0027854766 -0.0015471389 0.0020358062 0.0021149986 -0.0035056856 0.002630673 -0.0009433288 -0.0022851748 0.0024654872 -0.0014912846 -0.0029190937 -0.0028039396 -0.003735074 0.00067943416 -0.0020924427 -0.0020017594 -0.0007452075 -0.001695459 0.003274034 0.0025392072 0.003138214 0.0036746196 -0.0031826748 0.0016432133 -0.000599079 0.00021187171 -0.00065193773 0.0006515933 -0.0030154288 -0.0018073195 -0.0018256867 0.0023386932 0.0028938667 0.0024280285 -0.0017334153 0.0014688314 -0.0031912006 -0.0037670624 -0.00040906895 -0.0004693221 0.0032270292 0.00011908996 -0.001320007 0.00026394398 0.002014153 -0.001413887 -0.0015278412 -0.0012199151 0.0028974847 -0.0014714993 0.0011772441 -0.003338623 -0.0025121453 -0.0033000933 -0.0005209933
1923 -0.0021714626 0.0016515275 0.0019881914 0.0024167197 0.0034960415 0.0013760189 0.0019761138 0.0021359657 -0.0006776804 0.0011058548 -0.00079424126 0.0010738997 0.0018109089 0.0008112093 0.0017119658 0.00038480753 0.0034209746 0.00235328 -0.003011543 -0.0024521668 -0.00044406726 0.0024445727 0.0021709795 -0.0017457485 -0.0036893017 -0.0016441388 -0.0028683667 0.0034734749 -0.0018767267 -0.001174629 0.0035038593 -0.0036665518 -0.0004990571 0.0033060557 -0.0036965457 -0.0023173224 -0.0021389618 0.00037284615 -0.003757534 0.0023765152 -0.0025034323 -0.0026848312 0.0031444826 0.0028606248 0.0034329258 0.0034481208 0.0022760697 0.0024618476 0.0012103018 0.00091126654 -0.0036769607 0.0011388633 -0.0033204746 -0.0024000432 0.00048246558 0.00019157818 0.0002647508 0.0013182142 -0.0011514779 0.0031539134 -0.002860472 7.967933e-06 0.0030259294 -0.001165623 -0.002597102 -0.0031363554 0.002079116 -0.0005690774 0.002128171 -0.001733341 -0.0033120879 0.0029220027 -0.0031448607 -0.0004029337 -0.0004965355 0.0038276685 0.0007657099 0.00035137232 0.00019999173 -0.0005262713 0.0029647 0.00036699462 -0.0007881027 -0.001578229 0.0003772193 0.00047631148 0.0018460169 0.0034511955 0.0004437991 0.0020803646 -0.0026812942 0.00010811985 -3.5296656e-05 -0.0019711358 -0.00067432265 0.0029414142 -0.002038637 -0.002624477 0.003076842 0.0032206445 0.00021141821 -0.0004087992 0.003281735 0.0021495519 -0.003465457 0.00064366456 0.0011950618 0.0034828181 -0.0026255664 -0.002416714 0.0020143024 0.0017858909 -0.003457661 0.0032179293 0.0033175342 0.0004728912 -0.00067507435 0.001820077 -0.0015512032 0.0008167693 -0.003496852 0.0018641733 -0.002948261 -0.000787214 -0.0030221927 0.0009088272 0.0038001589 0.0025849775
1811 -0.0037912605 -0.001536235 0.0010566774 0.0034641002 0.00228563 0.0024154745 -0.0016032101 -0.0028053708 0.0017632328 -0.0018316517 -0.0021138547 0.0027573616 0.0001344394 4.4673037e-05 -0.0001842012 -0.00017222262 -0.0007356579 -0.0033023648 -0.0003579213 0.003766469 0.002822374 -0.0038719107 -0.0019001724 -0.0015292926 0.0011576794 -0.00023931538 0.000701958 -0.0028859063 8.9872025e-05 0.00016270258 -0.0036575745 0.000597568 0.002423256 -0.0017875237 0.0013316462 -0.00068890955 -0.0004210469 0.0034654804 -0.002722713 -0.0011697616 0.0038073973 -0.0031447893 0.0035760037 0.0018821055 0.0012014818 -0.001600651 0.0037641984 -0.0033385316 0.0034038008 0.00038406538 -9.3204144e-05 0.0023539623 -0.0034289684 0.0011668851 -0.0013255887 0.0023809064 -0.0022483007 -0.00012166505 0.0013525749 0.0013488673 -0.00072463567 -0.001433819 -0.003175906 0.0021257182 -0.0024575312 0.00023411686 -0.003481324 0.00048250688 -0.00048653185 -0.0025686699 0.00022984421 0.0014388121 0.00077365036 0.0034295851 0.0004366027 0.0018891596 0.0019043727 -0.0032056351 0.0015142955 -0.0024663731 0.001648794 0.0025928568 -0.0010810994 -0.0036987646 0.0016181134 -0.0021953878 0.0022118797 -0.0006818614 -0.0004142484 -0.00062795985 -0.0018114486 0.0033916624 0.0008033148 -0.0003153125 -0.0022566628 0.0022789123 -0.002559458 -0.0029374098 -0.00089376414 -0.0016454647 0.00043683423 0.0005243342 0.0010316009 0.00183711 0.0002868238 -0.0010240582 0.0015784765 0.0013316165 -0.0023940078 0.0018632503 -0.00084946444 -0.001191621 -0.0018700211 -0.00014775677 -0.0032658593 -0.0007988702 0.0005624053 0.002804158 -0.001229669 -0.0019697293 0.00021209038 -0.002202834 0.003408973 0.002108009 0.0017251952 0.0036509135 -0.0010629114 -0.0014502445
1206 -0.0035631666 0.0012836657 0.001381313 0.0029343006 -0.002631893 -0.0029836565 -0.0010136616 0.0023339614 0.0013965026 -0.0014294935 0.0029326892 -0.0006816068 0.003601857 -0.0019163769 0.00062954624 -0.0029992682 -0.003619801 0.0015304291 -0.001467113 0.00037280482 -0.0022741111 -0.0004915193 -0.0035253 -0.0038860969 0.0022959954 0.0012468355 1.880137e-05 -0.0017625497 -0.0015679239 0.0030091766 -0.0034552682 0.0012470788 0.0017240111 0.0011639105 0.0031791865 -0.0018659417 0.0008827716 -0.0008615711 -0.0012092513 0.0019655458 -0.0022809778 -0.0027054725 0.003242388 -0.0017445721 -0.00012356153 0.003404768 -0.00086634356 0.003039543 -0.0035904688 -0.0002436379 0.00022256548 0.0038974083 0.0037602715 -0.0008051962 0.0017469565 -0.0004880103 0.00033233847 0.0031875854 0.0034886834 0.0035709706 -0.0005329362 -0.0034934063 0.003261165 0.0013241654 0.0033551026 -0.0010170374 -0.0003605351 -0.0009830274 0.00014624916 -0.0025370053 0.0022620717 -0.0034162735 -0.00084632024 0.0038720565 -0.0015209772 -0.00040122893 -0.0020509677 0.0012911591 0.0036669648 -0.0010783566 -0.00024760026 0.0032161928 -0.001627647 -0.000580182 -0.00090552506 -0.0037114713 8.5283755e-05 -0.0035639592 -0.0026107351 0.0010755846 0.001447457 0.00261311 -0.0005098024 0.003408486 -0.0011052064 -0.0020771301 -0.001007116 -0.0015102476 0.0015842745 0.00040759306 -0.0024789516 0.0016889918 0.0030579935 0.00061798946 0.0028192343 0.002074813 -0.0014999417 0.0037708483 -0.0031511856 0.0015487734 0.0034985 -0.0013557451 0.000708578 0.00025330367 -0.00015462302 0.0010946383 -0.0012363845 -0.00021097432 0.00031912109 -0.00073088025 -0.0011318147 0.0012994886 0.0012288614 0.0018657568 0.0037178206 -0.0038004492 0.0023566543 0.0021146017
56 -0.00048341363 -0.0003586739 0.0036754205 0.002652705 0.000818483 -0.0010545301 -0.0036789624 0.0025594314 -0.0030152057 -0.0022547098 0.003603075 0.0007576269 -0.0027667491 0.0032173127 -0.001302004 -0.003724181 0.00017541708 0.0037011332 -0.0012527019 0.0002965799 0.0006740799 -0.0017422365 0.0011420978 0.0023262685 0.00042734493 0.00017630181 -0.0017852888 -0.0028250436 -0.0026737447 0.00075719925 0.0036357397 -0.0035562767 0.0035635855 -0.001689015 -0.0036181745 -0.00052793097 0.0017321191 0.0008230513 0.0022888458 0.0038385538 -0.002003989 0.002108094 3.676068e-05 0.0020896369 -0.0020352784 0.0025779156 -0.0011935211 -0.0024114868 -0.001685991 -0.0033546942 0.0015421786 -0.0019866799 0.00046822816 0.0025098233 0.002842611 0.0006736765 -0.0005913654 -0.0002795636 -0.00096514454 -0.0015425736 -0.002936232 -0.0035882024 0.0018043332 -0.00068967283 -0.001230648 0.00054432836 -0.00093434437 0.00066119625 0.0021217354 -0.0031364805 -0.0006076038 0.0013148584 -0.0029683416 0.0038214682 0.0029818336 0.0024821039 -0.0016641465 -0.001925334 0.0023310822 -0.0001120975 0.0015874357 0.00036217892 0.0023430223 -0.00095808774 -0.0027821956 0.002765302 0.0035142764 -0.00100181 -0.00213673 -0.003749508 0.0010147269 0.0036878039 -6.607754e-05 -0.0014592912 0.0034881285 0.00065988523 0.0033921008 -0.002608541 0.0028966202 -0.0006075431 -0.0019762595 0.00017701594 0.0025996282 0.0014544635 -0.00061239896 0.0010777417 -0.0005218161 0.0010284189 0.0023128113 -2.4354616e-05 -0.003211806 0.0034473818 -0.0019834675 0.0029165943 -0.0014866908 -0.0020016485 -0.0015443452 -0.002169698 -0.0024083292 -0.00096185197 -0.0005072537 -0.0030612545 0.0037903883 -0.0038672972 0.0011528602 0.0028103283 0.0013010517 0.0009126116
511 0.0008445089 0.0015267344 0.0022616656 -4.6895526e-05 -0.0022981616 -0.001392481 0.00164554 -0.0017802446 -0.0012329959 0.0008813121 -0.00298927 -0.0038644366 0.0017533033 -0.0023963957 -0.0002658715 -0.0003131434 -0.0036503598 -0.0031343077 -0.0033946203 0.0034002156 0.0032448648 -0.00033942243 -0.0014216704 0.003709315 0.0027210363 -0.0020982716 -0.0026207166 0.0006777385 -0.00044946556 0.0023491427 0.0015667457 0.00034266623 -0.0018203523 0.0029067423 0.00088072434 -0.0018653664 -0.0030961647 0.0021533496 0.00027731727 0.003163454 0.0008369979 0.00032165673 -0.0008876333 -0.0032483968 -0.0031919917 0.0025363779 -0.0022391232 0.00060910004 -0.0038427738 0.0006498232 -0.003804151 -0.0011141502 -0.0031290387 -0.0015269856 0.0014708876 -0.0009403408 0.0013716973 0.00056007475 -0.0027772626 0.0016191474 -0.002577733 -0.003246076 -0.0021387138 -0.0004764837 0.0010379836 0.0035566438 0.0019599386 -0.0010804624 -0.0035480869 -0.003565297 -0.003715363 0.0005847833 -0.0004992561 -0.00012257986 0.0030475743 -0.0031227034 0.0035830983 -0.0009106625 6.642261e-05 0.002947906 0.0012495418 0.00033243277 0.0036036416 -0.0010306932 -0.00079589296 -0.0026308252 0.0022662885 0.0029626684 -0.0023487734 -0.0016033031 0.00072072115 0.0025294146 0.002537104 -0.0019155937 -0.0007281469 -0.0037103991 0.003462569 -0.0038722248 -0.0018990219 0.0009508198 0.0037255958 -0.0021663373 0.003510142 -0.00018920102 -0.0010318583 0.00091711344 -0.0014467307 0.0023600357 0.0034589064 0.0016086719 0.0026737854 -0.0019345091 0.0030489175 -0.00077232206 -0.0015944038 0.00029804645 0.0020510298 0.002838056 0.0018939839 -0.0036360286 -0.0032499137 -0.002328342 0.0020378924 -0.0013309921 -0.0032757455 0.0006682507 0.00030151405 0.00072580285
783 0.0019324677 0.0038733985 -0.00094179873 -0.0032050505 -0.00077502296 0.0012280762 -0.0035512184 -0.0001842795 0.0012408837 -0.00040760514 -0.00031516096 0.0014500882 -0.0036507184 0.000648931 -0.0010254779 0.00015419273 0.0006257551 -0.002506819 0.0029746725 0.0002815418 0.0036341755 0.0021321941 0.00026729776 0.0022108657 0.0009937163 -0.00048142133 -0.0026179699 0.0001589605 0.0029920728 -0.002392925 0.0033570703 0.00028088503 -0.0026854132 0.002439417 0.00052997237 0.0038804268 -0.002729354 -0.001072216 -0.0020165858 0.0015754169 0.0025088396 -0.0010093033 -0.0016301351 0.0009249001 0.0027529022 -0.001510941 -0.0030712266 -0.00072857225 0.00037969204 0.0027885218 0.00028887764 -0.0024988782 0.0015069889 -0.0010863111 0.00182845 -0.0028040323 -0.0023099727 0.0029270218 0.0008466894 0.0023324974 -0.0005747769 -0.0016647883 4.3297066e-05 0.00038627014 0.0030639276 -0.00014758056 -0.0016719758 0.0020603319 -0.0036645515 0.0005963677 0.0015579967 -0.0032903235 0.0016726949 -0.0026902775 -0.0032971331 -0.0014314956 -0.003154847 -0.0007480762 -0.0015873639 -0.001041316 -0.002955009 -0.0019401433 0.0009026854 0.0004169667 0.0013257104 0.00072454975 0.0017468198 -0.0010742302 -0.0023677645 0.0001579119 -0.00039244327 -0.0022249392 -0.0027897258 0.0020427557 0.0027883411 -0.00262184 0.0003699154 0.002357385 0.0025283177 -0.0024926413 0.0031143764 0.0034872415 0.000674526 0.0027925572 0.003883648 -0.0032586558 0.00077790587 0.0030259248 0.003791647 -0.0022700182 -0.0031534475 0.0036726536 0.00040026204 0.00018259576 -0.0023119012 -0.0026150031 -0.0014645967 -0.0011122357 0.00010929199 -1.7738392e-05 -0.0036641695 -0.00076581055 0.0025438361 -0.0030472311 0.0015739481 -0.002361084 0.0003995814 0.0012828592
2165 9.3313465e-05 0.003140673 -0.0017133643 0.0038913689 -0.003465512 0.0012230073 -0.0026159876 0.0020851844 0.0015123894 0.0033829655 0.0035410032 -0.000873586 0.0030953514 0.0037621919 0.002100997 -0.0012607491 0.0034231893 0.0006444519 -0.00046671118 0.00040348124 0.003412275 0.0024240816 -0.0007060958 -0.00095816114 0.0006459647 0.0025955988 -0.0029169729 0.0025550472 -0.0022023236 -0.0028915799 -0.002461842 0.0007014188 0.0006914835 0.0019185919 0.0011815776 0.0012827397 1.030523e-05 0.0005606862 -0.0015808444 -0.0017785794 -0.0015906916 -0.0009736192 -0.0022379227 0.001600429 0.00084837386 -0.0032698258 -0.00069302646 -0.003681622 -0.0005725632 -0.0024317969 0.0036062996 0.0020995152 -0.00258968 -0.0032443702 -0.0018915605 0.0028984116 -0.0020442356 -0.0031243244 -0.0007547592 -0.003534927 -0.002385854 0.001303642 0.0005004077 0.00071216427 0.0013295636 -0.0031226084 0.00084284105 0.00072656083 0.0021420636 -0.0013656409 -0.0034685547 -0.0032610353 -0.0008040239 -0.0038064676 0.0008740139 0.001652505 -0.0016185916 0.0028454193 5.7550922e-05 0.0026940603 -0.0016954015 0.0025370298 -0.00061244494 0.003230085 0.0028306574 0.0004107554 -0.002624133 -0.0002490906 -0.0015363834 0.003547677 0.0020827702 0.00012342408 -0.0008176853 -0.0027397778 0.00038539176 -0.0035307878 0.0029265427 0.0017961683 -0.0023446186 0.0038553062 0.0024376276 -0.0017795621 -0.003701696 0.00033818753 -0.0017886248 0.00048506857 -0.00032777752 0.003539184 0.003308348 0.0018254595 0.0026065581 0.0037673933 0.0030185995 -0.0008920523 0.0024569235 0.002474604 0.0026452774 -0.003601872 -0.0021665578 0.0017756011 -0.0035130216 -0.002254005 0.0010549361 -0.0017694386 0.002352299 -0.0022470222 0.003375974 0.001657607
1814 -2.0169073e-05 0.0009361279 0.002433622 -0.0037963532 0.00030271884 -0.002849075 0.0018200671 -0.0024487856 -0.0022115079 0.0020435825 -0.0019667794 -0.0024332711 -0.003789363 -0.0030532505 0.0012414814 -0.0009860033 0.0006051116 -0.0008445641 5.929887e-05 -0.0019228002 0.003329137 -0.002775894 0.0030356133 -0.0017131761 0.0015133362 -0.001550513 -0.0008483845 0.0010521039 0.0005397034 -0.0014342741 -0.00022539047 0.00010911548 -0.0014149547 -0.0034795413 -0.0011637522 0.00089180295 0.0037932978 -0.0009847421 0.0023796002 -0.0005746696 0.0036520301 0.0012345397 -0.00045179843 0.0037667006 -0.0011898413 0.0013589981 -0.0038679573 0.0033289485 -0.003877788 -0.0017976129 0.0024430007 0.001697193 -0.0025036146 -0.0032721555 -0.0017669743 -0.00011436265 0.001371279 -0.0012138276 -0.0013131408 -0.0017366676 -0.002225955 0.0016001203 -0.0037315402 -0.0006268781 0.0039040428 -0.0010638804 -0.0030650476 0.0014186053 -0.0017708669 -0.0025075297 0.0030919318 0.0019290732 -0.0010771821 0.0021987648 0.003065678 -0.0013960438 0.00077301456 -0.0035713941 -0.0026127608 0.0011847579 -0.0025351916 -0.0037759456 -0.0007362281 -0.001215898 0.0026966874 -0.0025826795 -0.0034403217 0.002300614 0.0020385033 -8.399878e-05 -0.0031405797 0.0038687626 0.0012260415 -0.0029052722 0.0006427767 0.0030510793 0.000330058 -0.0013369388 -0.0028656998 -0.002173282 -0.003692165 0.00046499274 -0.0032820746 0.0022210747 0.0013992755 -0.002831414 -0.0037688268 0.0008575212 0.001000136 0.0011479594 0.0015064535 -0.0013676703 -0.0030496845 -0.0035061184 0.003271531 0.0021624693 0.0013980836 0.00093240367 0.0019274727 -0.0029884123 0.0025455167 0.00023687322 0.0003613209 -0.0029023115 -0.0028427034 0.0007814422 -0.003886685 -0.001533592
237 -0.0024736 -0.0032830222 0.0027412537 -0.0035995916 0.0013492499 -0.00375809 0.0038439434 -0.0015561841 -0.0013130934 -0.00090706634 0.0038837562 0.0038237295 -0.003135625 0.0029800213 -0.0036126515 0.002774694 -0.003468609 0.003861947 -0.00075519976 0.0013255555 0.0021378668 0.0017166019 0.003102501 -0.0005999169 -0.001999029 0.00067203573 0.0026685032 0.0028771097 0.0032442242 0.0034289507 0.002836073 0.0036701553 -0.0037047968 0.000629901 0.0034473857 -0.0024594036 -4.4220906e-05 0.003075894 0.0001771636 0.002125615 -0.0005337496 -0.002720181 -0.0020480957 -0.0018859042 0.00023145779 -0.002546258 -0.0015484535 -0.0016528665 0.00061696296 -0.0031130204 0.0014490635 0.002692263 0.0022932992 0.0032412119 -0.0019842004 0.0007322756 -0.0015876599 -0.0036098892 0.000758683 -0.003520633 0.00050011324 0.0018391937 -0.003597532 -0.0037618882 0.0004738694 -0.003140315 0.0031970663 0.0036897177 -0.0035919065 -0.00090230367 -0.0012530623 0.002283746 -0.0018679763 0.0033455838 -0.0014606353 0.0018549305 0.0021779067 0.00070702925 0.0015364734 0.001898904 -0.003112825 -0.002884102 8.803827e-05 -0.0005475429 -0.001118936 -0.0023375105 -0.0031272299 -8.7624256e-05 -0.0018621538 0.0012695467 0.002655432 -0.0035015792 -0.0021167751 -0.0011332014 0.0030207695 -0.0030024918 0.0004052984 0.0026030012 0.00020864041 0.0033710063 0.00060437835 -0.0016493248 0.00017138229 0.0013031824 0.00041528378 0.0008689972 0.0019672103 -0.0007867926 0.0034501322 -0.001272874 0.00094965566 -0.0029337837 -0.002475006 0.0023201865 0.0031665005 0.0027123 -0.0029934119 0.00013951058 0.0009083933 -0.0030534018 -0.0018028719 -0.002930758 0.00059364305 0.0011861988 -0.0015351082 0.00020746035 0.00069726404 0.0016894042
501 0.0029306554 -0.0020936972 0.00084593316 -0.0034814943 0.0009910078 0.0018365957 -0.0036975858 0.0017825869 0.00156689 0.0022678592 0.0028294874 -0.0024218024 0.0007486487 -0.00372266 -0.0009987614 0.002739598 -0.00041526745 -0.0013892327 0.0038794712 0.0031110258 0.0024552338 -0.0012550757 -0.0016467042 -0.0033667027 0.0023080495 -0.00040747563 0.0029260847 0.001510034 -0.0030976217 1.47751e-05 -0.002737199 0.00031294732 0.0017469715 -0.0032494573 0.00076223264 0.003024039 -0.0019736283 0.0037939965 -0.003609821 -0.00017292662 -0.0018396466 0.0032953157 -0.0018544565 -0.0009928038 0.0036490113 -0.0014949173 -0.0006842226 0.003383405 -0.0018251209 -0.0034186896 -0.00015682183 -0.0029691535 0.0027396197 0.0033185289 0.00268402 0.0033027094 -0.0006638696 -0.0005323191 0.0010581195 0.00010668171 -0.0010649038 -0.0026742893 0.0012025655 0.0027548785 -0.0037754166 0.0014837917 -0.00022381223 0.0038310708 -0.0010572483 -0.00057272747 0.0029906507 -0.0017278718 -0.0005717789 0.0019828745 -0.003277691 0.0020060018 -0.0034131946 -0.0035757518 -0.0031744249 0.0024895137 0.0027207262 0.003786161 -0.0006440467 -0.0017292774 0.0023153885 0.0017511499 -0.00016011286 0.0018862013 -0.0019160324 0.0009632805 -0.0032910446 -0.0005901426 0.003627705 -0.0033530574 -0.002955927 0.0009794406 -0.00082329917 0.00015772063 0.002391483 0.00037414077 -0.0022442618 0.0034729978 0.0038037507 -0.0018869067 -0.0018331596 0.0034349894 -0.0009720302 0.002099516 0.0023803767 0.0017972171 -0.0030023812 -0.0019806563 0.0008079596 -0.0008617758 -8.300904e-05 0.0014814781 0.0005849217 -0.0025315245 -0.002794014 0.0020027547 0.0013928125 0.0022780648 0.0012835519 -0.00041294386 -0.0004198165 0.0031099755 -0.0015543622 -0.0038439888
918 -0.00079786015 0.0032009052 0.001686288 -0.0027681317 -0.00082021643 0.003265455 0.0018497295 0.0016591467 -0.0030897865 -0.0006095798 0.0011503532 0.0011201532 -0.0020904762 -0.0005101012 -0.0028219898 0.0021329303 -0.0010775656 0.00025977197 -0.0011384151 -0.0014999394 0.0036785568 0.00023814515 -0.0024130847 -0.0026238463 -0.0034413536 -0.001145094 -0.0016509262 -0.0011302573 0.0032893813 -0.0023623807 -0.00077937765 -0.0012170185 0.0026892978 -0.0030258324 -0.0038005665 5.1409064e-05 0.0017474265 -0.0023443548 -0.0035890157 0.0037927227 -0.0016120403 0.0035111785 0.002854411 -0.0032031953 -0.0038555157 0.0018102305 -0.0023227185 0.002499065 0.0022602081 -0.0018137242 -0.0036765651 -0.00064273056 0.002719097 -0.0036122731 0.00075292966 -0.0006597951 -0.003414695 0.0006655298 -0.0013311713 0.002333666 -0.0024183139 -0.0020851013 -0.0025737588 -0.0033922596 -0.0017672435 -0.002168963 0.0037486367 0.0016412355 0.0017527365 0.0014001352 0.000826147 -7.0386154e-06 0.0011179385 0.0025661283 -0.0029093828 -0.002658539 -0.0009363927 0.0015345946 0.0032128368 0.0027315111 -0.0029603094 0.002856372 0.00036399078 0.0025359637 -0.00053580024 0.0022683823 -0.0036595813 -0.0023316883 -0.00010467291 0.0016916363 0.0019000189 0.002097648 0.001394368 0.0015946717 -0.0012879649 -0.0018686666 0.0035844655 0.002544325 -0.0036808345 -0.0025634237 0.0030195008 0.0011796715 0.0019112884 -0.0004071576 0.0023046967 -0.0004133877 0.0037505107 0.00047363565 0.0024169362 -0.0006365691 0.00018606998 -0.0013389498 -7.869863e-05 0.0035431704 0.0022508642 0.001138185 -0.002283139 0.0030699968 -0.0018807008 0.0032522494 0.0020836643 0.0010066045 -0.0027417676 -0.003311068 0.0014952706 -0.0006573265 0.0006850609 0.0011928204
1561 -0.0030170388 -0.0035112526 0.0004514248 0.0038074213 -0.0025668344 0.0026816926 -0.0030975456 0.0009615939 -0.0026035157 -0.0027384968 0.0022668543 5.0068447e-05 0.0010658168 0.0014094856 0.0034319593 -0.0017824832 0.003553889 -0.00031727983 0.0020359603 0.003148291 0.0014615712 -0.00036112682 0.00096184877 0.00083313347 -0.002461967 0.002492548 -0.0025720503 0.0021277384 -0.0026106837 0.0033838428 -0.0037205187 -0.0029690603 -0.00026611733 -0.0027335375 0.0013986116 -0.0024801337 0.0009841219 0.00017118613 0.0007706899 -0.000655004 0.001156502 0.001939867 0.0029246046 0.0009455728 -0.002722883 -0.0037574463 0.0020516159 0.00017186838 0.0016496719 0.002304805 -0.0033615236 -0.0027360953 1.352986e-05 -0.0021760638 -0.0031808796 0.003639542 -0.0024463162 0.0006338585 0.00083707017 0.0037911567 0.00294977 -0.0032070512 0.002403429 0.00064883445 -0.0028850436 0.0003326992 0.0038358567 0.00097357255 0.0025569168 0.0032164918 0.0023486435 -0.003243425 0.0015165986 0.00066576415 -0.002532241 0.0021777404 -0.00093631295 -0.0025457046 0.003387601 -0.001217157 0.0024423078 -0.0013316085 -0.0016203006 0.0031342378 -0.0034652608 0.00050801394 -0.0036274355 -0.0014810931 0.002324326 0.0032666537 -0.0015173189 0.0017898224 0.0013515239 -0.0019398794 0.003157784 0.0022998084 0.0031967731 -0.0018373603 -0.0016702749 0.0009136683 -0.0019022541 0.001453716 0.000395671 -0.003681505 -0.0007529997 0.0028228853 -0.001319537 0.0027928199 0.00026184786 0.0020856296 -0.0029354566 -0.00054219924 -0.00035432423 -0.0017625188 1.934163e-05 -0.0015673329 -0.0010808635 -0.0036659623 -0.00027357758 -0.0017875894 -0.003257882 0.0025589606 0.00040789353 -0.00096860767 -0.0010895631 -0.003861153 -0.0023965496 0.0010876212
2121 -0.0030749019 -0.001974502 0.0037326172 -0.0038621754 -0.0010251232 -0.003222509 3.136325e-05 0.0027088253 -0.0026761387 0.002281788 -0.0024460126 -0.00094020343 0.002239763 0.002517606 0.00284249 -0.0014835382 -0.000334555 0.0005687953 0.002292863 2.2887214e-05 -0.0025675918 -0.0010220218 -0.0007558586 -0.0019018675 0.00083723094 0.0013414345 -0.0007016956 -0.0036798397 0.0025733912 0.0007507326 -0.003564258 -0.0023563316 -0.00069924735 0.0003807364 -0.0038760882 0.001525428 0.0033875755 -0.0022832812 -0.0037656703 0.0023160772 -0.0023843825 0.0012663703 -0.002250726 -3.335981e-06 0.00047258986 -0.0009301172 -0.0029099514 0.0008717438 0.0032935208 0.0018587749 -0.0035302371 0.0014963407 0.0020482417 0.003875549 0.002795565 0.0010818414 0.00013034289 -0.0006953139 0.0026258593 0.0012963495 -0.0032856427 -0.0014967337 -0.0022876803 0.001441887 -0.00010168539 -0.0017705029 0.0018946121 -0.0032836015 -0.0015706955 0.0008603963 -0.002794998 0.0018853747 0.00198799 -0.00304942 0.0018793066 -0.002757829 0.0029091889 0.0037684932 0.002820043 0.0020126891 -0.0026927935 0.0021690358 0.0032611007 -0.0025714894 0.003442801 -0.0004718119 -0.0023450954 0.0030618152 0.00079608057 0.0037731891 -0.002705645 0.0008731737 0.0026386383 0.0011320141 0.0034270429 0.0038934748 -0.0009976269 0.0032333967 0.0028975257 -0.0024156005 0.0019108264 -0.0017612308 0.002820967 -0.00028042422 -0.0031735369 -0.002243687 0.00238846 -0.0038052076 0.00096233754 0.0022592815 0.0013709492 -0.0038185453 0.0014255196 -0.0017640378 0.0017280064 -0.0035623182 -0.002379355 0.0023090679 -0.0009316957 -0.0038892669 0.001645714 -0.000248176 -7.79426e-06 0.002188853 0.0016520566 0.0022716525 -0.0024425492 0.002679154
2154 -0.0017044338 -0.0015300842 0.00084947457 -0.002373504 0.0025358314 -0.0010675882 -0.0025973103 0.0022235753 -0.002203662 0.0018933923 0.00014027626 -0.0035947247 -0.0033435614 2.7764394e-05 0.00024022006 -0.00022744818 -0.0022760024 -0.0021670857 -0.0026279 0.0032553799 -0.003372087 0.0022284372 0.0024319133 -0.002092127 -0.0015091571 -0.0030379975 0.003364447 0.0024000187 0.0020003614 0.002289052 -0.00018604963 -0.0011030873 -0.00079201336 0.0035352923 -0.002412692 0.003373009 0.0034353847 -0.0024781302 -0.0009870308 -0.0018738381 -0.0007623297 0.00012106627 0.00011136579 0.0021494278 0.0037228395 0.0009766504 0.00068560115 -0.00017314074 -7.338562e-05 -0.0025727 -0.0014160915 -0.0021645078 -0.0025414736 -0.0019968553 6.723233e-05 -0.00070141844 0.0022877606 -0.0026752453 -0.0034564452 0.0021946076 0.0034836747 -0.0012903414 -0.0014571339 0.003599925 -0.003155374 0.0038502282 -0.0029805838 -0.0009631211 0.0020752205 0.0008247948 0.003288178 -0.003093326 -0.0021476166 -0.003321859 -0.0008419267 -0.000838057 -0.00074241124 0.0005383098 0.0037001267 -0.0020084116 -0.0018229273 0.00092067866 0.002177908 0.0019388953 -0.0030625216 -0.0029664421 -0.0038118763 -0.0023929968 -0.0014973643 -0.0034581965 -0.0011988013 0.0033019895 -0.0021477612 0.0016574487 0.0025934798 -0.0035440193 -0.003113148 0.0030186393 -0.000321972 -0.0031085499 -1.1094314e-05 0.0012922249 0.0036017485 0.0013352847 -0.003449744 -0.00091300363 -8.0497884e-05 -0.0009950183 -0.0028079783 -0.0013450653 0.0009808392 -0.002007774 -0.0010124778 0.00063295715 0.0031714912 0.0026840668 -0.0018340872 -0.0016755969 0.0012104644 0.00037211832 -0.0032847358 -4.6253375e-05 0.0030026145 0.00013637953 -0.0024634334 0.0019874987 -0.0010574403 -0.0025718268
90 0.0022650666 -0.0005083835 -0.0025565887 -0.00053727656 -0.001757604 0.002815642 0.0035010758 -0.0008754415 -0.0007421902 -0.0015502257 -0.0017461757 0.002135531 0.0030659542 -0.0010820978 -0.0036298186 -0.0034573674 -0.0030010303 0.0008946976 -7.4487536e-05 0.003088943 0.000944307 0.0024585028 -3.3198943e-05 0.003755724 0.0018691936 -0.0035980179 0.0028442903 -0.0026399922 0.0009979921 0.002390367 0.0014157003 -0.000116487354 -0.0021087702 0.0035877726 -0.0010151737 0.003651419 -0.0032641338 -0.003596212 0.0004005781 0.001999642 -0.0020174114 0.0010902716 0.0012340707 -0.0035672563 0.0029980664 0.0022680166 0.0035079636 0.0031483956 0.0030184702 -0.00028378738 -0.0014339008 -0.0013059503 -0.002706615 0.0030267336 -0.0038571102 0.0003985342 0.003011158 0.0037668187 0.0024797854 0.0032770142 -0.00021417387 -0.00019557666 -0.0011248699 0.002502836 0.0013616272 0.00042166992 -0.00041305745 -0.00037964544 0.0026157002 -0.0004643592 0.0030225657 -0.0002840475 0.00029188328 0.00034524786 0.00047048347 0.0008524585 -0.00015963416 0.0036469386 -0.0025091642 0.0003596499 -0.002504303 0.00053187844 0.0023333624 0.00079721 0.000750585 -0.0018782208 0.0011737958 -0.002771713 -0.0017686773 0.0005007519 0.0027278676 -0.00026210444 0.0012956476 -0.0030885984 -0.0015305436 -0.0028614912 -0.00011644559 0.00046797597 -0.0017857137 0.0002724001 0.0037544956 -0.0037774341 -0.0014975079 -0.0033165966 -0.0031250443 -0.00023750465 0.0013975321 -0.0026960876 0.0025418147 0.0025491184 -0.0029389055 -0.002764057 -0.0038690476 -0.0032266218 -0.001820666 -0.0021062363 -0.0014394312 0.002378006 0.0023664255 0.0033833792 0.0026842542 -0.0003889027 0.0025835168 -0.0014636234 -0.00013602068 -0.0018791218 -0.0019632778 -0.0037909483
1402 0.001747382 -0.0036224567 0.0027940045 0.0036324277 -0.0003913677 0.0032365632 -0.002816666 -0.0007424487 0.0013125992 -0.0010212554 0.0033619297 -0.0031800822 -0.003315578 0.00022389991 -0.0038921407 0.00064010225 -0.0014447002 0.0013338323 -0.00062807684 -0.001414238 0.0003663307 -0.002436406 0.0013257711 0.0023188267 0.0019445983 -0.0021840688 0.0035279975 -0.0029401006 0.0028350526 -0.003287624 -0.0016565248 0.001459289 -0.002663557 -0.0026456292 0.0031887733 -0.0016226064 0.0023033123 -0.0016243868 0.003191794 0.0016856545 -0.0018403945 0.0026331632 -0.0001782847 -0.0005899337 0.0031078623 0.0011573405 0.0034110276 0.0027022772 0.002907327 -0.0038284827 -0.00045792072 0.0009900883 -0.002624732 -0.003723729 0.0021437705 -0.0016586458 -0.002670734 -0.00072778616 9.2464295e-05 0.0026832463 0.0023527527 -0.00203028 -0.0038854382 -0.002958358 0.0035507055 0.0029760865 -0.00017671051 -0.00037786464 0.003666471 -0.0010217322 0.003035296 -0.0037160916 -0.0015594817 -0.0026191052 0.0013210482 -0.001885574 0.0024957724 -0.0007505271 -0.0025539151 -0.0015879791 0.0031070807 -0.000599868 0.0013209366 0.0021507232 0.0016736073 0.0023945374 0.0023836629 0.0019070371 -0.002442568 0.0012102897 0.0037861986 -0.0030823199 -0.0027440342 0.0034421964 -0.00067895604 -0.0033390303 0.00063614943 -0.0013015751 0.00084785215 0.0034036755 -0.003732507 0.00202067 -0.001228512 0.0005698724 -0.0011468581 -0.000708469 -0.00046746075 -0.0011700254 0.0036979262 0.0020248052 -0.0013605928 -5.0637213e-05 -0.002296163 0.0032119455 0.0025602607 0.0038530612 0.0027513055 -0.0024857027 -0.0028243659 0.0016704368 0.0022371623 0.0007755086 0.0028931359 -0.0026821923 0.0020788468 -0.002465068 0.0036343678 -0.0037674764
238 -0.0028253556 -0.0015688506 -0.0015412355 -3.4188215e-05 -0.0007605039 0.0012975467 0.0037277448 -0.0023336094 0.002948743 -0.0015347943 -0.0012991207 0.0021583147 0.0032717024 -0.0011113189 0.00022212073 0.0028748447 0.0035906485 0.0013362182 0.0019371785 -0.0033359057 -0.000295259 0.0011529381 -0.0022013604 -0.0014293548 -0.0011843338 0.0010058515 -0.002546913 -0.0017016532 -0.0037186441 -0.003065405 0.0033215624 0.0023834112 0.00094196206 -0.0010697366 -0.00036695786 0.0037697747 -0.0014782713 0.0028526667 -0.0014201101 -0.0015805037 -0.0003696519 -0.0013540367 0.0022299283 0.0023961621 0.0021918889 0.0034909626 -0.0012921264 -0.0021241147 0.0017928084 0.0021640167 -0.0012973839 0.0029108434 0.0010401763 0.0028921673 0.0025446871 0.0038750737 0.0014804573 -0.0017190088 -0.0013641529 0.0011362421 -0.0032543018 -0.0033358366 0.0036697078 -0.000110727575 -6.524965e-05 -0.0010613605 0.0026434963 0.002270733 -0.0028705169 -0.0030817937 0.0006582771 -0.0035733937 -0.0014551042 -0.0032141176 0.0024732791 0.00038228653 0.0024345878 -0.0030721736 -0.002939927 -0.002855127 0.00047903083 -0.0027508265 -0.0015606125 -0.0034841641 -0.0037194616 -0.0014940391 -6.964473e-05 -0.0008683624 0.0028914856 -0.0008941261 0.0001240191 0.0026298794 -0.0015666472 0.00097191863 -0.002443375 0.00079604995 0.0006161628 0.0019970266 0.0015984547 -0.00016100184 0.003864979 0.0022188812 -0.0031165502 -0.0034632334 0.001774112 -0.00014854607 -0.0018836977 0.000722226 0.002100734 -0.0019817953 0.0028012139 -0.00076339516 -0.0014212459 0.003187589 -0.0023544766 -0.003337221 0.003257445 0.0030137498 -0.0035198522 -0.0006086761 0.0022298212 0.0011630465 -0.0030487354 -0.0030856356 0.002584621 -0.003713201 -0.0019164961 0.0026852617
626 -0.0017890185 -0.0012399697 0.002364471 0.0035312017 0.0032567403 -0.0035498838 -0.00076527474 0.00043800074 -0.0028312658 -0.0003566349 0.0010673911 -0.0014967516 0.0021245892 -0.0021688202 0.0013883865 -0.0015272041 -0.0022403433 -0.0036403432 -0.00079858385 0.0016281753 -0.00060742145 -0.0030555993 -0.001237156 -0.0013756471 -0.0028327096 -0.0007825307 -0.0027047212 -0.00105004 0.0002499615 0.0015582382 -0.002251333 -0.0035869551 0.00087696296 0.003567415 -0.001360763 0.0012134165 0.0020454023 0.0035471173 0.0030376671 -0.0019067895 -0.00088988675 -0.0020596466 -0.0008686053 0.0026401393 0.002783546 -0.0035185085 -0.002202857 -0.0029633662 0.001706019 0.0019187442 0.0020639985 0.0032516308 0.0034694117 -0.0017805048 0.003496368 -0.0026788097 0.000805233 -0.0007379962 0.002156639 -0.0014961427 -0.003235616 0.0031416048 -0.002643518 0.0037748823 0.0012426345 0.0030368872 -0.0035570608 0.00294801 -0.00013167763 -0.0022831107 0.0021509854 0.0012812075 0.0036293173 0.0033938775 -0.00222332 0.0006455102 0.0026051211 -0.002535817 0.00061337155 0.0022786288 0.0026339446 -0.0038056874 -0.0008879781 -0.0020886946 -0.00011799092 -0.00051166327 0.00057165895 -0.0029147326 7.0406495e-05 0.00075465476 0.0033538623 -0.0019767152 -0.0017696602 -0.0031778747 0.0010446556 0.0030402292 -0.0030867716 -0.0037651628 -0.0015900838 -0.0025550518 -0.0035299878 -0.000924399 0.0015036706 -0.0013758547 0.0011237074 0.002181632 0.0019026464 -0.0009455652 -0.0032698142 0.000759225 -0.0030175468 -0.00081797154 -0.0019814386 0.0020736097 -0.0027620555 0.0020531341 -0.0033904572 -0.002112038 0.003179631 -0.0027878336 -0.0038703682 -0.0017603235 0.0025497274 -0.0031539765 0.0019856095 0.003305695 0.002822387 -0.0021614889
1299 -0.0025183551 -0.0020580967 -0.0005782353 0.0015631412 0.0009407064 -0.0030798167 -0.0026599185 -0.0027801704 0.0024442703 -0.002942003 -0.0023699526 -0.0015165544 -0.0020714959 -0.0010905062 0.002024771 0.0030697617 0.0019845336 -0.001605929 0.0006004912 0.00023608908 -0.0035029138 -0.0022375546 0.00038195847 -0.0022918156 -0.0016783173 -0.0013849055 -0.0005128092 -0.0029058014 -0.0011695359 -0.0025611985 -0.0013178337 -0.0036869226 -0.0037715049 0.002936209 0.00067684054 0.0015580074 0.0024432598 0.00045001478 -0.0014708487 0.0032278763 0.0015677835 0.002612336 -0.00044379156 -0.0020622483 0.0008856536 -0.0029241147 0.0017628946 -0.0011345523 0.0010267715 -0.00016248951 -0.0024013445 -0.0008228156 -0.003565252 -0.0027257013 0.00025477193 -0.0017750274 -0.0015252926 0.0015170691 -0.00012543508 -0.0023189376 0.002733102 -0.0024377771 0.003452322 -0.0029604656 0.0006006156 -0.0019920147 -0.0001454279 0.0021985737 -0.0006115316 -0.00031687535 -0.0007626829 -0.0007122642 0.00030017507 0.0012404218 0.0022150523 0.00017583712 -0.0007634576 0.0034337693 -0.0026684199 -0.0012924065 0.0031412803 -0.0025175337 0.0024513034 -0.002008474 -0.0018540323 -0.0011671764 -0.0019249793 0.0015673976 -0.0038879025 0.0023622795 -0.0001386141 -0.0011221338 -0.0009830139 0.0007827845 0.0020340679 -0.0020163425 0.002684941 -0.0025509296 -0.002451346 -5.7478243e-05 -0.002244353 0.0035711988 -0.0034930487 -0.0007033602 -0.0016192128 -0.0029315029 0.00023911524 -0.0012080275 0.00389472 -0.003219526 0.0023892699 0.002542296 -0.0023805106 0.0015269759 0.0034007162 -0.0027017605 -0.0010916722 0.002418855 -0.0018728429 -0.003767944 -0.0030314878 0.0013187809 -0.003568792 0.0032670756 -1.9596464e-05 0.0025834402 0.0019203019 0.0011283486
2216 0.001982628 0.00252642 -0.0027131997 -0.0026460711 -0.0028179355 -0.0029657509 0.0019276147 -0.0017018643 0.0031032774 -0.0007179651 0.0031291486 0.0038977598 0.0014967251 -0.00010384244 0.0030987214 0.001270256 -0.00057903427 -0.00021470609 0.0013511203 9.9605044e-05 -0.0030366771 0.0037225394 0.003163091 0.00060257706 -7.527358e-05 -0.0025365243 0.0011716048 0.0027542696 -0.0018484943 0.0029356729 -0.00023735956 -0.0002789389 0.0038667447 0.0006009266 -0.0012506989 -0.0014152727 0.0016657221 -0.0024387294 0.0010897088 -0.0021959133 0.0005646253 0.001877184 0.0017747936 0.0008495813 -0.0019813413 -0.00168749 0.0013483083 0.0004155632 -0.0014414603 0.0012451443 0.0024751117 -0.0020635114 0.0018254669 -0.0032973257 -0.0032744945 -0.0029452494 -0.0022945402 -0.003487193 -0.002620957 7.9148514e-05 8.3823434e-05 -9.568184e-05 -0.0017128874 0.0022206753 0.0038703834 0.00032144968 -0.0028461977 0.0037681428 0.003454575 -0.0032287724 0.003228389 0.0015036523 0.00046634124 -0.00017716429 0.002960703 0.0034541674 -0.0020813155 -0.0007514521 0.0006826981 0.0033750855 -0.0028673634 0.00077711244 -0.0038019826 0.0030361325 0.00017473249 0.0034212363 0.0020696854 -0.0038479578 -0.0029408925 0.0032719788 0.0025978312 -0.00230461 0.0018876976 0.00010800221 -0.0031669745 -0.0013117079 -0.0033814653 0.0033761046 -0.0020309116 -0.001987492 -0.0032918132 0.0038142013 0.0006682156 -0.0012193519 -0.0017695777 0.0025200588 -0.0007323134 0.0035771837 0.002012781 0.0007499701 0.0010664307 0.0016997234 0.0028053306 0.0022174674 -0.0015987017 0.002304055 0.0030656483 -0.0009585849 0.002130968 -0.0032875247 -0.0003886456 -0.00057429494 -0.000360202 0.0009681392 0.0012786585 -0.0014806656 -0.0031791504 0.0025340794
1765 -0.0024889084 0.0006657445 0.00016531006 0.0012236773 -0.003078236 -0.0013456049 0.0034650129 -0.0003293331 0.0023246466 0.001623618 -0.00063402444 -0.0020147215 0.0013816921 0.0014290836 0.0025467575 0.0023056702 0.002542902 0.0032770445 -0.0037057989 0.0024369773 -0.0014666055 0.0017490062 -0.0018088231 -0.003132058 -0.0024843065 0.0039042998 -0.0035841952 -0.0013872135 -0.001388828 0.0037829014 -0.002007796 0.0006772053 0.0031745462 0.003743514 0.003324023 -0.00022779086 -0.00059192965 -0.00013281249 0.0020098318 -0.003427741 0.0026726543 0.0011181918 0.0033753633 -0.0019377642 -0.0038371421 0.003872907 0.0039055261 0.0025533766 -0.0016585564 -0.0026963537 -0.0013897674 -0.0016005075 -0.0034133326 0.0025755686 -0.0030376825 -0.0018050268 0.0020122076 0.0037299718 0.002949075 -0.00046949822 -0.0027805604 -0.002474526 -0.0030007097 -0.0020560054 0.0029017134 -0.0016491535 0.0022866367 0.0026025916 -0.00033654136 -0.0010849595 0.0021461064 0.0015043693 0.0021036293 0.0016463046 0.0011839189 -0.00031567892 -0.00043184907 -0.0010954903 0.0032950705 0.0014419295 -0.0017979457 -0.0018379679 0.00023806875 0.002844861 -0.00059463305 0.0011802774 -0.00018442613 -0.0004585946 -0.0020773145 -0.002279908 -0.0002720558 0.0037851736 -0.0009295092 0.0015602218 0.00020324673 -0.0032732878 0.00060620805 -0.0028283934 0.0018121353 0.0038809706 -0.0014803498 0.00040206965 0.0033333756 0.0010115941 -0.0037435507 0.0014397242 -0.002399006 -0.0031847246 -0.00080413936 0.0031904625 -0.003892295 0.00066653604 0.0034547222 0.003897083 -0.0021810257 0.0028335366 -0.0036111777 0.0037812933 -0.0016564362 0.0032726808 0.0031034003 0.0013938388 -0.00024199235 0.00091854215 0.00052351813 -0.003772556 -0.0018167078 -0.0010079755
1049 -0.00042687482 -0.0010923102 -0.00010998464 1.2210309e-05 0.00061626435 -0.0003142959 -0.0028863784 -0.002021721 -0.0026071512 0.003216763 0.0027879179 0.003163686 0.0012570628 -0.0008158193 -0.0032917028 0.0036799756 0.0006715204 -9.310271e-05 0.003174277 -0.0007550834 -0.0011211691 0.002184866 0.0031719177 -0.00014473144 0.0025454839 -0.0017189088 -0.0010590501 -0.0031646774 0.0029767833 0.0023657668 0.00064794446 0.0022545902 -0.003634471 0.00022805484 0.0010495002 -0.003116614 0.003162185 -0.003115565 0.0008622312 0.0031889747 -0.002093465 0.0031146638 0.0015960868 -0.0014188822 -0.0020751655 -0.0020202782 -0.0017368625 -0.0003896168 0.0011303771 -0.002007657 -0.0022646606 0.0037468865 -0.0020579132 -0.0014018168 -0.001779918 0.0015013602 0.0021490592 -1.9506215e-06 0.0018272855 -0.002817362 -0.0010720764 0.00015100604 0.0017272293 -0.00069794327 -0.0028342505 -0.00043369207 -0.0005188613 -0.0016883654 -0.0006607707 -0.0033888388 0.0037007963 -0.0025767218 -0.00048462956 -0.0020952986 9.662783e-05 0.0029111288 0.003265239 0.0022108133 0.0018828041 -0.00096245215 0.0030524267 0.002574162 0.00097157666 -0.0036014789 0.0022603583 -0.0024970667 0.00010101802 -0.0017782558 -0.0016918168 0.0030152032 0.0013194733 0.0033044205 0.0016280145 0.002700806 0.00076903787 -0.003827465 -0.0036771984 0.0037686445 0.0004830454 0.00036931792 0.00010565543 0.0010344771 0.0019367662 -0.0022532837 -0.00052115024 -0.0028359273 -0.0014994404 -0.00025081873 -0.0029781978 -0.0005821739 0.0023789678 -0.0024453462 0.0012956288 -0.00078333775 -0.0026423591 -0.0018950801 0.0009987756 -0.0020122435 -0.0014968838 -0.0028629592 -0.0036381055 0.003356357 -0.0038066762 0.003233569 0.000881329 0.0016146913 -0.0011188412 -0.00369665
1251 -0.00038226056 -0.0002989729 -0.00030047176 -0.0023955095 0.001333523 -0.0020511986 0.0006394673 0.002607071 0.002998753 -0.0029503237 0.0010605912 -0.0029508548 -0.0037381775 -0.0013903402 -5.9162845e-05 -0.0034095945 -0.0013976623 0.0029194457 -0.0038267924 0.0015190986 0.0009246579 0.0017074689 -0.0030222107 0.0014870134 0.0009758052 -0.0006112388 -0.00034012017 -0.00053542736 0.0032857268 0.001055727 0.0015851441 -0.00073949195 0.003612435 0.0012085229 -0.0036900123 0.0013504203 -0.0021684414 -0.0037679193 -0.0021891624 0.0016598768 -0.00070608774 0.0011482937 -0.0030963623 -0.00017652898 0.0028283794 0.0030001907 -0.0016060512 0.0011932324 -0.001648805 0.0028114056 0.0038947917 0.0030123808 0.0005880582 0.000929901 0.0034354639 0.0033983062 0.0026468728 0.0028055103 -0.0022805026 -0.002941592 -0.0006942634 -0.000683671 0.00032476502 0.003832295 0.0011898609 -0.002564415 -0.0009654944 0.0032628994 0.0037589897 0.0026099114 -0.0012053567 -0.0010666855 0.0014038746 -0.000862232 0.0011031727 0.0002602368 0.0036102843 0.0022416522 0.0034930874 0.0030799953 -0.002605509 0.0038154826 -0.00022553564 -0.0019438934 -0.0026418734 -0.001577776 0.0025932048 0.0021401197 0.0017342253 -0.0022440827 0.0019222822 0.0013458069 -0.002787773 9.766312e-05 0.0021253321 0.003845443 0.0015794539 -0.001485027 -0.000955253 -0.0037759775 0.0007264703 -0.0014289798 0.0015950581 -0.003596823 -0.002936907 -0.002468237 -0.0014713323 -0.0014059499 0.00026609376 0.003846022 0.00025951795 0.0018743417 -0.0019021129 -0.0022984503 0.0038239777 -0.0031535823 6.573332e-05 0.0003955338 -0.0030362825 -0.0017606535 0.003306443 0.0021975501 0.0020917577 -0.0025974377 0.00092554296 0.0020033466 0.0011726428 0.00047182303
841 -0.0013053552 0.0004082101 -3.038593e-05 -0.00019359637 0.0034740989 0.0023282426 0.0024081043 0.0035177208 -0.0015246896 -0.0028071532 -0.0019373653 -0.00372859 -0.0015772448 -0.00040048978 -0.00014255942 -0.0031865195 0.0014785299 -0.0016760918 -0.0024084388 -0.0009226925 -0.002953403 -0.0011177626 0.003836117 -0.002196146 0.0010103621 0.00022908165 -0.0031612332 6.112336e-05 0.003728787 0.0011132263 -0.00357469 0.0010482133 0.0028943329 0.0035943375 0.00014642837 0.00057185 0.0014072891 -0.0026520116 -0.00039177062 -0.00024441598 0.0010834511 0.0033154471 -0.0032790483 -0.0034381317 0.0025897694 0.0033248907 0.0022207552 -0.00019070851 -0.0031146677 0.0037620477 0.0022200693 0.0037907362 0.003169078 4.2856485e-05 -0.0022709563 0.0019794644 0.0015030837 0.0027495374 -0.0008914969 0.0038211315 -0.0010707219 -0.001150431 0.003646154 -0.002236592 -0.0022873348 0.003287529 0.00070720346 -0.0022522055 0.0005861863 -0.0037482143 -0.0004339843 -0.00052537606 0.002558143 0.00056075014 0.0032209044 0.0027176877 -0.0013629908 -0.0006824495 0.00014487171 0.00095630833 -0.0025210828 -0.0010340044 -0.0015534337 0.0029379455 -0.000747211 0.0029757728 0.0010087091 0.0029128746 -0.0008501031 0.002461681 -0.0006937434 -0.0025813503 -0.0018733116 -0.0026671216 -0.003056407 -0.0025019015 -0.002480101 0.0017477758 -0.0016314774 0.0020743052 0.0014151138 0.003273304 -0.0018486967 0.0029570968 0.0029910838 0.00084583997 -0.0018074989 0.00033086742 0.0015187184 -0.0035065715 0.0010636726 0.0011729951 -0.0035067354 -0.0008261448 0.0014280031 0.000606373 -0.0038532827 -0.000673735 -0.003508067 -0.0013204756 0.0025767265 0.002150279 0.002232887 -0.0034310718 0.0032564758 -0.0024878243 -0.00036132743 0.00056227174
969 -0.0029506404 0.0014756141 0.0038120532 -0.0026486106 0.0007389529 8.33942e-05 -0.0018868374 0.0017675464 -0.0034205015 0.0027514833 -0.0031793746 0.0036269166 0.0031667473 0.00027130058 0.003454088 0.0023989507 -0.0020396265 -0.0015371495 -0.0037065558 -0.0025876856 -0.0032270914 -0.0021219125 0.002983404 -0.0026768243 0.0036954507 -0.002099819 -0.0029195375 0.00070334703 0.0026872358 0.0023777608 0.0003225548 -0.0008351215 -0.003576884 -0.0035671354 -0.0022124085 0.00039052672 0.00059628725 -0.00050141366 -0.00105601 -0.0029245708 0.00016551222 -0.0010711002 -6.224733e-05 -0.0031243912 -0.00043674113 -0.0011812609 0.00020019544 0.0029243748 0.0032077627 -0.001650844 0.0020581663 0.0018472683 0.0033097842 -0.0037275874 0.0020844967 0.002132729 -0.003688975 0.0011013213 0.0025705153 0.00021065875 -0.0017065073 0.003121704 -0.0023381456 -0.0038005698 -0.0034322669 -0.0033951495 0.0005875649 0.002508724 -0.0020566604 0.00036032073 -0.00235352 -0.0020256091 0.003672211 -0.0037105626 -0.0015924283 -0.0002657901 5.933501e-05 0.000545112 0.0018037438 -0.0032017094 0.0012926265 -0.0015967682 -0.0025835894 -0.0017556221 0.0016659312 -0.0011833758 0.00052648416 -0.0020140794 -0.0025043515 0.0029149747 0.0002907697 -0.0022706497 0.00036548974 0.0037011178 0.0011562563 -0.0011870122 0.003619284 -0.0022895122 -0.00117998 0.0015479332 -9.802977e-05 0.0020392057 0.0021823968 -0.00012634853 0.0026922943 0.0023734972 -0.00017531849 -0.0012452496 0.002109438 -0.0034646862 -0.003690825 -0.0018602645 -0.00023685268 0.00014346771 -0.0028937263 -0.00029091013 -0.00019781615 -0.00030550867 -0.002436569 0.0004288349 -0.0021864262 -0.0036899326 -0.002327264 -0.0016776907 0.003625203 0.0034291018 -0.0022437826 0.0014139308
332 0.002112987 0.00032190589 0.0032610449 -0.0016564204 -0.0003743051 -0.0035238257 -0.0031501907 -0.0028348116 -0.0024824103 -0.00078720885 -0.002455434 -0.0035735464 0.00083733693 0.00049222866 -0.0010766488 0.0006580305 -0.0036736296 0.0013462786 -0.0026757757 -0.0005323034 -0.0019247795 0.0015395412 0.0021855822 -0.000398876 0.0020815514 -0.00087314646 -0.00077881414 -0.001674244 0.002648776 0.0017986282 0.0032128242 0.0014166842 -0.00041860386 0.0015490766 -0.0011804864 -0.0035301058 0.0010616288 0.00054599595 -0.00083016546 -0.0038231127 -0.002898955 0.0019302622 0.0018519674 0.0006928993 -0.0024704835 3.117232e-05 0.0038324443 0.0016700869 0.00046412493 0.0023925654 -0.0022872675 -0.0025130366 0.0026065987 -0.0003096273 -0.002766133 0.00040888644 -0.0031580243 0.0005817247 -0.0016661423 -6.984144e-05 0.0009960181 0.0016478222 -0.0036413786 0.0028504382 -0.0015754693 -3.9518283e-05 0.0008673746 0.00080717524 0.00272121 -0.0033021918 -0.0009245928 0.0032086135 -0.001371392 0.0013914113 0.0032031345 -0.002916497 0.0019009245 -0.000774591 -0.0012348767 0.00018248832 0.00174031 -0.0011951663 -0.0032894274 0.0024645578 -0.002131359 0.002574367 -0.0009487897 0.0019889348 0.00045755907 0.0008423913 -0.001860581 0.00019818395 0.0036083506 -0.0021771248 0.002990699 -0.0015339814 -0.0021376163 -0.0038600904 -0.0023326264 0.003626115 -0.0006236922 0.000334488 -0.0024234385 0.0021430526 0.003037486 0.0020467436 0.0022822567 -0.0013324118 0.0028626658 0.0026776087 -0.00013412451 0.0032356235 0.0035390735 0.0012533033 0.0018087401 0.0029875138 0.0027693573 0.00035476315 -0.00346618 0.0017399675 -0.0018967115 -0.003311779 0.0013190546 0.001602701 0.003529134 -0.0037635616 0.0014613735 -0.0022682454
1514 -0.0035435923 -0.00028346016 -0.0012799265 -0.0037699172 0.0004220335 0.00048352714 0.0033232106 1.7170478e-05 -0.0034828973 -0.0021208008 0.0019284184 0.0011309766 -0.0006090154 0.0017132476 -0.0023654806 0.0018949674 0.0022644312 -0.0033619835 0.0010362321 6.7838824e-05 0.0037778325 0.0032475728 -0.0004597547 0.00067511457 -0.002429594 0.0025286565 0.00029861022 0.0028466384 0.00150681 0.0014799526 0.0013463427 -0.003651146 0.0022360794 0.0023062222 0.002107372 0.0016550273 0.00028416738 0.0015915167 0.0034714155 -0.00157544 0.0029534367 -0.00034390017 0.002111112 0.0027413145 -0.0031376684 -0.00049597706 -0.0012097722 0.0018946232 0.003051732 0.0031512782 0.0016689617 0.0030202563 -0.003212294 -0.0031132149 -0.0022023118 -0.0017349665 0.0035882643 0.0027095217 -0.0016749691 0.0028027336 0.0017107876 0.0013217529 0.002965934 -0.0013530365 -0.0026478323 -0.0031526175 -0.0029669364 -0.0005761751 0.0033624182 -0.00035838116 -0.0029515505 0.0025427556 -0.002760154 0.0007834306 -0.0037890128 0.003523878 0.0019126615 0.0019362007 0.0030988436 0.0026813603 -0.0014234844 -0.0024824222 -0.0020421247 0.003533357 -0.0025481016 0.0018682354 0.0037878712 -0.0012046451 -0.0030095803 0.001889261 0.0008649712 0.001605402 0.0028877237 0.0033225468 0.0013068169 0.0033854037 0.002358215 -0.0014604001 -0.0011620738 -0.0019946964 0.0026580272 -0.0033282067 0.003153914 -0.002364674 0.00072714075 -0.00017363764 0.0033174723 -0.0015816636 0.0010019212 -0.0022376701 -0.00091995037 0.0012107335 0.0016792159 -0.0034936843 0.00022713948 -0.0033448453 -2.5529327e-05 0.0007738005 0.0012139761 0.0013809104 0.0031660944 0.0014126883 -2.5101755e-05 -0.003531477 -0.003498095 0.0036385953 -0.002147624 0.0028657299
1538 -0.002116738 -0.00067675667 0.00081548153 0.0032138058 -0.0024426365 0.0021510911 -0.001247509 -0.0006157404 -0.0015473812 -0.0009284601 -0.0017799189 0.0022787384 0.0014186957 -0.003602764 -9.213887e-05 0.003797822 0.003498416 0.0017786858 -0.0038438481 0.00045712607 -0.002965015 0.0023597933 -0.0014497491 0.0005230764 -0.002447943 0.0024554357 0.003832491 0.0024663722 -0.0008732135 -0.0012148507 0.0021108333 0.0024953962 -0.0032336635 -0.0014788773 -0.0013649999 -0.0021690384 -0.0029314214 -0.0004191225 -0.0028344481 0.0010086182 0.002288353 -0.0031086777 -0.0025683697 0.00024114778 -0.0022965579 9.2787435e-05 -0.00063678826 -0.000189895 -0.0021439954 0.0037676848 0.00021717571 0.0033230847 0.0023946408 0.00056940917 -0.003415653 -0.0025175458 0.003274854 3.1573185e-05 0.0005251169 -0.0021791884 -0.0028312146 -0.0035815146 0.003087108 -0.0031909724 0.00036495022 -0.00026002605 0.002644487 0.0012091729 0.003157589 -0.0015317559 0.0024664185 -0.0025643252 -0.0031361326 0.0027116255 0.001961886 -0.0009525595 -0.0033226886 0.00032769982 0.002167178 -0.000935635 -0.0032380354 0.00068553514 0.003235703 -0.0018091903 -0.00043353863 -0.003300767 -0.00093144854 0.0007002446 0.0023058974 -0.0034548598 0.00041120604 -0.0035492785 0.0030134618 0.0028758992 -0.003340745 -0.0034078364 -0.002348666 0.0021424054 -0.0032762145 0.0016360718 -0.002909809 -0.0012232095 -0.0027194098 -0.002633715 -0.00040677012 -0.001291368 -0.0010338421 -0.0009967362 -0.00076103304 0.0036432187 -0.0002743384 -0.0001094979 0.0028275847 -0.0028151884 -0.0022620023 0.003599865 0.0029138157 0.003436191 0.0013753898 -0.0035956148 0.0029104743 0.00015389164 -0.0029390831 -0.0032473416 0.00076511473 0.003406076 0.0020064157 -0.0013443521
277 -0.0025324957 -0.0013450729 -0.0035172752 -0.002715357 -0.00091397535 -0.0016072295 -0.003175305 0.0028470024 0.0006022131 0.002315709 0.0032940195 0.0038325002 0.00012281169 0.0003334793 0.0010960308 0.00088066404 -0.0024348695 -0.0010032582 0.0019228694 0.0037724653 0.0026143603 0.001316202 0.00042349944 -0.00027690642 0.0012744715 0.0022619474 -0.00026515964 -0.0019644042 -0.00091474655 0.002101247 -0.00032993517 0.0033115132 0.0021248222 -0.0038953698 0.0010110536 0.00091185025 0.0014585615 0.0005360114 9.853936e-05 -0.00049542333 0.0027480396 0.002962067 0.0027940064 0.0020128847 0.003843785 -0.0026636848 0.0018836815 0.0037520893 -0.0002621032 0.0024871412 -0.002089545 -0.0036902365 0.0001196245 -0.001277213 -0.00017139972 0.0021462522 0.0006208415 0.00017527654 0.003483682 0.00045636087 -0.0011559692 0.0016452101 -0.00012582945 0.0037924992 0.0008965562 0.0018963538 0.001108814 0.0028256776 0.0035023747 -0.0013566398 0.0033388375 0.0014705247 0.0031296706 0.0035203353 -0.0016681675 0.00043214136 -0.0011091158 0.0014102701 -0.0038587472 -0.0025042535 0.0007262869 -0.001877364 -0.002068377 -0.0011521094 0.0025897766 -0.0028098794 0.0014708756 0.0012832778 0.0020533125 -0.0007469695 -0.0021560737 -0.0023453524 -0.003200111 0.0037114709 -0.0031338707 0.0035393806 -0.0017827657 -0.0021453851 -0.002815206 0.00020794991 0.0015872805 -0.001157455 0.0035635997 0.0022171473 0.0036049194 -0.00032636162 -0.00063571177 -0.0015286981 0.0037869648 -0.0018658233 0.002693564 0.002186577 -0.0036533172 0.003373391 -0.0010858999 -0.0020432908 0.0034110367 -0.0004207113 -0.0019367088 -0.0016476943 0.0029902267 -0.0001578759 0.0009141069 0.0017227803 0.002003869 0.0013210537 -0.0015565067 -0.00088394247
378 0.0024569633 -0.0017662761 -0.0037278284 -0.0023433876 -0.00073706394 -0.0027167029 -0.003183258 0.0030166535 0.0023346115 0.00086957176 -0.0011083786 0.0013748815 -0.0025555522 0.0018846535 -0.0007521497 -0.0020756014 -0.000995485 0.0027979757 0.0025556828 -0.003681348 -0.00016627554 -0.0010981355 0.0025696042 0.0027957817 0.00048143216 0.0003369906 0.0017848253 0.003419278 9.424893e-05 -0.0034581039 0.0032394007 0.0010433266 0.0010279858 0.001278363 0.0015431751 -0.003651613 0.0027952932 0.003491094 -1.592522e-05 -0.0027745767 -0.0028250867 0.0011302652 0.00065355323 -0.0034316597 0.0019456614 -0.0022810332 -0.0017697124 -0.0013860845 0.003130265 0.0036646498 0.0015265573 0.0038373093 -0.0013882924 -0.0006423217 0.001100239 0.0038949044 0.0012349271 0.00088768115 -0.00040908062 -0.002205847 0.0017174999 0.0016034067 0.001953216 0.0022631488 0.000959076 -0.0033809333 -0.0013511496 0.0005641726 -0.0018674356 -0.0011616622 -0.0014578353 -0.0021921254 -0.0016947663 -0.0030865641 0.0020094456 0.0010445906 -0.0034383952 0.0020410547 -0.0003561641 -0.0038000322 4.7514528e-05 -0.0021518623 -0.002135856 -0.0007164164 -0.003272539 -0.002823112 0.0029001178 -0.0029779738 -0.001281067 0.0014507017 -0.002635605 0.0029036575 -0.0022364715 0.0005441869 -0.0034688541 0.002554668 -0.0013262067 0.0026483943 -0.003713307 -0.0023343388 0.0024230473 0.002098183 0.0027555437 -0.00036826445 0.0033126806 0.0024065243 0.0010025967 -0.0023745229 -0.0011206088 0.0023783424 0.00011616041 -0.00080958294 0.0007580325 0.00050351524 -0.0020222345 0.0026753233 -0.0006420559 0.0002574475 -0.0014638195 0.0013485345 -0.0007790196 0.0024756638 -0.0011021729 -0.0014690106 -0.003710767 9.2664755e-05 -0.00012823808 0.0023444223
1486 0.0006220652 0.0014055268 0.00065413414 0.00225931 0.0016046804 0.003599485 0.0036448273 0.00082309666 0.0034618678 0.001200633 0.0014899664 -0.0021924418 -0.0031358553 -0.0009230851 -0.0026618396 -0.001327319 0.0018114974 0.0026738988 -0.0032348786 -0.0024197323 -0.0016098502 -0.0016748391 0.0025539547 0.0025150026 0.0031967096 -0.0023358504 -0.0038113191 0.00010332141 -0.003302636 0.002218212 0.0014857225 0.0009963288 0.0035321917 -0.0006759763 0.00089281757 0.0016824721 0.0030409175 -0.0017689768 0.003108435 0.0034211015 -0.0029427512 0.0006765385 -0.0031795816 -0.003535343 0.0038869595 0.0032129006 -0.0013969638 0.0007167333 -8.249672e-05 -0.0006972139 -0.001147215 0.00035436166 0.0016829905 -0.0036713073 0.00054609095 0.0038164735 -0.001112398 -0.0024583577 -0.0038640033 0.0010957541 0.0033742692 0.0018850325 -0.0033323208 0.00062569045 -0.0011686462 -0.00043098387 0.00012227807 -0.0014718819 0.0016118711 0.00048040508 0.0008741872 -0.0035857572 -0.0009098357 -0.0013436371 -0.0026698664 0.0037911527 -0.00012652442 0.0005133691 -0.0019389385 0.0034710146 0.0006170952 -0.00029009234 -0.0013757125 -0.0014409377 0.0011839016 -0.0031273738 0.0012746272 0.0032770627 0.0010070407 -0.0006400514 -0.0037574489 0.0036478725 -0.001206141 0.0023651004 0.00032141764 -0.0022822022 0.0031076137 -0.0029444108 0.001808415 -0.0037955046 0.00030717807 8.9342035e-07 0.0026468965 -0.0036551512 -0.000997213 -0.00034534174 0.0029292947 -0.0017408233 -0.0014478833 -0.0023445564 0.0009080649 0.0031546229 0.0031552336 0.0024351026 0.0029248397 0.0033221461 -0.0014638886 0.0034208228 -0.0022428494 -0.0037485664 -0.0011938293 -0.00029787925 -0.0012933282 -0.0024337159 0.0006676235 0.0036997919 -0.0023228568 -0.0034565323
72 0.0027878364 0.0033278028 0.0009892294 -0.0035636344 0.0024772964 0.0003412179 -0.0029443216 0.000115902294 0.001157599 0.0023665251 -0.0036295722 0.0028973476 0.000103456 -0.0035891226 0.0006573826 -0.0009559876 -0.0031480936 0.0018328336 -0.00044858566 -0.0029481328 -0.0034422595 -0.00094282767 -0.0010093933 0.0029997649 -0.00081578677 2.8600281e-05 -0.003062629 -0.0010482518 0.0012355938 0.0018891336 -0.0035059662 -0.00023093284 -0.003390143 -0.0030745536 -0.00047166436 -0.0037394033 0.0004051777 0.0031001638 -0.0019841434 0.0017753657 -0.0017058081 0.0001680437 0.0034962462 0.0029306663 0.001294235 -0.0031364542 -0.002630464 0.0037815087 0.00012271623 -0.0021068205 -0.0031078632 -0.0011393151 8.9980334e-05 0.0011638307 -0.0002023278 -0.0014631185 0.0030687652 -0.002137219 0.00019559127 -0.0013909887 -0.0026536486 -0.0010519719 0.0038377394 -0.0035247977 0.0032407711 0.0019315467 -0.00075047516 -0.0022594612 -0.0034975116 -0.0032887054 -0.0008791077 0.001489558 0.0016354802 0.0013587223 -0.0018340164 0.003043509 -0.00287914 -0.0037343963 0.0023396416 0.00022728236 0.0008061325 0.001740183 0.003703135 -0.002873146 0.0016507882 0.0009885019 -0.0016005365 -0.0034669298 -0.0019957412 5.3907395e-05 0.0030767797 -0.003492097 -0.00097289064 0.0016958972 -0.0015539774 0.0030411398 0.0029182574 -0.0007564817 -0.001849282 0.0003345 -0.0012817286 -0.0008069305 -0.0016768515 0.0024225528 -0.00080548367 0.0001553367 -0.0022437838 0.0032910318 -0.00028525636 -0.0021296055 -0.002558377 0.0002437714 -0.0015729353 -0.002830458 0.0036741295 -0.0019927728 -0.0028680759 0.0020031517 -0.0035839127 -0.0011443371 0.0023133408 -0.00040842412 0.0020498843 -0.003319604 5.1052552e-06 -0.0005757755 0.0005312632 -0.0028585424
1744 9.3262075e-05 -0.0020386816 -0.0009588176 0.0029704901 -0.0037748865 0.0007473397 0.0017142388 -0.0012117566 -0.00063167996 -0.0016995838 -0.0026118043 -0.0019682634 -0.0036496148 -0.0020102835 0.0022364778 0.00053695566 0.0037999637 0.0023933332 0.0036136436 -0.0014774564 -0.0019163406 0.0029288402 0.0028628665 0.0008683532 -0.00074858667 -0.0035619163 0.0017267611 0.002912053 0.0035201688 0.0019512633 -0.0035696533 7.543954e-05 0.00013979721 -0.0007595507 0.0028355103 0.0038051927 0.00083216804 0.003165883 0.0006591116 0.002962998 -0.0034422474 0.001307068 0.0016798475 0.0012750523 -0.0033605548 -0.0017238843 -0.0019305007 0.0015484062 -0.0037500304 -0.0019670995 0.0014458774 -0.0033160897 -0.0031595111 0.0015623096 0.0016134022 0.0032032873 -0.0010337188 -0.0028145968 -0.0033216756 -0.0016108863 0.0015531731 0.0006550771 0.0022833769 -0.0011104663 -0.0033299588 -0.0035327487 -0.0029059383 0.0027643193 -0.0022492043 0.00021417558 -0.0029027935 -0.00040190268 -0.0015723391 0.0029945273 0.0026619134 -0.0004737045 -0.0028083606 0.0029805473 0.0034951693 0.0031853907 0.002506212 0.0006070995 -0.0027772973 -0.0027378665 -0.002333536 -0.0033890342 0.0011894736 0.0033326882 0.0029544323 -0.00029584317 -0.0028053208 -0.0009490889 0.00043047164 0.00032954878 -0.0006210227 0.00057910546 -0.003829453 -0.0006600088 0.0009358872 -0.0023843814 0.00068960956 -0.0033036831 0.0028059222 0.0024883007 -0.0023386443 0.0006959155 -0.0017187628 -0.0022578966 -0.0034019777 -0.0015504393 -0.0025574414 -0.0017115762 0.0024164335 0.002714115 0.0012569106 0.0011127975 0.0006647753 0.0035520254 2.4774232e-05 -0.0026434893 0.0014400204 0.0027242857 0.0036430042 0.0035643964 0.002369923 2.0667081e-05 0.0010208349 -0.0007124356
1198 0.0015344704 -0.001703275 0.0022197885 -0.0037579357 0.0026395863 0.00011910414 -0.00015124562 -0.0035423054 0.0018152779 -0.0036327795 0.0037807482 0.0028875053 0.00015173938 0.0036534544 4.0685773e-05 0.00028117164 -0.0031210475 0.00044183654 0.002521362 0.0027226282 -0.00094994414 -0.0015433523 -0.003283273 0.0037895213 0.00042208418 -0.00026636192 0.0002559621 0.0026220412 0.00057945494 -0.0017708577 -0.0026568614 0.0036560607 -0.0009675301 0.0035695261 -0.0037702953 -0.0032146494 0.0020264045 -0.0019094301 0.0030214377 0.0002903008 0.0013427323 0.0013620616 0.0036370533 0.00021741111 0.0011732577 0.0004435183 2.5819698e-05 -0.0026965411 0.0037413074 -0.0009090366 0.0029889988 -0.001508882 0.001774945 0.0034515634 0.00015522182 0.00016810537 -0.0016135704 0.003649924 0.00060212426 0.0030900831 0.0001049768 -0.0023256836 -0.0029723248 -0.0013703424 -0.0022984205 -0.0013117531 -0.00044157408 0.0016654363 -0.0026637113 -0.0017366456 -0.0037317025 0.002457086 -0.0018885018 -0.0005517344 -0.0010236315 0.0025740035 -0.0034361496 -0.0012941811 0.00072248647 0.0037460232 0.003578072 -0.0028725106 -0.0033470758 -0.0017772837 0.0014205716 -0.0025713148 -0.0023255823 0.0025743532 0.0023849553 0.0013205342 -0.002114613 0.0006843633 -0.0012495675 -0.002498827 0.0010546893 -0.00023229462 -0.0032241265 -0.0014543378 0.003442018 0.0019506712 0.0012440375 -0.0014278474 -0.000991215 0.002845251 0.0038036313 0.000927573 -0.0005074933 0.0023726348 0.000582039 0.00073455315 0.0036730287 -0.0006906622 0.00054588896 0.0013315532 -0.0021586216 0.003528764 0.0018806494 0.00027075587 -0.0036552823 0.0016383089 0.0027838093 0.0026588894 -0.0030897853 0.0022248277 -0.0027061424 0.0026979414 0.002655035 -0.00070129154
483 -0.0010941854 0.00033765932 0.0012751104 -0.002279831 0.00056379713 -0.00044870353 0.0033599879 -0.002527627 -0.0016703283 -0.003015431 0.000954756 -0.0026164947 0.0013106995 0.003286157 -0.0018977226 0.0011202281 0.0033087672 -0.0014059261 -0.0031298825 0.0012319759 0.0010578957 -0.0034652096 0.0022114024 -0.00044656516 -0.0026888072 -0.00026918628 0.00056462636 0.0021714095 0.003654325 0.00033723237 0.0012460811 -0.000947144 -0.001112315 0.00014253256 0.00046741404 0.00023720071 0.00055914756 -0.0012872812 0.00034614647 0.00082505157 0.00021491725 -0.0024647661 -0.00016776328 -0.0010661682 2.3170995e-05 0.0010352042 0.00086124707 -0.0010742267 0.0027250545 -0.0013916201 -0.0006192366 0.0021099003 0.00083133415 -0.0011799274 0.0021521612 0.00024160837 -0.0003063876 -0.0028528278 -0.00024051798 0.0036738254 -0.0004987869 -0.001759003 -0.0008592828 0.0024762931 -0.002140419 0.0029006687 0.0038659938 0.00031778298 -0.0022214216 -0.0015060348 0.0015338704 0.001565085 0.00012382498 0.0033197107 -0.0021290914 -0.0032000504 0.0034174633 0.001984433 0.0026095088 -0.003642495 -0.0027479948 -0.00082763843 0.0020810217 -0.0036179505 -0.0032531202 -0.00015941492 0.0011912831 0.0022309162 -0.0010096779 -0.00030349422 -0.0038672541 0.0010013267 0.0038689005 0.00034035376 -0.0017036733 -0.00050607894 0.00019399685 0.0019471236 0.0034325582 -0.0018703209 -0.0028092007 0.0026513895 0.001534898 -7.1681796e-05 0.002817306 -0.0007616613 0.001961354 0.0022885168 0.0019990075 0.00091630337 -0.0002035049 0.0038781224 -0.00017381937 -0.0016500868 0.0023354124 -0.0030473853 0.0026900782 0.00052584655 -0.0010123849 -0.0038326941 -0.0013064573 0.0035594658 -0.0025056375 -0.0015042551 -0.00055917486 -7.495727e-05 -0.00018418695 -0.0014847531
1912 0.0021469756 0.0029992682 0.0012249099 -0.00039220875 0.0013272829 0.00028824975 0.0014325515 -0.00064902566 -0.002568903 0.0022698906 0.0009718279 0.00091389887 0.0021360707 0.0023994932 -0.0023000056 0.0025659755 0.0030113675 0.00201948 0.0020713317 -0.0013447372 -0.0016081969 -0.00075000303 -0.0022340196 -0.0034467173 -0.0006149286 0.003892528 0.0014701445 0.0030538111 -0.0012370105 -0.003319783 -0.0024241672 -0.0007038459 -0.0034592436 0.002675828 -0.0010385523 0.000749747 -0.0011437369 0.0010520975 0.0023748456 -0.0019562466 -4.974393e-05 0.0011708124 0.0038894408 0.0019469078 0.0038293519 -0.0007222169 -0.0016293366 0.00049593794 0.00079954875 -0.0027934625 0.001215621 -0.0024729087 0.0034474768 0.0024801902 -0.0038399217 -0.0005993485 -0.0034922624 0.0017051256 0.0015368162 0.0012610409 0.0030347419 -0.0032853591 0.003354671 0.0004267288 -0.002632289 0.003889022 0.0034794628 0.0012374305 -0.0024143101 0.0023439752 -0.001152483 -0.0027791145 -0.0038332117 0.0022273154 0.0010062411 -0.002640735 0.0010599965 -0.0037040678 -0.0036088298 0.0038015773 0.0026773612 -0.000119177836 -0.0033105463 0.002508427 -0.0013774543 -0.0007649316 -0.0030610983 0.0012551261 0.002674264 -0.000218701 0.0027264492 0.0022623022 0.003137636 0.003079201 0.0026459317 3.2405675e-05 -0.0035038309 0.0014421837 -0.0010591097 0.0007636831 0.0014114671 -0.0009325868 -0.0012455895 -0.0012898049 0.0038590804 0.0025866088 0.00188113 -0.0010373992 -0.0016012357 -0.0005409639 -0.0003095503 0.0007318754 0.0017323107 0.0016051386 -8.641957e-06 0.0018163996 0.0008292533 -0.0025410845 -0.0032922735 -0.001014066 -0.0021275224 0.0026441806 0.0007167626 -0.00225501 0.0031916536 -0.000868639 -0.0023689233 0.0017424325
1570 0.0019854736 -0.0016854841 -0.0025394226 -0.0028337624 0.0035912318 0.0013745264 0.0014076323 0.0036063164 3.286134e-05 -0.0007420413 0.0014004722 0.0032812397 -0.0016874962 -0.0013957075 0.0014958418 -3.3297254e-06 0.0018166272 0.002738343 -0.0027433974 -0.0038971996 0.0019806847 -0.002961409 0.0020902527 0.0038938553 -0.0009125746 0.001041536 -0.003004983 -0.0023098348 0.0019494713 -0.00064520753 -0.0014520448 0.002054108 -0.0034147769 0.0019770835 0.0032409972 -0.003856196 -0.003052485 -0.0016422513 0.003062761 0.002317094 -0.0009879561 -0.0034443073 0.00039636073 -0.0023325137 0.0036352437 -0.0034695172 -0.00369579 0.0021595235 0.0013923619 -0.0005212417 0.0016777967 0.0027014373 -0.0035294385 -0.002304845 0.0014951122 -0.0021574108 -0.0030117002 0.00023604627 0.003753223 -0.0003129369 -0.00029121156 -0.0017438116 -0.000106100255 -0.0029505654 0.0026693565 -0.0012026953 -8.159519e-05 -0.0037805757 -0.0020347857 0.00073203805 0.0024710512 0.00015924453 -0.002774231 -0.0036319261 0.0026970252 -0.0014553586 -0.0030434618 -0.00014954552 -0.001849173 0.0034655605 6.7512356e-06 0.0020320017 -0.0012891564 0.001126824 0.0022259057 -0.00081692496 0.001378683 -0.0035075643 0.00060642586 0.00017304196 0.0014330137 -9.569216e-05 0.0016934357 -0.0036474147 -0.0027265423 0.002500134 -0.0004304333 -0.0018382851 -0.0021927636 -0.0037777266 0.0006597657 -6.667429e-05 0.0023346061 -0.001045018 0.00170287 -0.00089509675 0.003418477 0.0019916655 0.0031431196 -0.0018089903 -0.0026005341 -0.0015744923 -0.0027319253 -0.0037850644 0.00054232543 0.0007421032 0.0026125265 0.002120348 -0.002421512 0.0027230112 0.0005229826 0.0017974214 -0.0006598063 -0.003217328 0.0007588518 0.0029567156 -0.002012601 -0.0017039854
2103 0.003691209 -0.0022556426 0.0023662352 -0.002308611 0.00063590106 -0.002753528 -0.0012149549 -0.0029363467 0.0031405494 0.0029000558 -0.0023288196 -0.0026905742 0.0032187672 -0.003661445 0.0033381942 0.0017274708 0.003200618 0.003321922 0.00057993334 -0.0009005355 -0.00019920795 0.0022326158 -0.0013422022 0.0024216368 0.0015031225 0.0007756065 -0.0015131288 -0.0005813157 0.003349373 0.003643414 0.0015335656 0.0009999858 0.00052555377 -0.00061522605 0.0018788093 -5.541053e-05 0.0030768737 -0.0015414429 -0.0025269736 0.0010435223 -9.500406e-05 -0.0029255506 -0.0004888902 -7.631429e-05 0.0025122073 -0.00014576603 -0.0011871338 -0.0014853269 0.0014692828 0.0031675214 -0.0006374376 0.0012123248 0.00063184527 0.002915528 -0.002913907 0.0028896478 -0.0033323816 -0.003330968 -0.0004912693 -0.0012785619 -0.0035052067 0.0005862755 -0.001104452 0.00068736647 -0.002963128 0.0029809882 0.0034051007 -0.0032420927 -0.003472309 -0.002401181 0.0037415961 -0.0011089728 -0.00039630584 -0.0038690018 0.0026844493 0.0030938776 -0.0018215472 -0.0028669094 -0.0028005363 0.0032172494 -0.002422237 -0.0012778292 0.00028194053 0.002656184 0.00014250855 1.537599e-05 -0.0027808622 -0.0024488727 0.0019494443 -0.00066354626 -0.00085454993 -0.0026314885 -0.00040375208 0.00091392064 -0.0017584983 0.0013837112 0.0003680321 -0.0008060538 -0.0030924683 -0.0026043947 -0.0018364516 -0.0024351468 0.0025157295 0.0030984606 -0.0034192326 0.00065285794 -0.0038965098 0.003028857 0.0011280149 0.0038623733 0.0018514078 -0.0022463938 0.0022669923 0.0023128798 -0.0033887776 0.0016740503 0.002051066 -0.0026899523 0.0021719874 0.00019942518 -0.0038575062 -0.00054050353 -0.00285546 -0.001988601 -0.0019278161 -0.0022204642 -0.0017836151 -0.0034922387
2155 0.00017140471 0.00045251325 0.0006717621 0.003810908 0.0012857297 4.1442585e-05 0.002224999 -0.001996758 0.0011702748 0.002625758 -0.00070173695 0.001145718 -0.0011299977 -4.2130952e-05 0.0037624962 0.003019372 -0.001216422 -0.001668366 0.0031837646 -0.00018504677 0.00063483196 0.0031222138 -0.0010527399 -0.00083869544 -0.00044738033 -0.00041578308 0.0010922311 -0.00245086 -0.0015831384 -0.0035094502 0.0016497476 -0.0011051897 0.0022640005 0.0029649236 -0.001685741 -0.0012791448 0.0008120222 0.0029775265 -0.0032798136 -0.001477485 -0.00091272866 -0.00034752293 -0.0036243857 -0.00037929972 0.0023116432 0.0019320822 0.0017729003 -0.0025237456 -0.0032407423 0.002872405 0.0012665757 -0.002208445 -0.0018936096 -0.0021788804 -0.002508897 0.0034310813 -8.527342e-05 0.0034441373 0.0018029527 -0.0026462693 -0.0007597348 2.949561e-05 0.0029475836 0.0017239354 0.0033557594 0.002359713 -0.000421464 -0.002505198 -0.0036361967 0.0015875665 0.0029770366 -5.9450194e-05 0.0026478611 -0.0021420557 0.0027645372 0.0013193979 0.0006697637 0.00060953543 0.00022591377 0.0005660249 0.003568007 -0.0034378904 -0.002285827 -0.0036513412 -0.0018059878 -0.00023358359 0.003796966 0.0026760134 0.002450387 1.9390498e-06 0.0014035358 -0.0020939442 -0.0021836075 0.00034517088 0.00011481078 -0.0038847453 -0.00310254 5.3043223e-05 -0.00032634177 0.0023718576 0.0014841566 0.0008796072 0.0021336188 -0.0037662305 0.0010533903 0.0027681235 0.0011594859 0.002485861 -0.00028949257 0.0029168834 0.0014508489 0.0032558234 -0.0013656591 -0.0016729145 0.00046553466 3.3017226e-05 -0.00043385377 0.00018815992 0.0029994773 -0.00055270386 0.0014421581 -0.0026776402 0.0017916744 0.0008452472 0.0019310039 0.0023330695 0.0032778727 -0.002970661
2276 0.0011211701 0.0035560252 -0.0015537596 -0.0023064732 -0.0027423522 -0.00010017564 0.002915822 -0.003783845 -0.001859026 -0.0008226723 0.0017443267 -0.0019125502 -0.0007449079 -0.0022399276 3.0586045e-05 0.0014028704 0.0030897628 0.0036322796 -0.0021114994 -0.0036240714 0.0034198922 6.895183e-05 0.00048797554 -0.0025353627 0.001382162 -0.002184361 -0.0013124085 -0.0017485133 -0.00033490473 -0.001933896 -0.0035976425 0.0016345255 -0.0024723185 -0.001468704 0.0015570443 -0.002878483 0.0009298022 -0.0025960319 -0.00389675 -0.0020931163 -0.0012533235 -0.0007821977 -0.00088981126 -0.001274345 -0.0022332624 0.0025460215 -6.46147e-05 -0.003599752 0.0018479194 -0.0013011375 -1.0339535e-05 0.0025370838 0.0036805263 -0.003177047 -0.0008336854 0.0035066681 0.003254161 0.0006885961 -0.0011151715 -0.0026821082 -0.002728981 -0.0010874665 -0.0016954928 -0.0031091517 0.0023567628 -0.0036928079 -0.0014065012 -0.0009504757 -0.0024141355 0.002446283 0.0013326755 -0.00031972222 -0.00318124 -0.0019558796 0.00025455016 0.002149082 -0.0011343281 0.0018029121 -0.00086296303 0.0011339644 0.00094033784 -0.0007332179 -0.00039758804 0.001232172 0.0009884337 9.886983e-05 0.00038222058 0.0035642055 -6.9827816e-05 0.0027736106 -0.0036131614 -0.0011300173 -0.0014215547 0.002928594 -0.00096660526 -0.0037184756 -0.0034503893 -0.003806483 0.0018759294 0.0010000264 0.0016489673 0.001403726 -0.0034399838 -0.0031850443 -0.0027932185 -0.003883306 -0.0016126013 0.00347206 0.0027957158 -0.0002254619 0.0009937104 -0.0036173167 0.0008886216 -0.0016876208 4.9989165e-05 -0.00348724 0.0037640613 0.0034274447 0.0013884767 -0.00045983022 0.0023978315 0.0035919494 0.0025799407 0.0021655136 -0.0035281004 0.0007672598 -0.0026739961 0.00061341265
615 -0.002866573 0.0028524913 0.0013672073 -0.002757348 -0.0010242183 -0.0028406093 0.0021219905 0.0010766173 -0.0029421134 -0.0016528121 -0.0011372172 0.0012795888 -0.00013353443 -0.00023397592 -0.0009652049 -0.0022631343 -0.0016924597 0.0016704217 -0.0013020355 0.0031901163 -0.0021961888 0.00223571 0.0035483346 0.0008808672 0.00055120734 -0.0027954122 0.00043064935 -0.0021050258 0.0038562424 -0.0029124578 -0.0038300722 -0.00386467 -0.002310915 -0.0038245667 -0.0018334449 -0.0013142788 0.0010960397 0.00052806165 0.0034565062 0.0012628718 5.5246353e-05 0.000927884 -0.00075778924 -0.003295381 -0.0036337837 -0.0024988726 -0.0021505544 -0.00044321676 -0.00085834955 -0.0028393853 5.4970176e-05 -0.0023827502 -0.00042788565 0.0009312425 0.0027196682 -0.0012873929 0.0009959852 -0.00324327 -0.0010322131 0.0014931145 0.0033646584 -0.00129717 0.0014391418 0.0011905367 0.0026362548 0.0030960855 0.0024724882 0.0021066503 1.7619634e-05 0.0038006953 0.00298655 0.00014056609 -0.0036553908 0.0014795889 0.0002151547 -0.0032520972 0.0036408145 0.0025331746 -0.0031862787 0.0009149049 -0.0037128287 -0.001958944 0.002039719 0.0011551938 -0.0014170257 -0.0032176368 0.0017493635 -0.0026472174 -0.0011313995 0.0014684516 -0.001844369 0.000856803 0.0021238578 0.002828078 0.0013420172 -0.0038962702 0.0036248937 0.0019591942 0.00024818693 0.0029071562 0.0033096692 -0.00052966835 3.773043e-05 -0.0022430427 0.003725088 0.0008534254 0.0016746656 0.0025418433 0.003194202 -0.0022716844 0.0003862013 0.0037627383 -0.0004553647 0.0023589192 0.00014598819 0.0012166012 -0.003209216 -0.0008339222 0.0028144803 0.0012829542 5.11483e-05 -0.002040379 0.0017191517 -0.0035406745 0.0023127506 -0.002374821 -0.0034151997 -0.0010888333
912 0.0034474283 0.0014998651 0.00039036706 -0.0013550018 -0.0019518214 -0.0026882621 -0.0028781735 0.003149751 0.0033837722 -0.0005199841 0.0038025805 -0.003455949 0.0017542319 -0.003534113 0.0019870321 -0.0012696015 0.00077344856 0.0036594807 0.001965594 -0.0032512983 0.002763032 -0.002065824 0.0014117552 -0.0025622798 -0.0028281661 -0.0015501946 0.0008171259 0.0013935602 -0.0029883396 0.0013059591 -0.00088371243 0.0020000718 -0.0023410313 0.0027827867 0.0031295938 0.001383096 -0.0032682773 0.000953522 -0.0035256736 0.003062265 -0.0031386253 0.001902541 -0.00015436014 0.0026068361 -0.0005974691 0.0023028478 0.0019252992 0.0019785871 0.003337884 -0.0019461961 0.00045563726 0.00088294654 -0.00070808193 6.748604e-05 0.0012820851 0.003578087 -0.0013212346 -0.0033459428 -0.0035417606 -0.00096607796 -0.0011007447 0.0027662981 0.0036594318 0.0021055087 0.0031618904 -0.0030337367 -0.0005645783 0.0028061864 0.0031943608 -0.002593536 0.0026366967 0.0025752424 -0.0032681583 -0.00040181304 0.0001797885 -0.0026109742 -0.0038357095 0.0018941781 -0.002057323 -0.0027482817 -0.0023243644 0.0013556005 -0.0031015587 -0.0020091168 -0.003840364 -0.00014726426 0.002772073 -0.0038835313 -0.0017606573 0.00061291974 0.0037532814 0.0016514783 -0.000433821 -0.00046642538 -0.0013882254 0.0018269836 0.0034299952 0.0022061758 -0.0005268328 0.0030024766 0.0007346534 0.00018355636 -0.00071000116 0.0011145187 0.0022261918 0.0021090687 0.00037995676 -0.0019404667 0.0001559741 0.003761437 0.00023651542 0.002288273 0.0037317977 0.0017870171 0.003845695 -0.003399873 0.0014240308 -0.0036891338 0.0003678335 -0.00042807875 0.0037272174 0.0006777642 -0.0028188638 0.00085245 2.5561141e-05 -0.0021990775 0.00082565926 -0.00030732818
1363 -0.00077817467 0.0027986558 0.0024685864 -0.00031343804 0.0038341666 0.0025286644 0.0023271607 0.00014524414 -0.0031117883 -0.003262665 -0.0032137618 -0.0006969448 0.0009756919 0.00013269567 -0.001206574 -0.0007199266 -0.0031684183 0.002950635 0.0021526047 -0.0019367889 -0.00089379074 -0.00017243398 0.0016800794 0.00026401685 0.0037151317 0.0008086441 -0.0025646861 -0.0011037182 -0.0012140565 0.0009596288 0.0034608876 -0.0016691522 0.0020295547 0.0033096748 0.0016407445 -0.0020244324 -0.0032683758 -0.00010202301 0.0009043082 0.0010169949 -0.003867744 -0.0023527774 -0.0011609091 -0.0019692695 -0.0034850044 -0.002408543 -0.00043674145 -0.003833919 -0.0024809996 -0.0012713794 0.002442895 0.0004889726 -0.003837092 -0.003563821 -8.925547e-05 -0.00083033805 0.00043827842 0.0025014798 0.00031066695 -0.002065531 0.0014045483 -0.000587192 0.0015147898 -0.0013388812 -0.0034429254 0.0024587053 -0.0028795705 0.0006173103 -0.00081389595 0.0017800006 -0.0032053776 -0.003622404 -0.003036574 -0.003729365 -0.0016637081 -0.00078171055 0.00067067065 -0.0031122847 -0.002645139 -0.0027487613 0.003226024 -4.6678564e-05 -0.0016890793 -0.002487031 0.00047692022 -0.003470436 -0.0008305032 0.0015155581 0.00286441 0.0028396365 -0.00016403913 0.0031375426 -0.0027719832 0.0021508487 0.001715328 -0.00071241905 0.0028197647 -0.00070790993 0.0013918342 0.00059356866 -0.0003132339 0.00013686012 -0.00203392 -0.0011578088 0.0011047391 -0.00282172 0.003596344 0.0029873024 -0.00046804163 -0.0007595891 0.00078419363 -0.0034445995 -0.0029933273 0.0034989081 -0.0005851893 -0.002951626 0.00014862561 0.0009298216 0.0036315313 -0.00018721641 -0.00068326626 -0.0013643045 -0.00081120606 0.0026929341 0.0012357951 0.0010462891 0.0025508197 -0.0020505912
62 -0.0037643071 0.0015299945 -0.0031591784 0.0034509343 -0.00012913399 0.0003237577 0.0011184884 0.0018136391 0.0036885473 -0.0016141997 -0.0033550528 0.0026752274 -0.001577019 0.00027137523 0.0005923425 0.0016570331 -0.00045279367 0.003080546 0.0037635306 0.0033957139 0.0017308485 -0.0031896494 0.0025605022 0.00070011575 -0.0012747379 -0.00019436538 -0.0019355364 -3.9241542e-05 -0.0013151073 -0.003548181 -0.0016877357 -0.0009766911 0.0029766287 0.0035019044 -0.0036855752 0.0013562283 0.00021464001 -0.00039303734 0.0014427098 0.0013094008 0.00200545 0.001067863 0.0015301775 -0.0035960926 -0.0024115397 0.0030870722 -0.0038946122 0.0023665137 -0.0032034896 0.0039012914 -0.0010907596 -0.0036961501 -0.0009776303 -0.00091834774 -0.0005865722 -0.0036115425 -0.0014465917 0.0034613546 0.0007651492 0.0021009028 -0.0032970232 -0.0024743534 -0.00013151548 0.003027988 0.002918536 -0.0005306302 -0.00077026844 -0.0036554846 -0.00087458757 -0.0006175775 -0.00042765876 0.0010539866 0.0018554585 0.00068703946 -0.0005489983 1.3434413e-05 0.002622225 -0.003766755 0.0033084017 -0.002115952 -0.0021594148 -0.0019802088 -0.0016378536 -0.0027179122 -0.0016408482 4.497328e-05 -0.0034575756 -0.0022190588 0.0017610454 -0.0031687596 0.0036278605 -0.0027090975 0.0004454465 0.0008813534 -0.0019142791 0.00078980625 0.002631538 0.0003982027 0.0036009366 -0.0005346256 -0.00020688081 -0.0014502375 -0.0018382565 -0.003436596 -0.0039044507 -0.002297749 -0.0010088215 0.0025957446 -0.00061485724 0.0026726902 0.002518817 -0.0038198575 -0.001556057 -0.002853061 0.000911101 0.0013019864 0.00019952477 -0.0038384474 0.0016178408 0.00023259508 -0.0014473641 -0.0010994609 0.00343417 0.0014509911 0.001676624 -0.0023317356 0.0021250863 -0.002443731
