1907 128
1789 0.002383991 -0.0009674724 -0.0027989515 -0.0027299407 0.00086649245 -0.0017552219 0.0015361275 0.0026170153 0.0031154547 -0.0019649095 0.0014619882 0.0017795312 -0.0018083845 -0.0017255319 0.00014858998 -0.001026676 -0.0031793993 -0.0001851637 0.002074804 0.0032522818 -0.002067656 0.0028266395 0.0012453727 -0.001569514 -0.0002800104 0.00387515 -0.0021646647 -0.0006658199 -0.0027069713 -0.0005138368 0.0025677443 0.003423593 0.0036573126 -0.0035013987 0.0035590164 0.0017183645 -0.0027356932 0.00015146662 0.0013599917 -0.0032198217 0.0023204463 -0.0034796502 0.0021776098 0.0018769266 0.00055426004 -0.0020962353 0.002331028 0.0022706182 0.0035714381 -0.003430839 -0.0034852275 -0.0018866174 -0.00075757824 -0.0028419362 -0.00025205585 -0.0021208324 -0.0031632627 0.00016290799 0.0024258383 0.0026813773 0.0010287497 0.0019927612 -0.0017494208 -7.4166055e-05 -0.002632449 0.0035888688 -0.0031551053 -0.00086938177 -0.00042673718 -0.0005686779 -0.0031974474 -0.0011535506 0.0016498938 -0.0034983624 -0.0033074375 0.0005745448 0.0037937742 0.00040342033 0.0018573963 -0.0035399105 -0.0023795546 0.0038338476 -0.00085493136 0.0012537034 0.0006349112 0.0017457079 -7.650701e-05 -0.0038862284 -0.0006933754 -0.00010781971 -0.0021137376 0.0031831067 0.0009278909 1.7117643e-05 -0.0024578685 -0.0037837313 0.001494188 -0.0005645482 -0.003622451 0.00037399793 0.0008606754 -0.00028818133 -0.00068508455 -0.0029783437 -0.0022609998 -0.0021513412 0.0020494664 -0.0027508934 -0.0010291033 0.0033775314 0.003854519 -0.0037350308 -0.0038140551 0.003077289 -0.00028171518 0.0001606916 -0.0023226284 -0.0037384199 -0.0007228058 0.0011808234 -0.0020548084 -0.0005370042 -0.0028100135 0.002720067 0.0034241907 -0.0019913418 0.0015481147 0.0023496528
1283 2.2402459e-05 0.0037997281 -0.0034939665 -0.0032787423 0.0020542957 -0.00070338236 -0.0019070593 0.001424524 0.003209129 -0.0028389522 0.0034559034 0.0003265629 0.0036010894 0.002449048 0.0014821345 0.0012210238 -4.7702782e-05 0.003589037 0.0036304314 0.00072699296 -0.003779018 0.00032944386 0.00012851665 -0.00081542874 0.003263411 -0.00052818796 -0.0036427076 -0.0014782103 -0.002811901 0.0023139464 -0.00027253048 0.00073153415 -0.0023650432 -0.0013562527 -0.0027815043 0.0033073972 -0.00045617722 -0.00071117026 0.00020858565 0.0034199876 -0.0035910709 -0.00053503644 -0.00069443806 0.0007780245 -0.003331735 0.001427346 0.00043566074 0.00095407246 0.00015732615 -0.0038762304 0.0026620703 -7.643987e-05 -0.0036992582 -0.0038464842 0.0014856497 -0.0028421474 -0.0036519056 0.0016034059 0.00025096448 -0.0034664874 -0.002177348 -0.00085462374 -0.0016424431 -7.2785e-05 0.00090611173 -0.0026493184 0.0017447356 -0.0028451977 -0.0012628926 -0.0025079325 -0.0024706512 -0.000772886 -0.002286826 0.0015305324 0.0035981738 0.00052348094 0.0016308391 -0.0015118157 -0.0007454144 0.00068132085 0.002365834 0.0012565532 0.0004955823 -0.0017044542 -0.0021171193 4.8620434e-05 -0.003143368 0.0034195606 -0.00046079626 0.00011209547 -0.00045167992 -0.0033708224 0.0018883591 -0.0018861098 0.0004962399 0.00082804053 0.003214898 0.0025305215 -0.001776003 -0.0011845939 0.0022512064 -0.00084786763 -0.0022582826 -0.0010367099 -0.0005628556 -0.00090828864 0.0037857932 0.0036020877 -0.0037507967 -0.0017205863 -0.00153363 0.0027312727 -0.00066775095 0.0034385284 -0.002289926 0.003458383 -0.0025857529 -0.0024264136 0.0005108346 0.0011057457 0.0012776305 -0.0006727714 -0.0023188966 0.0038959628 -0.003137049 -0.002508296 -0.0013566187 -0.0009949576
955 -0.002585105 -0.0033923609 0.0018775336 -0.0012073447 7.966913e-05 -0.0038785436 0.00047151523 -0.0019247369 -0.0039052984 0.0014886226 -0.003438756 0.0021614467 0.0003311518 0.0016632528 0.0011982572 -0.00049653754 0.0006994356 0.00051371235 -0.0006508802 -0.0007153175 -0.002610215 -0.002783467 -0.0020906727 0.0017556662 0.0012967712 0.0027072057 -0.0012566318 -0.0013555066 0.00021178053 -0.0023905882 -0.0036627753 -0.002981642 -0.0010045249 0.0017685798 0.002156185 -0.0016789512 0.0032820725 -0.00078197656 -0.00094244286 0.0019690779 -0.0022789817 0.0019175494 -0.000774889 -0.001771084 0.0021911887 0.0014777082 0.0029127472 -0.0014565354 -0.0011939344 -0.0022354585 0.0017327734 0.0028101895 3.1787156e-05 0.0016182676 0.00071213784 -0.0022695817 0.00070112594 -0.0025843591 -0.001446895 -0.001824204 0.0033202753 -0.00041958236 0.0019009813 0.0022738934 -0.0005047025 -0.0028955212 -0.000622091 -0.00366554 0.0001564129 -0.0038678285 0.0038655875 0.0006667942 -0.0029692631 -0.001360334 -0.0008450857 -0.0024208582 0.0011108698 -0.0016022942 9.729687e-05 -0.002527925 0.0002692633 -0.0032088223 -3.2635005e-05 0.0037138378 -0.0027918774 -0.0014461628 0.0035221751 -0.0007205459 0.00014614896 0.003002695 0.0020565933 0.003459903 0.002941552 0.0032154245 0.0034906669 -0.00041598483 0.0024871628 -0.0025608242 0.0033060643 0.0034037742 0.00083850365 0.000987582 -0.0002755489 -0.0020793136 0.0028247668 -0.00201318 -0.002327388 0.003514803 0.00067175855 -0.0034514822 -0.0035847977 0.002795673 -0.002720633 -0.00040137934 4.1811154e-06 0.0020419268 0.00083819445 0.0014444548 -0.0014767076 0.0011354048 -0.0035147774 -0.0019126853 0.0038645596 -0.0035518555 0.001595356 -0.0014512746 -0.0020134575 -0.0013457884
1166 -0.0013563143 0.0027297053 0.000828989 -0.0015247526 0.00086220115 -0.0014005697 0.0018855712 0.0023067773 -0.0020026597 0.0015437241 -0.002713472 -0.00036883776 -0.0023343533 -0.0003870893 0.0032852818 -0.0029009683 -0.0019191889 0.0009174207 -0.0006729442 0.0031274634 -0.0009597535 7.0754713e-06 -8.5972286e-05 -0.0014393791 0.0027561944 -0.0028990514 0.002114212 -0.002492847 0.003158054 -0.0015733325 -1.0646231e-05 -0.0028202236 0.0001247791 -0.0002459193 -0.0028692125 0.001355493 -0.0024110395 0.0020972844 -0.00092178123 -0.0021376845 -0.002145009 0.0036310824 -0.001098683 -0.0023037863 -0.0031981622 -0.0030463885 -0.0021342612 -0.0036832322 -0.0027759753 0.0014546403 -0.003319475 -0.0007373559 0.0013101683 -0.003459131 0.0015163393 0.00019175898 0.0036319701 -0.0030654636 -0.000615717 -0.0017682493 -0.0037166285 -0.001357036 -0.00080252707 -0.0026637116 0.00030411236 0.0037321877 -9.8281285e-05 -0.0017941023 -0.0026762208 0.0020830715 0.0015553194 -0.0019637847 0.0007220095 0.00035694352 -0.00030891615 0.00084231206 -0.0017305487 -0.0032656966 0.00046288336 -0.0023440912 -0.0036972882 0.00064410723 -0.0008734163 -0.0013324023 -3.1240197e-05 -0.00090317306 0.0016526104 0.0023405752 -0.0033105398 0.0011522647 0.002675014 0.003800427 -0.0005310821 -0.003869453 0.0020339054 -0.0022394585 -0.003286936 0.0028734044 0.0018867296 0.0010212217 0.0038618597 0.0022122369 -0.0016248348 -0.0012825592 -0.0016279573 -0.0017736518 0.0007127245 -0.002253152 -0.0019185856 -0.0033841014 -0.0015490355 0.00031247776 -0.002742893 -0.0012420086 -0.0005376902 0.0033625371 -0.0012176805 0.0033261278 -0.0014732935 -0.0037494348 0.0007465936 0.0019178954 0.0026866756 0.0019376453 0.0036493707 0.0029281068 -0.00105237 0.0015874838
1478 -0.0029395437 -0.0032611631 0.002278964 -0.0020080707 -0.003037405 0.0037692697 0.0019557 0.0022133866 -0.0010331484 0.0010662522 0.00066342414 -0.0029895215 -0.0018487177 -0.0028935869 0.0033146627 0.0013473757 -0.0018434679 0.003095207 0.002199411 0.001712236 -0.0018837744 0.0030556237 -0.0020570082 -0.0021759411 -0.0014387013 0.0021473933 0.0018544049 -0.0017880184 0.00053821196 0.0005006189 0.0032277163 -0.0018254693 0.0031745853 0.00078156573 0.0025861433 -0.0009827794 -0.003735868 -0.00048142642 0.0036655318 -0.0016486604 -0.0030598133 0.00057641347 0.0031892548 -0.00041023025 -0.00203134 0.0036871866 -0.002210871 0.0012861815 0.0036625317 -0.0010071306 -0.0007076022 0.0025667108 -0.0025735507 -0.0011508297 0.0036237778 0.00036940863 -0.002162677 0.0029198187 -0.0011667528 -0.0014098602 -0.003170008 0.003823235 0.0011480235 -0.0021881484 -0.00022665794 0.0035161618 -0.0005977726 -0.0009072364 -0.0026721046 0.00094510394 0.003547648 0.0010471925 -0.00011214959 -0.0035002518 -0.00054232375 7.484418e-05 0.0023586228 0.00043809472 -0.0023616755 -0.0027858184 -0.0035998013 0.0010152152 -0.0020333573 0.0015525094 -0.00064504874 0.0008456249 0.003421556 0.0020745732 0.0035823218 0.00020108777 0.0026380264 0.0016171183 0.001792084 -0.0015549961 -0.0032253335 0.0015926686 0.0028785984 0.00030223248 -0.0009303492 0.0030976103 0.0004986091 0.00045002904 -0.003754945 0.0017045635 -7.974571e-05 -0.0025255403 -0.0038347342 0.0019311944 0.0026861234 0.0030206246 0.0035209402 -0.0026840295 0.0014550871 -0.0013579044 0.00011819925 0.0017086269 0.00044751982 0.0015964821 -0.00072513585 -0.0017077208 0.0034083733 -0.0017825281 -0.0017012182 0.0035094286 -0.00022697131 0.00015673447 -0.002652322 0.002706923
1170 -0.00017056116 -0.00015741226 -0.0005710855 0.0035073177 0.0025935257 0.0023882356 -0.0019249038 0.00074482156 -0.0005851314 -3.2889635e-05 -0.0014213289 0.0011508848 -0.0012064357 0.0025471505 -0.00020296042 -0.003795676 -0.0021790555 0.0033653616 -0.0037325434 0.0011360984 0.0032627184 0.003017234 -0.00044676286 0.002625103 -0.0014278743 0.0036581154 -0.0018560686 0.00039441598 0.00012832189 -0.0023826684 0.00061344326 0.00038797827 -0.00039975817 0.0036089139 0.0019623544 -0.0015880335 0.0019527565 -0.0035827064 0.0036577045 -0.0014921618 -0.0035835262 0.0033941632 -0.0032720994 0.0013545502 0.0034239183 -0.00024130776 0.0025016675 0.0003459162 -0.001038008 4.304837e-05 0.0030036788 0.00042178648 0.0028764287 -0.0021891939 0.0017337681 -0.003895997 -0.003184788 -0.002757711 -0.0017221065 -0.0038471178 -0.0026834004 0.0027658378 -0.0010560905 -0.0013945745 0.0003198801 0.0037722713 0.0010249345 -0.0018602546 -0.000469465 -0.0024628527 -7.025939e-05 -0.0033954072 -0.0023346897 -0.0029849692 0.0036710263 -0.0030990257 0.0035153187 -0.00039263302 -0.0016499942 -0.0004682591 0.0015432996 0.0011111795 0.0011491553 0.0025887587 -0.0028563887 -0.0035371492 -0.0022316445 -0.00078077347 -0.0009927948 0.0036433851 0.0026327565 0.003850748 -0.0024060267 0.0019219576 0.001127532 -0.0011137528 -0.0017972396 0.00020734336 -0.0023835602 -0.00040095125 0.0010611807 -0.0006020883 0.0017129547 0.0030270594 0.0035467295 0.00034505382 0.00079372444 0.0038107305 0.0010021625 -0.00032534782 1.7227629e-05 -0.0017781726 0.0035761204 0.002673411 0.0033721481 0.0015268686 0.0010459361 0.0038418013 0.00037457896 0.0036526548 0.0019508358 0.0024061229 0.000105800675 0.0007792051 0.0009902911 -0.0016205896 0.000809203 0.0017005495
615 -0.0037621923 -0.00090716506 -0.0010048656 -0.000763457 0.0031427725 0.00073289924 0.0033318873 0.001991141 0.00018765323 -0.00040307787 0.00013286245 -0.0030276356 -0.0019764043 -0.0011678493 0.0011917078 -0.0034023465 -0.002611561 0.0018210383 0.0019143921 -0.003191905 -0.0037096015 0.0014361215 -2.1012349e-05 -2.3775174e-06 -0.00015252588 6.621541e-05 -0.0034512358 -0.0008553502 -0.00059281796 0.00066002645 -0.0012471355 0.0029700217 0.0025116866 -0.00058170885 0.00033267908 0.0013549438 -0.0024537495 -0.002240383 -0.00049418595 0.00182326 0.00087467616 -0.0010221719 0.002619755 0.0006977816 0.000509142 0.002397731 0.00060470507 0.0013832663 -0.00064626127 -0.001813679 0.00080737425 -0.0011453241 0.0014209416 0.000561208 -0.0023508188 -0.0023079792 -0.0014228497 0.00224514 -0.0012558133 -0.0008395068 -0.002851626 0.0018293405 -0.00083021924 0.0006769269 -0.0010147048 5.851474e-05 0.0022814278 -0.0012705798 -0.0014621001 -0.0026307013 0.0015994019 -0.0018319297 -0.003217149 0.0025120203 0.0038690749 0.00045335654 -0.0023403163 0.002059987 0.0010597027 -0.003784211 -0.0009996656 -0.00018690724 -0.003779372 -0.0010446152 -0.00033999418 -0.0016125947 -0.0027237483 -0.00047816907 0.001844324 -0.00110311 0.0022176758 -0.0029378901 0.00376441 -0.0018143144 0.0029195661 -0.0012433488 -0.002605307 -0.0028524755 0.002537765 0.0029935623 -0.00039271158 -0.0012321736 -0.0021584444 -0.0004911912 -6.915074e-05 0.00010524604 -0.001444945 -0.00085855904 -0.0036210876 -0.0023939563 0.00030724576 -0.00026433283 0.0026542747 0.0037414227 -0.001606403 0.0035966756 0.0016665071 -0.0036511288 -0.00047394237 0.001057773 -0.001192534 -7.959377e-05 0.00037844083 -0.00037297944 0.002940721 -0.003220489 -0.003496806 -0.0012524859
515 0.001908234 -0.00052790955 0.00042683724 0.002319465 0.0018333001 0.0037139498 -0.0009238038 -0.0017978732 0.0016109988 0.0019767478 0.0036152757 -0.0022405558 -0.0027490642 -0.0010537601 0.002791247 0.0016465198 0.00020690779 5.53873e-05 -0.00034397264 -0.0031313687 -0.00039440164 0.0028915487 -0.0027463178 -0.00031242624 -0.00024036394 0.00060405146 -0.0018966773 0.0016410598 -0.0028493663 0.00215176 -0.0016007416 0.0026151948 -0.0036763647 0.0039021787 -0.003469419 0.0019383339 -0.00066622 -0.0027476402 0.0005521665 -0.00039965077 0.0002173449 -0.002414859 0.0014464161 -0.0037328738 0.0030068995 0.0014613566 -0.0030117843 -0.0023285307 -5.057123e-05 0.0025278465 -0.0011518836 -0.0023571185 -0.0023544799 -0.0038631677 -0.0022749084 -0.0020878115 -0.0002832451 0.0011339686 -0.0018064621 0.0024347121 -0.0017925764 -0.0014942295 0.001797914 0.0019637495 -0.000583479 3.4479675e-05 0.00047786272 -0.0002830161 0.001410136 0.0022687446 -0.003428495 0.0013211195 0.0003008719 0.00078949804 0.0024123164 -0.0030285276 0.0038749457 -0.001338358 -0.003364294 0.0034229574 -6.6839246e-05 -0.0033424974 0.0029812222 0.0022536837 -0.0002642189 0.002007706 0.00093351875 -0.0010308576 -0.0008534847 -0.003021778 0.0023173545 -0.001982032 0.0018468255 -0.0013617261 0.00023536335 -0.001904885 0.0014929954 0.0002203224 -0.00348958 0.00024848786 -0.0017958969 -0.001319645 0.0016435564 -0.0024731122 0.0033002796 -0.0024230487 0.0033385474 -0.0029323834 0.0009095647 0.0028872916 -0.003305782 0.002923743 -0.0017237068 0.0036458285 -0.0019998546 -0.00284087 0.0037534572 -0.0030374383 -0.002080445 0.0014557458 0.0027723238 -0.0008548744 0.0016461748 -0.003513646 -0.0027080073 -0.0008997958 0.0035142275 0.0038918827
1864 0.0012532714 -0.0035556685 0.00017455293 -0.0039060046 -0.003620092 0.0025141893 0.00045609553 0.0008174289 -0.001419736 0.0015171226 0.0020310378 0.0013655449 -0.0024024486 0.00021290802 -0.003313369 -0.0038873209 0.0011809068 0.0012065792 0.0034835213 0.0029433775 -0.00016605204 0.0012903038 0.0028108042 0.0038017547 -0.0018554045 -0.0003813991 -0.0021596262 0.0007123724 0.002614332 -6.293437e-05 -0.0020619635 -0.0026291688 -0.0005716788 0.0036613615 -0.0026195121 0.0037742818 -0.00038291764 0.0007395849 0.0017829351 7.328964e-05 0.00045018247 -0.0016090088 0.0003659352 0.0025689662 0.00067455636 -0.0023539371 -0.0038079754 -0.0035690186 -0.0013488964 -0.0022719295 0.002479484 -0.0037739994 0.002605505 -0.0037375193 -0.0031861712 -0.0019542715 -0.001332303 -0.003386734 -0.003504499 0.00032488248 -0.00041366767 0.0034934797 -0.0034209401 0.0031745883 -0.00089609675 -0.00011564489 0.00040715965 -0.003894321 0.0013421864 0.0037952927 -0.0021409933 -0.0014782633 0.0038932185 -0.0023960988 -0.0025905962 -0.003466304 -0.0030041172 0.0031540338 0.0027107592 -0.0013576729 0.0005890824 1.48005975e-05 -0.0016072453 0.00057364604 -0.00064029713 0.0011744412 -0.0012086494 0.0017416644 0.0012003366 -0.00025133297 -0.002343631 -0.0036740883 -0.001878427 -0.003283457 0.002361403 -2.7063552e-05 -0.001671863 -0.0021952558 -0.0032533347 -0.0018702717 0.0031669457 0.0038036716 0.0026041062 0.00334987 -0.0027170812 0.0020211388 -0.0018046075 0.002350522 -0.00036429838 0.0017989024 0.0024017016 0.0031810168 -0.0015757489 0.0020110705 0.0016286377 0.0021683779 -0.0016207264 0.0015927032 0.0027269777 0.0031639666 0.003539838 0.001707263 0.0015752405 0.000904084 0.0010384839 0.0035640907 -0.0029899708 -0.0031054418
1113 -2.972051e-05 0.0023551243 -0.0025752536 0.0012889236 -0.0027783357 0.0033874481 0.00073992263 0.0021326388 0.0025136815 0.0022310524 -0.0010001211 0.002277555 -0.00026825818 0.0034464004 -0.0008863138 -0.0023362509 0.0019502718 -0.0035257286 0.00024952716 0.0030117158 0.002123268 0.001386883 -0.0038891432 0.0029098173 0.00010740296 -0.0032930216 4.5199995e-05 0.0013174395 -0.0012667992 -0.0017857163 -0.0024033876 0.002162775 0.002829778 0.002697082 -0.0004586653 0.0005561921 0.0025416848 -0.00021436489 -0.000364297 0.0032262995 0.0012134125 -0.0011907249 0.00017302281 -0.0038898669 -0.003158065 0.003458477 -0.0009242613 0.0015131345 0.002471583 -0.00031579632 -0.0026406855 -0.0008628138 -0.0027750125 0.0017052735 -0.0031926706 0.00051362946 -0.002075297 -0.0010025108 0.0019938461 -0.003743906 -0.0024139215 -0.0014189135 0.0019113264 -0.0024231414 -0.0033460828 0.0032022265 -0.003588263 0.0015904875 0.0012125948 0.00020190688 0.00089517375 0.0007978582 0.0010768676 0.0026923176 -0.0020120842 -7.711922e-05 -0.001997363 0.0013697906 0.0004263532 -0.002982556 0.0036999772 0.00026814258 -0.0014762513 -0.0027649363 -0.0017248178 0.0016597271 -0.0010221311 0.002576982 -0.0007896887 -0.003567577 -0.003462771 0.0019440206 -0.002323543 -0.000353923 0.0037330522 -0.0012242398 -8.658658e-05 0.002236711 0.0031235504 -0.0025152976 0.0008389189 9.939376e-05 0.0026709903 0.0023446393 -0.00054124405 0.0007054651 0.00021724457 0.0025115046 -0.0016281441 0.00021396774 -0.00041843543 0.002121835 0.002389427 -0.0022086883 -0.0005662961 0.0038134037 0.0028285142 0.0026491075 0.0028010206 -0.0007828548 -0.00010610313 0.0018302631 -0.0035704446 0.00027814638 -0.002866916 -0.001221617 0.0038214345 -0.0030987363
1661 0.0033117905 -0.0018723338 -0.0029701344 0.003182754 0.0032303953 -0.0006185838 -0.0017586071 0.00056263024 -0.0015031729 -0.0024303854 0.001244992 0.0036017587 0.0026360163 0.0019585912 -0.0035017102 0.0007030726 0.003378431 0.0013411356 0.001292879 -0.0006284222 -0.0025584064 0.0014086205 -0.00063772936 -0.0013387861 0.0023644562 0.0017719324 -0.0027969952 0.0027442237 -0.0012145377 0.0011652061 -0.0010959047 0.0016658581 -0.0015467886 0.0030252878 0.0032930751 0.0016227835 -0.00042840358 -0.0011315112 0.0016335343 0.0029922347 0.0008149667 0.0033381335 -0.00080113555 0.00278694 -0.0008071499 0.0010993673 -0.0029738185 -0.0016898669 0.0014311482 0.00325434 -2.7936385e-05 0.0017713576 -0.002254315 0.001472845 -6.0663067e-05 0.0030401915 0.0019540696 0.003902457 -0.0011584543 0.0033936268 -0.0026842598 0.0009835495 -0.0035352928 0.0020080174 -0.002244213 0.0034371207 -8.354107e-05 0.0020444556 0.00022355834 -0.0030077691 0.002058824 -0.003697454 -0.0007490013 0.0016904478 0.00241084 -0.001950913 0.0021147209 -0.00042698474 0.0027427648 -0.00234782 -0.003710121 -0.0019305992 -0.0017697775 0.00019476988 0.000931674 -0.0037173142 -0.0022260377 -0.00029793623 0.0035205502 0.0007960596 0.0017745232 0.0036311839 -0.0036701767 0.0009812879 0.0024735203 0.0027504212 -0.0019037336 -0.002184743 0.0036611254 -0.0032924998 -0.0018531369 0.0032979713 -0.0008861078 -0.0033366776 -0.0011888465 0.00021892836 -0.0037237285 0.0015006011 -0.0002151292 0.00035256616 0.0028996253 -0.0015103542 -0.0006366015 0.0011147251 0.0035076882 0.0022047374 0.0031958788 0.00023885074 -0.0019485841 0.002360583 0.0010232988 -0.0011055375 0.0013990501 0.002602131 0.0035485432 0.00045409292 -0.0026757945 0.00096208707
1048 -0.0011219849 -0.0018583762 -0.0033982587 -0.003401104 0.00063713355 0.0007242309 0.0014284042 -0.0024569158 0.0010811554 0.0008854889 -0.0028920702 0.0034023132 0.0027980013 0.0005137415 0.00013595888 -0.000938811 0.001457856 -0.0008776529 -0.0017005897 -0.0021923732 0.00274909 -0.0021381304 -0.0011963706 0.0037531664 -0.0008515975 -0.000988354 -0.0036741795 -0.0036983697 -0.0029498949 0.0014813927 0.00013123237 0.0026427126 -0.002345566 0.002697307 0.002597813 0.00084149983 -0.0005451189 0.0013157525 -0.00082405226 0.0006384771 -0.0013197598 -0.0015826868 -0.0005852091 0.00052662106 -0.0010842367 -0.0010887067 -0.0036648198 0.0033250465 0.0029994813 0.0004168864 0.00052093423 -0.001867302 -0.0018670486 0.0006769597 -0.0005464289 -0.003084239 -0.0015585894 0.0019613642 0.000900427 0.0031136125 -0.0010161224 -0.0007808409 0.0003067797 0.00081459025 -6.639188e-05 -0.0009091618 -0.0020695026 0.0028847265 0.00022908098 0.0022014966 5.139753e-05 -0.0022496579 -0.00019778295 0.002089424 -0.0008960251 0.001280695 0.0005044603 0.0038973375 -0.0017183765 -0.0033774623 0.0001339698 0.00032606217 -0.00023207789 -0.0027548256 -0.0021032116 0.00026815396 -0.00069851987 0.0032817775 0.0010165413 0.0015613872 -0.0035749949 -0.0036326142 0.0033683854 0.0016881783 -0.00031561797 0.0009858413 0.0037094757 0.0018164449 -0.0023899272 0.0013592248 -0.0038132162 -0.000480577 -0.0034277448 0.0038518037 0.0019515164 0.00382963 -0.0037754828 -0.0037450278 0.00043701884 0.0037558298 -0.0035153842 0.0026500823 0.0017344765 -0.0027900531 -0.0023741608 0.0009089816 -0.00065870385 0.003542221 0.0022592274 0.002234678 -0.0028047056 0.0011405118 -0.0013065988 -0.0029262619 0.0017975526 -0.0013353848 0.0018864784 0.0020534252
828 0.00012449504 -0.00048118358 0.002252576 -0.0029204325 0.0013774585 -0.002369512 -0.0026195818 -0.0021484394 0.0022258314 0.0020351266 -0.0033579464 -0.003164477 0.0026963279 0.0014455359 -0.0016342293 -0.003609099 0.0030777492 0.00017696571 -0.0019401386 -0.00054027 -0.000504877 0.00057798525 -0.0016079865 -0.0038814007 -0.002660659 -0.0031904455 -0.00016729192 -0.00214101 0.00027966307 0.0033208234 -0.0020365997 0.0010583159 -0.00050509785 -0.0018221566 -0.0027071475 -0.0038692772 -0.00074237393 -0.003109888 -0.0019800083 -0.0036088182 -0.0031992174 0.0030322098 0.0027021482 -0.0028442864 0.0007045148 -0.0017009247 0.00022978731 -0.0014585457 0.00073147455 -0.00171926 -0.0011555915 -0.0013833259 0.0010499898 -0.0005214826 8.8869674e-05 0.0031216457 0.00019886844 0.0016244645 -0.00065633206 0.0006031776 -6.451934e-05 0.0033661255 0.00037258514 -0.002387154 -0.0012174385 -0.0004883488 0.002595663 -0.0025253184 0.003287011 -3.8981067e-05 0.0021286644 0.0038119396 0.00026627802 0.0019863201 0.00026514105 -0.00238069 -0.0033120937 -0.0036976994 -0.0001939837 -0.0022815445 -0.0011727376 0.0020462882 -0.00045189733 -0.0038694919 0.0011586753 -0.0015657799 0.0022172527 0.0005653423 0.00034508083 0.0023148586 -0.0035941263 -0.0034042678 -0.0036801195 -0.0035212336 -0.0012151884 0.0019375335 0.0011101606 -0.000562125 0.0022016703 0.0030627584 0.001225127 -0.0031104973 -6.383073e-05 0.00037678 0.0011788709 -0.0035991673 0.0037476409 0.0029335301 -0.0032516303 -0.0031310814 0.00086151465 -0.00017161734 0.0021494336 -0.0030434043 -0.0025770515 -0.0025313157 -0.0023779948 0.0022736888 -0.00018054896 0.00021367223 -0.0024027063 -0.001497503 0.0020809078 -0.0015610863 -0.0012303283 -0.0022747407 0.0030458893 0.0017665263
460 0.00091749954 0.0037999735 0.0015935734 0.00041652558 -0.0032722314 0.0037423796 0.0019586182 0.0020325633 -0.0028866313 -0.00029750777 0.00060020486 -0.0023046383 -8.82222e-05 -0.00027478297 -0.0012130516 -0.0037658927 -0.00054410833 -0.0017138235 -0.0030838945 -0.0007054344 -0.0015092421 0.0036985485 -0.0022724788 0.0035106612 0.00061686465 -0.0006070338 -0.0026522845 -0.0037092366 0.0022510875 0.0015746088 -0.0032655972 -0.0035454482 0.0007387472 -0.0012000294 0.003103979 -0.0018575178 -8.5306085e-05 0.0013395884 0.0008546528 -0.00013279748 -0.0035681967 0.00081796054 -0.00022800645 0.003665178 0.00275167 0.0017068957 -0.0028657876 0.0013759307 0.00022350787 0.0026370138 -0.0035678092 0.00071642664 -0.00368693 0.0011849056 0.0014356324 0.0032727078 0.003064455 0.0004746481 -0.0015171954 0.0033711551 -0.0021762238 0.0015533607 -0.0012689875 0.002001086 -7.849079e-05 -0.0010691106 0.0014178505 -0.0011543458 0.00025864012 -0.0024398146 0.0027867623 -0.002391973 0.0030736416 0.0012673698 -0.00041099655 0.0021114598 -0.0012741409 -0.0038276804 -0.0008604452 0.0031404055 -0.00036777093 0.003534427 0.002384811 0.0016402992 0.0029339918 -0.0030840759 -0.0016598963 0.0031404016 0.00016415567 0.00040907515 0.00076054264 0.0037123663 0.001556986 0.00043122357 0.0004791643 0.0025777637 -0.00073454366 -0.0010989987 -0.0019133973 -0.0031015552 0.0018856361 -0.0035358502 0.0021235982 -0.002742649 0.0014025338 -0.002042352 0.002762505 -0.00064687844 0.0021585273 -0.00055944995 -0.0009644149 2.9865272e-05 -0.0027399524 -0.0023317353 -0.0012091616 -0.0025125225 -0.002091978 0.00022539092 0.0019388786 5.3720512e-05 -0.0010565589 -0.0031941165 -0.00055398745 0.001574239 0.0028650844 0.0014757749 -0.00042474907 -0.0038788794
972 0.0037552023 0.003723272 0.001497048 -0.001185393 -0.0030780232 0.0033999484 0.0006681684 -0.0032352107 -0.0039030807 -0.0013544911 0.00029382572 0.0024845973 -0.0008867815 0.00100833 0.0035087045 0.001185343 0.003297363 0.001531643 0.0016039632 -0.003724152 0.0030663193 0.0035955913 -0.0014604364 0.0023640078 -0.003800251 0.001460173 0.002932031 -0.0007063672 0.00224081 -0.0008653115 -0.00016697872 0.0010239859 -0.0037660522 -0.0020890064 -0.002612289 0.0029204157 0.0022073595 -0.00226927 0.0029145493 -0.0030341302 0.0005421374 0.0030256659 0.0028332844 0.00077736017 0.0002630468 0.0007918207 -0.0009934534 0.0032892793 0.002319137 -0.0011411749 0.00386482 0.003532384 -0.0008381458 -0.0034260727 -0.0012604048 -0.0029383805 -0.0024874595 0.0020855393 0.0022850719 0.0017866064 -0.00021521315 -0.0035924376 0.0037118793 -0.0038689952 -0.002582236 0.0029908917 0.00014870922 0.0027142821 0.0010867914 -0.00061796076 0.00328998 -0.0027749983 -0.00366957 -0.0011806244 0.001524527 0.0020398048 0.000414165 -0.003218772 -0.0002313726 -0.0026594484 -0.003389904 -0.0034154928 -0.0023335207 0.0020407066 0.00095101557 -0.0021638463 -0.0038934867 0.0029316281 -0.0032553119 0.0014363469 0.0028840667 -0.0024505195 0.0020229365 -0.0010526803 -0.0011531694 -0.00039501907 0.0016351504 -0.0017718417 0.002764518 0.0033718671 -0.0017272201 -0.0023167615 -0.0017548245 -0.002702618 0.00061478926 -0.0009333144 -0.0032120803 -0.0033004188 0.00031851945 0.001677413 0.0026009101 0.002977205 0.0028685408 0.003523432 -0.0017869412 -0.003500006 -0.0029017096 0.0017217157 0.00031007707 0.00045896988 -0.0036509994 -0.0035447148 0.0019493296 -0.003861702 -0.002685968 0.0018415528 0.0034937484 -0.0018271394
959 -0.0034434467 0.0033366168 0.0036943245 0.0008184525 -0.0031371326 -0.00085106556 -0.0025556628 -0.0009863334 0.0014232093 -0.0030013886 0.000379336 0.001236602 -0.00089936715 0.0005585546 -0.00027151144 -0.0020403634 -0.0025742068 -0.0014109566 0.0030212458 -0.0021372798 -0.0016490914 -0.002719394 0.0035236138 0.0027503034 -0.0028650663 0.0036008237 -0.002698497 -0.002858962 -0.0014653002 0.0037936093 -0.0018705194 0.0036733383 0.0032632537 -0.0010592679 -0.002973912 0.0014923345 0.0033563212 0.0015640958 -0.0037465992 0.0013194378 -0.0007437214 0.0033746662 8.6006e-05 -0.001529285 0.000593235 -4.9320468e-05 0.0031238496 0.0036781423 0.0021011485 0.0021598695 0.0030724076 0.0015204925 0.0004666519 -0.003774374 0.0030897337 -0.0025119076 0.00021455195 0.0030213753 -0.0033725286 0.00011666704 -0.00034925077 0.0021023657 -0.0022120539 -0.0020443974 0.00058252225 0.001402453 0.0025712682 0.003705464 -0.0018997758 0.0016153961 -0.0038553416 -0.0032232294 0.0019943703 -0.0035554206 0.0034792018 0.0031602164 0.0027170044 -0.001340631 -0.0010219588 0.0034483888 0.0020846527 -0.0032566919 0.002287735 -0.0029040377 -0.0010616974 0.0008918496 -0.0020451571 0.0027295968 -0.0033485047 -0.0022731125 -0.00018318604 0.0019101589 -0.00093435793 -0.0012700867 0.0033996864 0.0036257491 -0.00041027516 0.0005355832 -0.0009097372 -0.003684823 0.003695929 -0.0032914702 -0.00016164448 0.0022786327 0.0018673153 -0.00053846266 0.0025198816 -0.0036569794 -0.0012261367 -0.0023288361 -0.0034461988 0.0014651595 0.0035464847 0.0029208083 0.002220929 0.0016699223 0.00053488073 0.0016163142 -0.0029431884 0.0015813136 0.0027368662 -0.0016560255 -0.0027018196 -0.0017279196 -0.0019950373 -0.00069058605 -0.0035241768 -0.0032206078
1217 -0.0015061705 -0.0035822308 -0.002779485 0.003625624 -0.00046963478 0.00320958 0.0022902912 -0.0014948648 -0.0005683533 0.0003821431 0.0021524231 -0.002206922 0.0026942391 0.0018146617 -0.0026074355 0.0014850113 -0.0030390613 0.0023997936 0.0023055098 0.0016456005 -0.00091177423 0.0023713796 0.002136308 0.003817805 -0.0026252377 0.0002501427 0.0016427393 -0.0023188414 -0.00030628938 -0.0021917305 -0.00037948354 -0.0012725019 0.0017367927 0.003277331 -0.00295934 -0.0006431367 0.00018337957 0.0001940744 0.0030218717 -0.0036531107 -0.0007040286 0.0029075232 0.0011537214 -0.002805773 0.0022571045 -0.0024879822 0.0016105615 -0.0022924335 -0.002911279 0.0030616082 0.0017111466 0.0036278584 -0.0038475806 0.0022716671 1.0338374e-05 -0.0012699963 -0.0007502086 0.0037782856 -0.0023160942 0.00074061693 -0.0018423 0.0033231692 -0.00020822845 -0.0009165846 0.0019920394 -0.0009994633 0.0033840016 0.0023593076 0.0023951447 0.002388571 0.0031615803 0.003173624 -0.0019785236 -0.0038154984 0.00342633 0.0005503106 0.0027843884 0.00048232247 0.0014820284 0.0026714248 0.0009676317 0.0012702851 -0.0038305568 0.000889989 -0.001085816 0.0033654382 -5.1831736e-05 0.0012698644 -0.0019720355 -0.002099405 -0.002331669 -0.002240497 0.0030307504 0.0037008254 0.000199079 -0.00015318599 -0.0015357469 -0.00062697474 0.0032497148 -0.0012662787 -0.0031460554 -0.0027719077 0.0025944684 -0.0007212979 -0.0028932157 0.0026047893 0.00073940394 0.00012562337 -0.0004106443 0.00061426446 0.0024286842 -0.00023639144 -0.0038976246 -0.00077786524 -0.00064299285 -0.0014865097 0.00083061185 0.0033658985 0.0024641764 -0.0006559101 -0.0026477212 0.0028663818 -0.0011725078 0.0036841906 0.0024454065 -0.002967871 0.0002609517 0.003477209
107 -0.0034090397 0.0008146953 -0.0015215005 0.0027419722 -0.0038333205 0.0023750549 -0.0027447254 0.001184185 0.0030518519 0.002639154 -0.002333534 0.0036654933 0.0035696265 -0.0008951318 -0.0017385703 0.0020669373 0.0029612065 0.0007249686 -0.0026253343 0.00069293566 0.002919983 -0.0028749676 -0.0034999591 0.0025400943 0.0033798642 0.0011491671 0.0030273234 0.0002826582 0.0011980283 0.0019476142 0.0019985987 0.0027303835 0.001471695 0.001458941 0.00029126788 0.0014788222 0.0021638488 0.0015793903 0.0024985948 -5.5308064e-05 0.0021094694 0.002032787 -0.0017639331 0.0038125694 -0.00047900205 -7.54335e-05 0.0010783562 0.00012509842 -0.0013029082 0.0002781953 -0.0027825204 0.0027659223 -0.0036105844 -0.0030275902 0.00073126866 0.00084040506 0.0027974956 -0.0026655442 -0.00049090374 0.0022836837 0.0011240368 -0.0029863827 0.0024640327 -0.0012458989 -0.0022817065 -0.0035851968 -0.0022425945 0.0018060303 0.002699414 0.0005566701 0.0006857311 -0.0017786487 0.002302285 0.0022867494 -0.001794235 -0.0035485483 0.001013591 0.00052864867 -0.0025415358 1.0429659e-05 0.0025529587 -0.0021245303 -0.0032742298 0.001007923 0.0031144198 0.0028658083 0.0033958114 0.0036551757 -0.0020476135 0.000569206 -0.0014350578 0.0013597155 -0.0012754861 0.002480989 0.0024894304 0.0017444764 0.0019902973 -0.0037921655 -0.0036531421 0.0036935336 0.00075844716 -0.0025540327 0.0015512316 0.0018209371 -0.0006283154 0.0002969683 0.003474777 -0.0030129405 -0.0011356061 0.0012884021 0.000113946124 -0.00073133927 0.0021606851 0.0014722771 -0.0025096 -0.0031176459 -0.0032057995 -0.0031615242 0.00091509573 -0.0012897189 -0.0018405064 0.00026900077 -0.002109887 0.00067644584 0.0034794274 -8.621851e-05 5.166695e-06 0.0010758969
1400 0.0011122373 -0.00022410376 -0.0021554166 0.003152777 -0.0006076648 -0.00028515098 0.00035111525 -2.2442482e-05 0.0029122236 -0.00022194232 0.0021919492 -0.0020845616 0.0027396537 0.00048675115 0.00068640534 0.003649875 -0.00084370025 0.003513984 0.0030399067 -0.0027706446 0.002600967 0.0019817457 -0.0030022052 -0.0023220496 0.0017858573 0.0031468053 0.0007018376 0.00075686094 0.003329563 -0.0015252082 0.002385338 -0.0036602751 0.0037715486 -0.0023396881 0.0009751296 0.0016596861 0.00012803853 0.0023209427 0.002543935 -0.0038852433 -0.003044623 -0.00053256744 -0.0031812815 -0.0029873606 -0.0013136496 -0.0018610674 0.0032591722 0.0033751589 0.0011319837 0.00013018111 -0.00034178267 -0.002523743 0.0010331287 -0.003843942 -0.0018026828 -0.0014478029 -0.00015787587 0.0027087636 0.00056735234 -0.00076949125 0.0033700536 -0.0037874621 -0.0011550644 -0.0019506968 1.8223413e-06 -0.0014335033 0.0028804417 -0.0017179324 0.0019075529 -0.003079344 -0.0011186297 -0.0019633113 -0.002356521 0.00019818425 -0.0037016554 0.0033086012 0.0008474833 0.0013561472 0.0020690386 0.00073837873 -0.0014964403 0.0004398655 0.001491998 0.0033962145 -0.0023733645 -0.0031008453 0.001408771 1.8328892e-05 -0.003702093 -0.0020201574 -0.0021591275 0.00031797032 -0.0022443288 -0.0031549246 0.0035266317 -0.0010862778 0.003554055 -0.0033029416 0.003444478 -0.0012901059 -0.0032729744 0.0013346879 -0.0015173949 -0.003663464 -0.0036781947 0.001689529 -0.0032781402 -0.0033796942 0.000897909 0.0026043397 0.0038272133 0.001132077 0.0034232435 0.0019880098 -0.0017243167 0.0036056885 -0.0034601826 0.0013823567 -0.0035706947 -0.0037629707 0.00012505219 -0.0038730286 0.0011104163 0.003174622 -0.0015321606 -0.0013366987 -0.0002700277 -0.0036727367
1795 0.003555684 0.0011971414 -0.003572938 0.0026655397 -0.0010369109 0.00062808994 -0.0006670623 0.0010174206 0.0037573865 0.0011942902 -0.0005008763 -0.0029564789 0.0013706785 0.0007617936 0.003459872 -0.00020421702 -0.0029477803 0.0012499287 0.0014010352 -0.00025530686 -0.00085117813 0.0034493264 0.0012724097 0.0038297735 -0.002596694 -0.001945775 0.0008864099 -0.0036766157 -0.0038047922 -0.0035192948 0.0031919628 0.0012588822 0.0014203447 0.003649294 -0.0007836213 0.003329503 -0.0025850306 0.003664086 0.0016205254 -0.0015874609 0.0029452462 -0.0009510502 -0.00254256 0.0037974408 0.000814121 0.00042095815 -0.0036723758 -0.002183411 -0.0025719237 0.0023032278 0.0036462466 -0.00034000946 0.00030552092 0.0024255838 0.003717361 -0.0013642963 -0.0021367762 -0.00077349006 0.0031797416 0.0029448222 -0.0010998594 0.0025161668 0.00048385203 -8.032539e-05 0.003873211 0.0032639543 -0.00026350934 -0.00070309767 -0.001197841 0.0028536401 -0.0015703161 -0.0032305012 0.0028516853 -0.00024343976 0.0015877899 -0.003117548 0.0007607405 0.00091500505 -0.0028342532 0.0037283287 -0.00076664943 -0.0022424718 0.000709737 0.0025189575 -0.0035323207 0.0007338013 -0.0009922305 -0.0009556375 0.0029122792 -0.0010021676 -0.0031773814 -0.0019868372 0.0031107552 0.0029064901 -0.0013590176 -0.00077194616 0.0017698108 0.0029180802 0.0014454094 -0.0033402455 0.0010438762 -0.0025301257 -0.0033642475 0.0011996308 0.001438749 0.00305164 -0.001404545 0.0022938007 -0.00079441135 0.0027079533 0.0008294327 -0.003792185 0.001667632 0.0008980875 0.0022458062 -0.0018913953 -0.0016037717 -0.0009525322 -0.003550527 0.00011160686 -0.0027932662 -0.003405998 0.0012669746 0.00017354473 0.0012449598 0.0019930063 0.0012562015 -0.0025936859
39 0.00077114376 2.5369367e-05 0.0013621441 -0.00049874414 -0.003700971 -0.0026255562 0.0004181264 -0.00083183614 0.0033707367 0.00071554823 0.00037036324 -0.0003064196 0.002659336 -0.00075651036 -0.0007123561 -0.00035827275 -0.0022191855 0.0033531769 0.0022084818 -0.0033401907 -5.3850647e-05 -0.0011873579 0.001853937 -0.0013274791 -0.00069628604 0.0015837235 0.0017973741 0.0038954464 -0.0035811798 -0.0018443797 -0.0009991045 -0.001611144 -0.00075663783 -0.0025566136 -0.0013140753 -0.00030399326 -0.00025328502 -0.0019330266 0.0029019068 0.0035632604 -0.0021513302 0.000887251 -0.00028317433 0.0007743093 0.0037866244 -0.0037213617 0.0023126302 5.9067832e-05 -0.0036339953 0.0030451508 -0.001538824 0.0028253365 -0.00361641 0.0036392375 -0.00054859364 0.0011590561 -0.0014756122 -0.0025068517 -0.0014868744 0.002157589 -0.002675254 -0.0017535393 -0.001966044 -0.0012666999 0.00012405051 -0.0010536247 0.0019762663 -0.0032982668 -0.00087612384 -2.6058522e-05 -0.0034930678 -0.0015684532 0.0034089985 -0.0034167413 -0.0038712628 0.003503993 0.0010278192 0.0025697516 -0.0024355438 0.0013653067 -0.0028104167 -0.00042070224 -0.002245391 0.0037956599 0.0012708037 0.0014998179 0.0017461732 -0.003417486 -0.0015455316 -0.0010816224 0.0013921798 0.0032879792 -8.34585e-05 0.0002819331 0.0017224583 0.0015599048 0.0029490937 -0.0009287362 0.0021890476 0.0021701686 -0.0012054404 0.002527922 -0.0021255817 0.0038600795 -0.0010073399 5.369603e-05 0.0013523961 -0.0024179146 0.0011009083 0.0028002523 -0.0030260195 0.0014360913 0.0030572126 0.0029856616 -0.0037065847 0.0015215005 0.00065413024 0.0016886606 -0.0018247092 -5.189728e-06 -0.0021772012 -0.0037425 0.0038561705 -0.0026034086 -0.00033208058 0.0016619207 0.003148806 -0.0027157115
820 -0.00012776711 0.002676493 -3.2796263e-05 -0.0036472366 0.0035906392 -0.0022985174 -0.0014084987 0.0038589044 0.0014880646 0.0029637855 0.00063682883 0.0036556937 0.0037931458 0.0028978242 0.000102226666 0.0035099394 0.0028862036 -0.0037418623 0.00051116926 -0.0029243233 0.0031267868 -0.0012534573 0.0021471991 0.0029692499 0.0003979774 -0.0021514785 0.0009569018 0.0030568019 -0.0015918737 0.0019673037 0.0027834007 0.002826155 -0.0036922568 0.0010367868 0.0009314002 -0.0027178824 -0.0034849478 0.003203976 -0.0031759588 -0.0035293533 -0.00071469904 0.0031294618 0.000349106 -0.003775075 0.0007152875 0.0028795428 -0.0027374143 0.0005737879 -0.0013665931 0.000819792 0.00091703824 -0.0015105252 0.001695391 -0.0022228197 0.00327634 -0.00045432724 -0.0010782283 -0.0013059594 0.0021681709 -0.0012450312 -0.0009286312 0.0024462536 0.0012796696 0.0008673373 -0.00077441434 -0.0018214282 -0.0026233539 0.00061515166 0.0023813976 0.0015953259 -0.0018718058 0.00032587646 -0.0027321496 0.00051406753 0.000592635 0.0015043073 -0.0018878763 -0.0009917741 6.2243846e-05 -0.0033834134 0.0014378186 -0.0015023319 -0.0019000531 0.0024729623 0.0027128817 -0.001710989 0.0005409997 0.0021753865 0.0037519028 0.003213879 0.0033446238 -0.0035368358 -3.326021e-05 0.003187972 -0.0014147675 0.0030295176 -0.0031058728 0.0021085863 0.0029435907 -0.0022503175 -0.0003823626 -0.00029832489 0.001239897 -0.0035721671 0.0015456076 0.002330233 0.00266956 0.000119711396 0.0030855315 0.0029819675 0.0019402396 0.0033804276 -0.0014746939 0.0033979034 -0.0037238165 0.002613941 -0.0012026005 -0.0016090621 -0.0033410052 -0.0028560774 0.00035912642 -0.00352847 -0.0014532738 -0.0002100419 -0.0008642841 0.0024326395 0.0022887827 0.0013956446
1749 -0.0016719709 0.00064583257 0.0020288206 0.0014199672 -0.0012728503 0.00025979558 0.0022474607 -0.002496663 -0.003259783 0.0005193474 -0.0038804493 0.0020176643 -0.0014897259 0.003885539 -0.0033124462 0.00033504536 0.002601527 -0.0016788293 0.0038256652 0.0033686198 0.00074265286 -8.8899644e-05 0.003829598 0.002244223 -0.0016441459 0.00090581103 0.0006578257 -0.0014760204 -8.514487e-06 -0.0022854514 -0.0008306532 0.0030790602 -0.0014763973 0.0013760411 0.00045355788 -0.0003254443 -0.0019912913 0.003586956 -0.00288305 0.0033670205 -0.003135134 -0.0018675386 -0.001980173 -0.0038849183 8.3130835e-05 -0.0033499913 -0.0016329265 -0.0007349426 0.0006985404 0.0035961503 0.0015512989 0.0024351068 -0.0027878773 -0.000936668 0.0019704397 0.0024783795 0.0012805696 -0.0037508565 -0.0013310451 -0.0034997815 0.0039037971 0.003083389 -0.0020170852 0.00028719992 -0.0031853807 -0.002118448 0.00030755787 -0.002568354 0.0027496438 0.0014380551 0.00022708242 9.961204e-05 0.0029544067 -0.001958804 0.00044411217 -0.00046397198 -0.0018676525 0.00069168094 -0.0036178161 0.0016372895 0.0015044047 -0.0034690027 -0.0017451933 0.003558172 -0.00110146 0.0011828823 -0.0018347041 0.003491668 -0.0016263204 -0.0024341808 0.0024130375 -0.0028055613 0.002246989 0.0034532105 0.00074592885 0.0027477972 -0.0011353323 0.0022432504 0.0034447648 0.0036303226 0.0026524896 -0.0019404665 0.0017585256 -0.00055616425 -0.00389061 -0.0021726887 -0.0020426144 -0.0022372105 0.0009924604 0.0037674492 -0.0014791208 0.0029208325 0.0018293519 -0.0017485431 0.0006351376 -0.0021103045 -0.0019121756 0.0014223263 -0.0023089328 0.0019241584 0.003459461 0.0016407408 -0.0015060797 -0.0034868186 0.0004253373 -0.002750526 0.00044020716 -0.0027023945
1261 0.0018657319 0.002787567 -0.0036920467 -0.002164659 0.0006373028 -0.0038134204 0.0036199773 0.0035571014 -0.0023250156 -0.001282373 -0.0013587266 -0.00022814018 5.189705e-05 0.0013226657 -0.002894038 0.0034415526 0.0035208294 -0.0025962105 0.0038283104 -0.001192454 -0.00055938377 0.0019497009 -0.00017346292 -0.00051714125 -0.0017861578 -0.0029688512 -0.0021676642 -0.00040852293 -0.0008230994 0.0022331658 -0.0018774257 -0.0022420625 -0.00060770666 6.195252e-05 -0.003261369 0.003209096 0.0036246022 -0.0022807484 -0.002797802 -0.0038911945 0.0003299093 0.0033549783 -0.0025666917 -0.0016128661 -0.0030777168 -0.0035197088 -0.0018905449 -0.0021216192 0.0026332254 -0.0020387725 -0.0018402667 -0.002340341 -0.0006698966 -0.003016183 0.0007849831 0.0037433903 0.0020764703 0.0011414025 -0.002762569 0.0038904166 -0.00068079494 -0.0015625531 0.001098727 -0.0031348881 0.0023673775 0.0014232937 -0.00042842506 0.0035644798 0.00038986804 0.0029988196 0.0036830164 -0.0021854786 -0.00029473568 -0.00070691574 0.0018370211 0.0038970853 -0.0025472546 0.0014229552 -0.0024081336 0.0036587997 0.0027439937 0.00077881815 -0.0019394739 0.0014694455 0.0019396475 0.0022837836 0.0009073273 -0.0012294665 0.00034077905 -0.0014446427 0.0020800135 0.0009089165 -0.0007024592 -0.0017718305 -0.0015745694 0.0026630764 -0.00026417727 0.0014906989 -0.00303101 -0.0011630257 -0.002774046 -0.0029466338 0.0006951094 0.0029130108 -0.0021568923 -0.0029513563 -0.0021423653 -0.0032269142 -0.002332166 -0.0019925097 0.00010574651 9.8079356e-05 -0.001378733 -0.00159505 0.0031804754 -0.003181554 0.0019111274 0.001896875 -0.0019081796 0.0010731434 0.000105912564 -0.0038287223 -0.0018118337 0.0008584094 -0.001125141 -0.00085849455 0.0006781539 0.0027266196
1427 -0.0019445607 -0.0032461311 0.0037808123 0.0015804109 0.0014256564 -0.0018372424 -0.0012818836 0.0021191381 -0.0027403368 0.0027921584 0.0033821953 0.0033178746 -0.001470113 -0.0038111524 -0.0028464838 -0.0032830602 0.0031839963 -0.0035220967 -0.0014842633 0.00020726155 -0.003173296 0.001771124 -0.0026430658 0.0007111072 -0.00016496908 0.00067669305 0.0038722286 0.0032813682 -9.4610434e-05 0.000650847 0.0017614008 -0.0011219241 0.0019725512 0.0027143308 -0.0038819634 0.0013068973 0.0029186842 0.0037333758 -0.0016657921 0.0018878384 0.0026455855 9.451224e-05 -0.00069327216 0.0029020167 -0.0030705724 -0.0010901853 0.0029904053 -0.0037977328 0.0033760553 0.003414415 0.0016600533 -0.0009823858 0.0035669766 0.0030910207 -0.0022408522 -1.3038748e-05 0.0010741928 -0.003446727 0.0024600031 0.00027541054 -0.002381967 0.0010633679 -0.003720826 0.0034253234 0.00065805577 -0.0014085355 -0.0028254893 8.662506e-06 0.00378673 0.0038888576 -0.0012827242 -0.001668342 -3.316755e-05 0.001116232 0.0006509163 0.0038803709 -0.0025691788 0.0032392533 0.0015381939 -0.00045145632 0.000717955 0.0033423642 0.0029066794 -0.0008194357 0.0032921834 0.0022932782 -0.0023905272 -0.0003072289 -0.0022116266 0.00020623094 0.0036995357 -0.0008019607 -0.0032762322 0.0025309518 -0.0013294833 -0.0017503917 -0.00022008599 -0.0025508814 -0.0022575932 0.0021171554 -0.0032505014 0.0011752482 -0.00029045227 0.001115795 -0.0017039933 3.7367768e-06 -0.0025891575 0.0019137899 -0.0014577504 -0.002957234 0.0031057263 0.0038160742 0.0024724337 0.0014147324 0.0023236158 -0.0030132656 -0.0031183946 -0.0027220051 0.003276531 0.0023226833 0.0006514393 -0.002305059 -0.003130231 0.00182837 0.0006151907 -5.9589376e-05 0.003248529 0.0024521393
511 0.0024264138 0.0032616248 0.0023885954 0.00040358645 0.00084658095 8.510385e-05 -0.0023249874 0.002720232 9.4444986e-05 -0.0024954635 0.0021558802 -0.003755722 -0.001297569 -0.00021202174 0.0009773533 0.0037882174 -0.0034364304 0.0032773572 -0.0023189401 -0.0003247958 -0.0013486578 0.0019765908 0.0025375742 -0.0032956887 -0.0037614093 0.0013047991 -0.0005774915 0.0004646665 -0.0037617157 -0.0030074674 -0.0023861863 -0.0012836285 0.0036838925 -0.0013329076 -0.0026157594 0.0029708059 -0.00029445376 -0.0023771364 -0.0013756413 0.0011074594 -0.0005015509 0.0013896861 -0.0033193408 0.0030236535 0.0012314458 -4.6929523e-05 -0.0034125843 0.0016338554 -0.0009006184 0.0017087623 0.0014414234 0.0019576363 -0.0036716303 -0.0012257751 -0.0038395543 -0.0007005167 0.00059288694 -0.0015935431 -0.0019621716 0.003663989 0.0018843046 0.001603815 -0.0004150537 -0.0015799552 -0.003678308 0.0009602171 0.0019571935 0.0032723828 -0.0021538204 0.0037040326 -4.520808e-05 -0.0037051851 8.979413e-05 -0.0028450615 0.0035009452 0.00024467826 -0.0016115744 -0.0034038823 -0.0005092415 7.62932e-05 -0.0026648492 0.0021208224 0.0018833595 0.0026382534 -0.0011697289 0.00037343474 0.0028195933 -0.0027206151 -0.0021011033 2.6318023e-05 0.0038460926 -0.0026754355 0.0021288155 -0.0036784976 0.0033838889 0.002633423 0.003628403 -0.0029641432 -0.0021884267 0.0013513668 0.003484442 0.00226448 0.0014572508 0.0004442747 0.0016637512 0.0005548303 0.0019490847 -0.0033140033 0.0038113901 -0.0010733145 -0.00071099726 0.003630581 -0.0030608072 -0.0008431271 0.0023511809 -0.0012612646 0.0014082175 0.00029116578 0.0018146714 0.0026930098 -0.00016477058 0.0015008897 0.0032022982 0.0019093092 9.458908e-05 -0.0013634895 -0.0021268977 -0.0030951959
239 -0.0038214733 -0.0004041516 0.0011872246 -0.0014170198 -0.0015408675 0.00052992144 0.0020087454 -0.0024112205 0.0013959786 -0.0017796333 -0.0023452053 0.00092403573 0.0033148616 0.0009893711 -0.0028079574 -0.0017055399 -0.00095127546 0.0019779191 0.0015927284 0.0006347654 0.0022839813 -0.0031839905 0.00089270633 -0.0020442205 0.00043699783 0.0035901805 0.0014325248 0.0011945609 -0.0015243635 0.0035444119 0.0035285559 0.00023490812 -0.0007701291 0.00011871153 -0.0029322817 -0.0011915421 0.002856891 -0.00040255592 -0.00225051 -0.0034754097 -0.0009293273 -0.0036958924 -0.0032927338 -0.0019772197 0.0020151022 -0.0024262369 0.00023051376 -0.0016215274 0.0032615 0.0023253395 -0.0021658011 -0.0027165224 0.00028629854 0.0023915 0.0019145038 -0.0006100378 0.00023204612 -0.0011514362 0.001995726 0.00089971273 0.0016862962 -0.0008635149 -0.0027178216 -0.0022998643 -0.002284347 0.0009998714 0.0009173877 -0.0006008321 -0.00087729166 -0.003107249 -0.0035277826 -0.0002636553 0.003748175 0.0022209128 -0.003133348 -0.00035130355 0.0019842295 -4.5524448e-05 0.0029261876 0.0012309762 0.002718113 -0.001450887 0.0017998061 -0.00016802782 -0.0021343073 -0.0015582741 0.0018429024 0.0027495092 -0.0031531437 -0.00040207707 -0.002805408 0.00073557603 -0.0020697247 -0.0037755116 -0.0023011297 -0.003328207 -0.0036352824 0.0037076834 0.00023006812 -0.0022079146 0.0015094884 -0.0036982545 0.0023933079 0.0029602333 0.00085820863 0.003730345 -0.003029205 -0.0011541498 -0.0030521764 -0.0033443384 -0.0005092351 0.0013750374 -0.0035823174 0.00021136393 0.0031420488 -0.0013081465 0.0013687643 -0.0011525139 -0.0011052503 -0.0009390566 -0.0024610395 0.0005967795 0.0016878854 0.0029448855 0.00047951585 -0.0008601248 -0.00010110469 0.0006408585
1707 0.0035402186 -0.0018741288 -0.0005716039 -0.002933739 0.0033048347 -0.0025507682 -0.0005205769 0.00096515694 -0.0016453413 0.0023321402 0.0025748997 0.0031877647 0.0021130422 -0.0011588285 -0.0010219037 7.850765e-06 0.000503712 -0.0013802819 -0.0009511056 -0.0033004805 0.0031329761 0.002711227 0.0010808231 -0.0015240164 -0.0020372623 0.0022977765 0.00040103198 -0.0011783901 0.0036331085 -0.003193376 0.0006973965 -0.0036246094 0.0022149277 -0.0011755393 -0.0012241573 0.0038557933 -0.0034435727 -0.0031952753 0.0036946703 -0.0022448918 -0.003291478 -0.0029950659 -0.003843573 -0.0020799702 0.0025089763 0.0022103202 -0.00035557392 -0.000297324 -0.0029325655 -0.0038596562 0.002230323 -0.003031792 -0.0036934656 0.00024009649 0.003456185 0.0004686848 -0.0005504774 0.0025723076 0.0031660032 0.0021163456 0.00034585045 0.0033909641 0.0030828961 0.0034542563 0.003592753 0.0005135287 0.000119731034 0.0013977763 0.0011848594 -0.0025208143 0.0018001023 0.0030818812 4.604039e-05 -0.002446744 0.003576646 -0.0005375706 0.0010274239 -0.002534409 -0.0027993976 0.0032811377 0.0020369862 -0.0018234992 0.0005972915 -0.0033129102 0.0017393028 0.00013947772 0.0016037243 -0.0030771827 0.0025456932 0.0019787052 -8.851525e-05 -0.001634823 0.0013178574 -0.0018574795 0.0037561397 0.00019625561 0.0019246796 -0.0023262145 -0.0011531019 0.0008698385 -0.0024546748 0.0007785768 0.000949914 -0.002126611 0.0010670783 0.0010799438 -0.0024533975 0.003248725 0.0014648725 0.00076983386 -0.0008825468 -0.0023543464 -0.0007046614 -0.0011095142 -0.00077706703 0.00060888584 -0.0022305276 -0.0031703261 0.0035804824 -0.0026017586 -0.0002609727 0.0016367461 -0.00055987516 -0.001363966 -0.0014329791 -0.0023067656 -0.0014222352 0.0018118487
1277 0.0022975763 0.0010539853 0.0011008474 0.003840762 0.0008167972 0.0017228412 -0.0029447821 0.0033976182 0.00041610797 -0.0038052388 -0.0017242872 -0.0018323443 0.0033669865 0.0020509108 0.00033632878 -0.0033022824 0.0030590768 -0.0024255742 -0.0015178644 -0.0011874062 0.0010108206 0.0010364306 0.0001338054 -0.00022257533 -0.0015692051 -0.0014048885 0.003645884 0.0027808764 0.0024018718 0.0035851677 -0.0010953881 0.0014370583 -0.0030126348 0.0013978125 0.00045572114 -0.001411122 0.00388859 0.001775772 -0.002136 -0.0031780058 -0.0028421776 -0.0015937175 -0.00082818064 0.00275934 -0.0022477324 0.002369083 0.0007114797 0.0010907797 0.0023890235 -0.0021593575 0.0015773958 0.0020105313 -0.0003528412 0.00066798064 -0.003596314 -0.0024531116 0.0018743604 -0.00062396855 0.0018499437 1.8623441e-05 0.0013559165 0.0018218961 0.0013124996 -0.001981549 0.0006863488 0.0011280683 -0.0005328066 -0.0034363966 0.0018532644 0.0032495875 0.0028839915 -0.0009310153 0.0022913325 0.0026890193 -8.503358e-05 0.0012842272 0.0029169873 -0.0037848207 0.0015027035 -0.0034845732 0.0022263236 0.002430876 -0.00124277 0.0027866252 0.0031647931 0.00012946884 0.0018322457 -0.003880816 0.0012148693 0.0013696187 0.0015828351 6.144028e-05 0.00067913026 0.0016259329 0.0030700853 0.0015742708 0.00071596267 -0.002463502 -0.003040712 -0.0014788688 -0.00031610194 0.003654496 -0.002471132 0.0027695184 -0.0011352103 0.0014470107 -0.0024041894 -0.002851579 -0.0020908008 0.003454022 0.0013457661 0.003132296 0.001956784 -0.0012189802 -0.00012647803 0.00068826164 -0.0037169247 -0.00014840053 -0.0013179193 -0.0005596322 0.0005060146 -0.0035140624 -0.0014952028 0.0025460662 -0.0034324182 -0.0038125983 0.0013017468 0.0004698399
489 0.003571594 -0.0028013114 0.0036598 -0.0036728033 -0.0016551574 -0.0036003788 -0.0009947524 0.0028200133 0.0011283327 0.0014297114 -0.0007427874 -0.0032038898 -0.00283604 0.00037845902 -0.002359397 -0.00042836645 -0.0012122763 -0.0036250867 0.00094019587 -0.0020814615 0.00027814263 -0.001255493 -0.0016254253 -0.0010870049 -0.0019452996 -0.002803095 0.0011605879 0.0019374369 0.0014941702 -0.0006966264 -0.0029502476 -0.0029981157 0.0023206114 -0.0026688408 0.0014957483 0.00010288742 0.0026176865 0.00018399526 0.0011132875 -0.00096550887 0.0024112773 -0.002940961 -0.0017574473 0.00091951806 0.0012230152 0.0014115032 0.002441676 0.002588119 0.0038372562 -0.002162567 0.0037562358 0.00091924873 0.0015588709 -0.0012718284 0.0017029964 0.0011654288 -0.0027605619 0.0031080183 0.0018936174 -0.0010751259 -5.2026782e-05 -0.0031470011 0.0016275314 0.0022651826 0.0019191789 -0.0034053961 0.0027309537 0.0019006641 -0.0017188671 -0.0024597058 -0.0004664907 0.0036540597 -0.00035908163 0.0009287608 -0.003249557 0.0021287985 -0.0022571033 -0.0036520679 0.0013160664 0.0018121181 0.0009120787 -0.0027526203 -0.002434387 0.0036072137 0.001853469 0.00021722502 -0.0028105006 0.0032541535 -0.0011757279 0.0017677514 0.0035964875 -0.0002506022 0.00027556997 -0.0027926695 -0.003827291 -0.0024127888 0.001992693 -0.00024169197 -0.0032736466 0.0028460438 -0.0028885952 -0.00081421796 0.002210953 -0.002863139 0.0015693028 -0.0011820032 0.002450479 -0.003837659 0.0012034813 -0.0012642832 0.0004134252 -0.002200063 -0.0036884998 0.0031802764 0.0021709541 -0.001870572 0.0006843081 -0.0020400374 0.0002306098 0.0036855312 0.00065423857 -0.0030756372 0.0006816453 0.001030773 -0.0014544624 -0.0028478825 0.0023003044 0.0036719684
1805 -0.0029562537 0.0019814107 -0.002765888 -0.0003488606 0.002147509 -0.0020226873 -0.002421246 -0.0022731393 0.002828672 0.0026973947 0.0031955426 -0.0033631846 0.0009686669 -0.003863612 -0.0029921422 -0.00078505464 -0.00041285602 -0.0022550006 0.0004196807 0.0035765206 0.0011507802 -0.0011560429 0.00039478616 0.002445947 0.0008147216 -0.00078807975 0.0026562756 0.0017640281 0.0024619396 -0.0011900746 -0.00039873543 0.0011355465 -0.0002467896 0.0019304119 -0.0024746356 -0.0004288321 -0.0028141344 9.406719e-05 -0.0027211145 0.001101411 0.0038094635 0.0016864786 0.0008188092 4.192216e-05 0.0021672642 0.0017837026 -0.0011982243 0.0006091116 -0.0027499525 0.00019574992 -0.0037559 0.0009097939 -0.0019805068 -0.002500547 -0.0038719238 0.0027127482 -0.00050240604 0.0014961354 0.0012887692 0.0015174706 0.00063164526 -0.003757176 -0.0028173155 -0.003469368 0.0036777093 -0.0011006007 -0.0010277312 -0.0031345936 0.0012455266 0.0028705976 0.003169975 0.0015590283 -0.002944357 -0.001561032 0.00091078895 -0.002892052 0.0019867094 -0.0023319 -0.0012317565 -0.00080863613 -0.0008104641 -0.002690928 -0.0008844584 -0.0026411545 -0.0012420355 -0.003186272 0.00377559 0.0013507619 0.0035302383 -0.0019451249 0.0031742868 0.0032606397 0.0019687158 0.0007726197 -0.00015230349 -0.0022206109 0.0002025454 -0.0005352556 -0.002415533 0.0022760083 0.0028176813 0.0002907694 0.0025091295 0.00061198784 -0.0027602392 -0.003059226 0.003269679 -0.0025831608 -0.003650152 -0.0009496338 -0.0027076888 0.0008901612 0.0013466475 0.001694919 -0.0026273099 0.002096749 0.0005964634 -0.0015972912 0.0023719368 0.0023053382 -0.0005044728 0.0018528686 -0.00083137804 0.0034856761 0.0017883654 0.0010793305 0.0011602985 0.0020968602
947 -0.0010040867 -0.00016784799 0.0036683106 0.0026630433 -0.001962258 0.0032032502 0.00040026146 -0.0026922275 -0.00124567 0.0004933564 0.0034904708 -0.00079315755 -0.0024273004 -0.0020435187 -0.003825834 -0.0018692432 0.0016101692 -0.0014527948 0.001713256 -0.0024706307 0.0036733197 -0.0013520918 0.00031551218 0.0027868513 0.003496437 -0.0024696472 0.00079959835 0.002204072 -0.001767055 0.003349352 0.0035771548 0.003057856 0.0001662999 -0.0018908846 0.0029892575 -0.0021065678 0.0012470862 -0.0037966685 -0.00092989416 0.00049151573 0.00271653 0.0028359795 -0.0019054669 -0.0009580326 0.0017624839 -0.0014815314 0.0036658184 -0.0009322223 -0.003257457 -0.0033680145 -0.0007686877 -0.0029012673 -0.0026553373 -0.003299651 0.00029784924 -0.002656719 -0.0038624343 -0.0038021177 -0.0038856496 0.002114941 0.0022163421 -0.0031897149 0.0002767638 -4.911561e-05 -0.0024137124 0.0030339477 0.0036070899 0.0034829064 -0.002165232 0.0015738651 0.0035321151 0.0006236377 -0.00051450636 0.001501345 0.0021892167 -0.0023591009 0.0021959548 -0.0009220707 -0.0014472123 0.0038449613 -0.003147162 -0.0027740833 0.0011986052 0.0011106371 -0.0012581034 0.0021153574 -0.0018824218 0.0034552831 -0.0015858847 0.0030347258 -0.0028121755 0.0016961449 -0.00033451308 0.0012324979 0.001950578 -0.0012710271 0.0012690404 0.0014421442 -0.00057664275 -0.0011584008 0.0007785612 0.001080687 -0.0021720962 0.0021711434 0.0036004325 0.0016412395 -0.00062317797 0.0031121112 0.0020491958 0.0030187238 -0.0021815537 -0.0021581766 0.0035205418 0.0003142391 0.0015702131 -0.0035322655 0.0037538402 0.00050853443 0.00069245946 -0.0032706745 -0.0007245483 -0.00090679637 0.0035413033 0.00010239967 0.0023643489 0.0007164076 0.0025252707 0.003628525
638 0.0037037984 0.0016679829 -0.00021368265 0.0031268403 0.0018106964 0.0035365329 -0.0011391331 -0.0012863214 -0.0023759776 -0.0036986938 0.0037154981 -0.002419295 -0.0029682997 0.0034668825 -0.00187163 0.0016313982 -0.0009376828 0.0027868028 -0.0033100306 0.00093213475 0.0026510523 0.0029258954 0.0017341588 -0.00097088213 0.003585383 0.0019293067 0.0022926393 0.0038748686 -0.0005333157 -0.0021075408 0.0030881017 -0.003509259 -0.00041384238 5.366177e-05 -0.003836717 -0.001730391 0.0027709547 -0.00062038976 -0.0033373768 0.002659784 -0.002201915 -0.0010599286 -0.0014852252 -0.0011290766 0.0032830401 0.0030014846 -0.001769371 -0.003617992 -0.001915349 1.974409e-05 0.0014628848 -0.0024846322 -0.000109882196 0.0009812368 -0.000645836 0.00022606221 -0.003012576 -0.0028967662 -0.0010115209 -0.00075847364 0.00371722 -0.0014867398 1.43264e-05 0.0031439427 0.0035880164 -0.0028973408 -0.002228264 0.0010782524 -0.0012877169 0.0031535742 0.0022693623 -0.0018635208 -0.0027299698 0.002706144 0.0020634434 -0.0032964253 -0.003886275 0.0030256857 -0.0007201472 -0.00012056249 -0.0015976357 0.00031277412 -0.0021618542 -0.002467773 0.0016740905 -0.00015216535 0.0010350958 -0.00040759615 0.0034714174 -0.0012130823 5.2893192e-05 0.000893295 0.0019011324 0.0033410506 -0.0011462005 0.0012887969 0.002252588 0.0014996355 -0.0034900655 0.0018660035 -0.0015319532 -0.0027289223 0.003858384 -0.0032058798 -0.0021866844 -0.0036437572 0.00066903705 0.0013859207 0.0017639863 -4.4275293e-05 0.0035460813 0.003118154 -0.0019070278 0.003096767 -0.000460799 0.0029001073 0.0026424832 0.0022780802 0.0010925543 0.0015834474 0.0030176444 -0.0018280227 -0.0022954994 0.002249871 -0.0027215742 0.0028005282 -0.0035444873 0.0034365486
594 0.00055190176 -0.0008230195 -0.00013149118 0.00059420354 -0.0021211666 -0.0035307042 0.00036856983 -0.0003483803 0.0006692428 -0.00046741127 -0.0038824421 -0.0032188115 0.0008274953 0.0026614994 -0.0001062206 -0.0019748593 0.0022729672 0.0010309984 -0.0018654676 0.0012166532 -0.0033547226 0.0021391725 -0.0011883872 0.0022910037 -0.00094035757 -0.003478729 0.0016420644 -0.0012255363 0.0030292426 -0.003280953 -0.00015888156 -0.0028942877 -0.0016212252 -0.0013907749 -0.0012779005 0.00019857318 -0.0021748897 0.00095917453 -0.002819842 -0.00052640075 -0.0025153244 -0.00018888683 -1.8191862e-05 0.0024400116 -0.00022972526 0.0018420864 -0.0023558426 -0.00042742066 0.0035249488 -0.0018409379 0.0037036806 0.0017378328 0.0015348243 0.0036043664 0.0029473365 0.003863913 0.0018815038 -0.0023870268 -0.0003779965 0.0025900423 0.00030506813 0.0012232445 0.0024452722 -0.0029484436 0.0024580732 0.0004778791 -0.0017526068 -0.00044080513 0.0018930989 -0.0027361072 0.000903011 0.0016539817 -0.0019170864 0.0015395415 0.002743997 -0.0036940095 0.00071972195 -0.0010105951 0.0011950661 -0.0020081068 0.0005009875 0.003410623 0.0031679287 -0.0034281155 0.0033761612 0.001141917 0.0015360701 0.0008094941 -0.0005537054 0.0034049165 -0.003546009 0.0018533049 -0.0035252112 0.0029204555 0.0020004653 -0.0019165728 -0.0020343896 -0.0018403236 -0.0022481068 -0.0010471203 0.002664171 -0.0038859604 -0.0027263022 -0.00197004 -0.0027066297 0.0010942399 0.0019430468 -0.0033884675 0.0004137334 -0.00057131634 -0.0030929078 -0.0031705657 -0.0023416302 0.0034803683 0.0034641686 0.002669431 -0.0023055614 -0.0010865761 0.002264716 -0.0029881825 -0.0025331904 0.003204717 0.0030661041 0.0021348083 0.0024265428 0.00010523369 -0.0029118645 0.0035062765
731 -0.0014317536 -0.0022623667 -0.0013492568 0.002184946 -0.0035861148 0.0009182984 0.0034112372 -0.0033369646 0.0018844383 0.0027931584 -0.0023620396 0.00029912818 -0.0032749847 0.0021748934 -0.00041982255 -0.0011320213 -0.0022467792 0.0004806787 0.0016346154 0.0034984674 -0.00052797433 -0.00090906105 -0.00034346062 -0.0025133982 0.0015551122 3.121372e-05 -0.003056132 -0.0025444562 -0.0014416443 -0.00091443484 -0.0019401443 0.0035108398 -0.003727901 0.0012661777 0.0001447094 -0.00025892095 0.0017733173 0.0039026972 -0.002304019 0.0031494126 -0.0007466162 0.00034578695 0.003400217 0.0031177432 0.0009427394 0.0007956567 -0.00027593045 0.002722887 0.0030151233 -0.002852767 0.0032122482 0.0019974255 -0.0016997019 -0.00313545 0.0028693036 -0.0038781501 0.00024648162 0.0011292549 0.0015614866 -0.0019683095 -0.0015811782 0.0023641456 -0.00357209 -0.0010009462 0.000277292 -0.0029810655 4.5715384e-05 0.003041772 0.0031422314 -0.0010334959 0.0015596432 -0.0002858874 -0.0016246847 -0.0028978242 -0.0032324677 0.00095864234 -0.0005331617 -0.0012197176 0.00175021 -0.0021334237 -0.0009931298 -0.0008541657 -0.00085449824 0.0005890112 -0.0026637497 -0.0033837259 0.00029723 -0.00024890195 0.0011313341 -0.003332253 0.0010033137 -0.002642306 0.0014731571 -0.0021964689 0.0001671873 0.0029232898 0.0027956637 0.0038421212 -0.0016155089 0.0031223714 5.8330832e-05 -0.0035680823 0.0030681146 -0.002785012 2.2029093e-05 -0.0007402369 -0.0026211268 0.0027949663 -0.0013000853 -0.0010166499 0.0002647846 -0.0017501637 0.0013601001 -0.00026466176 -0.00080912566 -0.00071500463 -0.002891934 -0.002598708 0.0033370985 0.0036525899 -0.0004291344 -0.0031884972 -0.0006369528 0.0026010878 -0.0021515673 0.003372604 0.0030144828 -0.000113575654
497 -0.0005524628 -0.00066958705 -0.0004801038 0.00107539 -0.0017917035 -0.0016145264 0.002073724 0.0020798685 0.002684421 -0.0015775091 -0.00036816404 0.0011916509 -0.0036384212 -0.0016275125 -0.0030145831 0.001052137 0.0009321013 0.0008142269 0.0034723827 0.00030175998 0.0016840858 0.001422883 -0.0022542395 0.0024807332 0.0027712896 -0.0036578872 0.0018280956 0.0013174505 -0.0012599663 -0.0031815185 0.0009315738 0.0027868322 -0.002020141 -0.0031190985 -0.0028844127 0.0031639354 -0.0015276376 -0.0022139836 -0.00077792344 -0.00060240226 -0.002653351 -0.00034555036 0.0031647105 -0.0020599791 0.0024008518 -0.0021493477 0.0020454284 0.0015370137 -0.00018995586 -0.001664328 -0.0023394022 -0.00048495832 0.0035988141 -0.0020200105 0.002223506 -8.750617e-05 -0.00013397222 -0.0021024882 -0.0033934424 -0.0008584473 0.0027181373 -0.003162952 0.00029927475 -0.00093460595 -0.0029886486 0.002561208 0.003471222 0.0013108024 0.0022616512 2.56921e-05 -0.0009618253 -0.0019044328 0.003552234 -4.3756558e-05 -0.0006750249 0.00075962784 0.0033767642 -5.1979947e-05 -0.0017048368 -0.0020975212 -0.002019654 -0.0026734858 -0.0004975669 -0.001282509 0.0011393587 -0.0030066653 0.0014514585 -0.00031939262 0.0011664159 0.0018288874 0.002905723 -0.0008186854 -0.0033026896 -0.0038265204 0.0006939439 -0.0022402334 -0.0031032502 0.0017536372 -0.0027994458 -0.0028561146 0.00219435 -0.0026104243 0.0025029955 0.002588108 0.0028340467 0.00026436578 7.2258968e-06 -0.0004762215 -0.0019818414 0.0011257743 -0.0030952736 0.00093380944 -0.0008925319 0.0019798924 -0.0008926703 -0.0017059931 -0.002457802 0.00185078 -0.0017450098 -0.0024143422 0.0022606798 -0.00015102659 -0.00021244687 0.0036967206 -0.0027684015 -0.0024209195 0.0038949458 0.0011476809
100 -0.0034421068 0.0029131984 -0.00134018 -0.0007716428 0.0009063161 -0.0012456933 -0.0032664859 -0.0007338565 -7.120411e-05 -0.0010866326 0.001996424 -0.001311391 0.003209168 0.0023549732 0.003445326 0.00064621744 0.0020239926 0.0036501295 0.0030074527 -0.0013942294 0.0013462781 -0.002948696 -0.00022451475 0.0016705117 -0.0023796482 0.0017053218 -0.002309649 0.0020720628 -0.0025873247 -0.0025768073 0.00080884784 0.0020323747 0.0010024649 0.0035347745 0.002270239 -0.0011819025 -0.0024670435 -0.0027207038 -0.001991041 0.00076260214 0.00010598828 0.0026664126 0.0023147021 0.00030630204 -0.0016558017 -0.0013459979 -0.003268201 0.0028540785 0.0005494951 -0.0012803838 0.0012538163 0.0017784762 0.003502059 -0.00064910343 -0.0012083551 -0.0018100855 -0.0016462937 -0.0015327214 -0.0033299774 0.0018191725 0.00020420742 0.0038251667 0.00067174307 0.002555361 -0.0024047946 -0.0018384557 -0.0033351912 -0.00057016686 0.0007466955 -0.00013123224 0.0021856832 0.0038896506 -0.0013277495 -0.002896392 0.0013047071 -0.0032817244 0.0022206162 0.0034519394 -0.0018884034 0.00042616902 -1.3027705e-05 0.0028007932 -0.00012778553 -0.0037703293 -0.0024479912 -0.0031433145 0.0031756128 -0.002353429 0.00081319263 -0.0007855499 -0.0010580212 -0.0027164875 0.002337571 0.0017855205 -0.0038368844 0.001943781 -0.00079894235 -0.0023078693 -0.0026395144 -0.0029544856 -0.00050052686 0.0022190644 0.00014099154 0.0016156689 -0.0010407481 -0.0009475426 -0.00040406463 -0.001185594 0.0037344762 -0.0025381364 0.0037914086 -0.0010317047 -5.4517597e-05 0.0034946536 0.0022207503 -0.0018042648 -0.0020082416 0.00032695904 -2.0529316e-05 -0.0015795233 0.0024643966 0.0018230916 -0.0033100958 0.002014593 0.00016259802 -0.0012410961 -0.000529866 0.0027487685
1766 -0.0017929362 0.002306722 0.0023860857 -0.0031921735 0.0026433505 0.0011991268 0.00013186599 0.001984559 -0.0006324933 -0.00061938504 0.0007439189 -0.0033765095 0.0025956018 -0.0011702653 -0.0005425803 0.003114969 -0.0028888579 -0.003189072 -0.003503245 0.0022302496 -0.0023010937 -0.003606562 0.0016053141 -0.003065287 0.001595764 -0.0035667538 -0.0008231415 -0.0033314668 0.0024254152 0.0033333695 0.0034665533 -0.0027300597 -9.79939e-05 -0.0025403579 -0.00070458924 -0.0007299031 0.0016403035 -0.0034419247 -0.00254444 -0.0037583304 -0.0014619293 -0.0010373264 0.002222558 -0.0033032417 -0.0028064616 -0.003278439 0.0029268116 0.0004197944 -0.0004912567 0.0025960444 -0.002260119 -0.0027271854 0.0037852288 -0.003314573 0.0016966241 0.0030942294 -0.001713402 -0.0020834038 -0.0037870575 -0.0029405656 0.00012273387 -0.0035721161 0.0037089828 -0.0017925635 -0.0005947488 0.0010713158 0.00279152 0.0032319473 0.0006912433 0.0010661812 -0.0020830028 0.0022682487 -0.0021907848 0.0012086141 -0.0024886017 -0.0013691239 -0.0023002294 0.0012687801 -0.0036770012 -0.0011978912 -0.0037526498 0.0031838801 0.0028281217 0.0027334674 0.0015362303 0.00064801896 -0.0030958545 0.00020660441 0.003208917 0.0019493698 -0.000486154 0.0004966231 0.001127868 -0.00089192024 -0.002309259 0.0035857682 0.0018375923 0.003267866 -0.00018812408 0.0007489629 0.0037998296 0.0037456586 -0.002614935 0.0016923863 -0.002388376 -0.0004001536 0.00030981767 0.0035382602 -0.0038596091 -0.0001233169 -0.0001924388 -0.0018176731 -0.0033257795 -0.001764827 0.0017945901 -0.0023203136 0.003720848 -0.0021052584 0.0025724587 -0.0016703302 0.0036149523 -3.0073366e-05 0.0010547449 -0.002732212 -0.0016890658 7.531038e-05 -0.0002622746 -0.0016633624
1316 -0.00013691153 -0.0016271468 0.0019531709 0.002357144 -0.0026785906 -0.0017747539 -0.0015421174 -0.0027108304 -0.0032206343 -0.00010676658 -0.00218005 0.0023315807 -0.0004650765 0.0034956718 -0.003571921 0.0038704658 0.0028564634 -0.0035278613 -0.0028936858 -0.0017501904 -0.0023814058 -0.0019787347 0.0015208967 0.0010684633 -0.00027859941 -0.0005880623 0.00037743628 0.00037179518 -0.00065705925 0.00048110468 0.0036408314 0.0016039611 -0.0031054176 0.003604785 -0.0023014555 0.0029969718 -0.0024441024 -0.0030287968 0.00060779665 0.00064019626 -0.0036899424 0.0010762213 0.0009793865 -0.0029232593 0.00013055015 -0.0036311944 0.003494955 0.00227717 0.0015149722 -0.00048801646 -0.0018608969 0.0014162913 -0.0037461852 0.00081152 -0.0007468626 0.0021224634 0.00017845319 -0.002831987 0.0007698034 -0.0034486237 0.0029192762 0.0023582848 -0.00047602423 8.7442735e-05 -0.0013351467 0.001989722 -0.0006539041 -0.0035947259 -0.0017032425 -0.0030102578 0.00076886476 -0.0036081537 -0.0006287289 0.0005768951 0.0028825179 0.0024334316 -0.001985435 -0.00087978743 0.0035300404 0.0037487121 -0.0008834314 0.0031086197 0.0004180113 -0.0019030499 0.0005689884 -0.003696782 0.0035691373 0.003863723 0.0015381481 -0.003305131 -0.0032531826 -0.0016672163 0.0005282338 0.003493557 -0.0037697756 0.0037657798 0.0008113515 -0.0009151342 -0.0031169304 0.0028829465 -0.00012549925 0.003499231 -0.0021782708 -0.00028884443 0.00046913326 -0.0029850686 -0.0028063213 0.0008085275 -0.0035515742 -0.000868767 -0.0006392861 -0.0018586642 0.0020594823 0.0016995624 -0.00037949072 -0.0035321875 7.338518e-05 -0.00043654954 -0.0017539705 -0.0014328806 0.0004569977 0.0017730308 0.0015306827 -0.0024794305 -0.0008741983 0.0019763361 -0.0013067063 -0.0016999611
746 0.00304378 0.00044581594 -0.0022834442 -0.0024005263 -0.0016769336 0.0020838217 0.0014334093 -0.0016148934 -0.0027982108 -0.00037246305 0.002795499 -0.00014153236 -0.0016641315 -0.0015449013 0.0011376594 0.00020793067 -0.0012018943 0.00018383673 0.002694435 0.0014454668 0.002850759 -0.0022657216 -0.0024670826 -0.003491629 -0.0015281138 0.0019002816 0.00014304224 0.0005750691 0.0010127812 0.0016129344 0.0016546274 -0.0013152496 0.0028739187 0.0016240545 -0.00065373123 0.0026465144 -0.0036834565 -0.0017497258 0.0026874635 -0.0006326171 0.0036407483 -0.00025761785 -0.0034491227 0.0014420334 0.0019613411 -0.0026238905 -0.0030242205 0.0017364698 -0.00087182637 0.003567626 0.0005725569 -0.0024605575 0.0018396416 0.00077389885 -0.0018327751 -0.0007032133 0.0023146612 0.0023574876 -0.0021381145 -0.0020737154 0.00016302461 -0.003313597 -0.0037851182 -0.0014827003 -0.0032575836 -0.0036731677 -0.00012409876 0.0021703485 -0.002218884 0.00089765404 0.0011994157 0.0029306628 0.0020798936 0.002223466 0.0024546962 -0.002912428 -0.00028112973 0.0012105284 -0.00018284193 0.0010711481 0.0020483749 -0.0017212284 -0.0025111816 0.003290993 0.0021759265 0.0027148344 0.0031819448 0.0031701736 0.0017753391 -0.0033201291 0.0019860875 0.00014622595 -0.0014649465 0.0010309741 -0.0033860914 0.0031672632 0.003857569 -0.0020496151 1.6370173e-05 0.0015879767 -0.0014362325 -0.0037463482 -0.0025971718 -0.000838998 -0.0011966402 -0.003428854 -0.0020977652 0.0036935755 -0.00022866487 0.0014943314 0.002855194 0.0017750432 0.0030379551 -0.0023001533 -0.0011918613 -0.0014506287 0.00014196886 0.0030756234 -0.0019114948 0.0029420587 -0.0024706314 -0.0035562064 0.0005176973 -0.001439589 0.0022160579 0.00040440954 -0.00050384435 -0.0011745171
1239 -0.0015664892 0.0021328104 0.0004243472 0.0022507547 -0.0015113726 -0.001439978 -0.0035794931 0.00086225034 0.0018773137 0.0034991142 0.0033700531 0.0008711222 0.0014092932 -0.0012245423 0.0014685305 0.0018298868 0.0011888368 0.0034226053 0.0004951014 -0.00039831645 -0.00047944486 0.0012096649 -0.003233851 -0.0024706002 -0.0012811238 0.0026816924 0.0037438052 0.0004458231 -0.0021119872 -0.0006957817 -0.0024494212 -0.0021915392 0.00014791237 0.0029009937 0.00023099697 -0.003273939 0.0011911705 -0.0022679649 0.0010940355 -0.0027514752 0.002478634 -0.002033878 -0.0017451067 0.002819804 -0.0035994223 0.0017612809 -0.00249022 0.0027410367 -0.0031255642 -0.0015552107 -0.0016259698 -0.0026558666 -0.0031949792 0.0011621526 0.0028010192 0.00029679574 -0.0018394055 0.0018035863 -0.0014668779 -0.0035938688 -0.0033133002 -0.0026273865 -0.0037140215 0.0017036872 0.0001810853 -0.002223656 0.002345963 -0.0015024978 -0.0004571803 0.002530414 -0.00022284934 -0.00092497544 0.0014226988 0.003761916 0.00031430225 -0.0005611964 0.0027399503 0.0031949857 -0.002892096 0.00044142414 -6.749136e-05 0.0021179384 0.0029024673 -0.00282691 0.0018835258 -0.00065009977 -0.0008656924 -0.00056897226 -0.001641381 -0.00055495196 -0.0016749346 0.0037793084 -0.0005656741 -0.0035535425 0.0023993694 0.0024676737 0.00281682 -0.0025636482 0.00023665166 0.00010384331 0.0010131804 -0.00028143052 0.00010520903 0.0002804325 0.0016469586 0.0023991186 0.0020040774 -0.0022442034 0.0013474824 0.0023156109 -0.0005169418 -0.0037693535 -0.0022939 -0.0034869318 0.0011896879 -0.00043926216 -0.0025389905 0.0030227578 -0.000398271 -0.0024589442 -0.00067745504 0.002700474 0.0021772697 -6.0925046e-05 0.00059811893 -0.0024898031 -0.0002409012 0.002069428
1434 0.0009425632 -0.0024422773 -0.0021875072 -0.0014579877 0.0018750799 0.0014094162 0.0026978513 -0.0022455435 -0.0029935564 0.0006097735 -0.0035182522 -0.0022692156 0.003584736 0.0037619162 0.0027471404 -0.0027825823 0.0008815565 0.0035980535 -0.003109044 0.0032867661 -0.002263301 0.0031275977 0.0015219438 0.0010063736 -0.003371092 0.0035729024 -0.002700468 -0.0029198409 0.0016971165 5.7818896e-05 0.0032592483 0.0002724949 0.00066388893 -0.0031741718 -0.0026788327 -0.0033992156 0.003036783 -0.002371978 0.0025078077 -0.0025475584 0.0025615233 0.0031225688 -0.0015469205 -0.0026920678 0.0028755066 -0.0003611902 0.00014426594 -0.0013220658 0.002529007 -0.0026463757 -0.0029436431 -0.0017649877 -0.00017341066 0.0038133506 -0.0001719497 0.0028322123 0.0036256541 0.00065156945 0.0002628851 -0.0007910431 0.0012743262 0.0021518904 -0.0007373128 -0.0026944696 -0.0033021977 -0.0027570776 -0.0007997102 -0.0007551642 0.0016403237 -0.0035070572 5.474564e-05 0.0037298703 -0.000544805 0.0026484907 0.00028998096 0.0031894422 -0.0031375715 0.002262064 0.0036402394 0.0018704191 0.0018333371 0.00095952017 0.003284311 -0.0009764992 -0.0034241457 -0.0026024375 -0.0019001582 -4.7044705e-05 0.0022712254 -0.0010320866 0.000819295 0.002106683 0.0022065835 -0.002225768 -0.0032896325 -0.0037523732 -0.0021062733 -0.0022007173 0.00056471635 -0.0006366698 0.0001673624 -0.0023103252 0.0026615427 0.0030996848 -0.0020418076 0.0008653064 0.00091799325 0.0021994633 -0.0031807204 -0.0011120645 0.0028974582 0.0028366977 -0.003018812 -0.0033317944 -0.0004654506 0.0023597889 0.0034884533 -0.0027486924 0.0033162 0.0010801761 -0.0024215453 0.0025807119 -0.002222276 -0.0006935623 0.0007379904 -0.00024164193 0.002754016 -0.00040568464
245 -0.0035333128 0.0029101083 -0.0032739418 -0.0019468707 -0.0020296413 0.00034731172 -0.001232491 0.0007535328 -0.0012508719 0.0032120128 0.0021702491 0.0019588708 -0.0016210539 -0.0022978613 0.001549977 -0.002035491 -0.0018656418 -0.0026300496 -0.0008106597 0.003008797 0.0018645866 0.0024111706 0.0010189788 -0.0019565239 0.00089079904 -0.00013629341 0.0036442843 0.0018985813 0.0030925018 -0.0018432954 0.0023170798 -0.0024520098 0.0032747074 -0.00018813623 0.0028497402 0.0032630635 -0.0007556725 0.0015350468 0.0009170092 0.0022180248 -0.0037119205 0.00032291957 -0.0016860934 0.002835138 0.0026538395 0.0024032907 -0.0021612106 -0.003578521 -0.0007083374 0.0020384374 0.002542456 -0.0021918223 0.0031540354 -0.001799816 0.000994115 -0.000969483 -0.003341752 0.0016190019 0.002622098 0.0030069512 0.002517388 -0.0014750387 -0.0021608393 0.0025029224 0.0020205847 -0.00016304967 -0.0016308678 0.0038614585 0.0009555043 -0.00070707075 -0.00045605897 -0.0005995117 0.0005623976 -0.0019857078 0.0020454212 -0.0029452846 -0.0035509244 0.0038044215 -0.0024920253 0.0026061912 -0.001793071 0.0014452982 0.00067046954 -0.002380445 0.0017796879 -0.0035104477 1.1111048e-05 0.0032394917 0.0017965449 0.0008066413 0.0021779486 -0.0014579454 0.0036652144 0.0033889068 0.0030000687 0.0018113902 0.00013955255 0.0016271921 0.0010221717 0.00042008035 -0.0009218184 -0.0005152423 0.0017996139 -0.0035372574 -0.002809449 0.0032693874 -0.0012466478 -0.0004716552 0.0032263226 -0.00019550191 0.002368487 0.0026368732 -0.0026973921 0.0027744696 -0.00041042882 -0.0036144846 -0.0002800871 -0.0005508021 0.0023136812 0.002389144 0.0010618188 -0.00051554537 -0.00010215396 0.0008139437 0.0025560143 -0.0020348094 0.0021635245 -0.0029041497
685 0.0015477978 0.002355955 -0.0005920722 -3.0223317e-05 -0.0014066222 -0.00071780913 0.0028913757 -0.003406096 -0.0017274341 0.0029137013 6.963567e-05 0.00019773819 -0.0033609015 -0.0036198278 0.0031513073 0.001540991 0.0022667493 0.0031300443 0.0023546477 0.0015369676 0.0017730842 -0.0030400094 0.0016467911 0.00016454126 0.0009426225 -0.0032865903 -0.0025412496 -0.000732191 -0.0028947478 0.003590717 0.0019934361 -0.0037491631 -0.0028637764 4.8711314e-05 -0.0022356699 0.001414907 0.0010480759 -0.0024032034 -3.0576903e-05 0.00062058726 0.0010105728 -0.0028465057 0.0015208775 -0.0031904026 -0.0006218422 -0.0021303562 -0.0034624818 -0.0020310173 0.00018034733 0.00034360128 0.001692146 0.0012509922 -0.0018265181 0.0022633881 0.0016186757 -0.002108867 0.0014701167 -0.002626771 0.0012817865 -0.0007083404 0.00066928426 -0.002629038 -0.00093555334 0.0037628238 -0.0033065614 0.0020876634 -0.00086895714 0.0008023111 0.002820304 -0.0017965684 0.0025525866 0.003121235 0.0018173849 0.0026627656 0.0025919385 -0.0016334835 0.003677177 0.0011644829 0.0018404811 -0.00032369094 -0.0033775135 0.003024191 -0.00064651336 0.0003672466 0.0035715487 0.003524903 0.0023650436 0.0013414809 0.000737095 -0.002755095 -0.0011722692 0.0029709742 -0.001279393 0.0012867192 -0.0037432427 0.0028914574 -0.0024113257 -0.00048088218 -0.0010889949 0.0022413395 0.003494288 -0.0013932635 -0.0020419445 -0.0015797351 -0.002861375 -0.0032364496 0.00050527474 0.0021019462 0.0017848783 0.002778558 0.0038864615 -0.0033617276 -0.0014909436 8.9499204e-05 0.000109978835 -0.0023829679 -6.797684e-05 0.00011405776 -0.0037439968 0.0034253185 0.0005579164 -0.0017838886 -8.456229e-05 0.00018601214 0.0008348881 -0.00294973 -0.00044691813 -0.0031409478
1822 -0.0032211172 -0.0025896549 0.0012274222 -0.0037859944 0.0006816609 -0.0026139335 -0.0016969022 -0.001500656 -0.002564643 -0.0015065869 0.00294954 -0.0034256533 0.003080723 0.0029349218 -0.003611769 0.00013235856 -0.0016494861 0.00233222 -0.0014714415 -0.00090415904 0.0012198995 -0.0010589196 -0.0031179897 -0.002640697 -0.0036053555 -0.0007041881 -0.00064517866 -0.0015203257 -0.00046198795 0.0005303853 -0.00043583082 -0.0007048123 -0.002273818 -0.0031558217 -0.00016749672 -0.001939572 -0.0033739028 -0.002710501 0.0018551417 -0.0022277033 -0.0026295425 -9.239509e-05 0.0013081497 0.0014419826 0.0013829242 0.0005978115 -0.0013191146 -0.0033954368 -0.0009246145 0.0006344912 -0.00076563907 -0.0038189704 -0.0012405834 0.0012426745 0.0015147588 -0.0037845578 0.002918898 0.0009582305 -0.0015711251 0.00058847753 0.0014879116 0.001688007 0.0010362173 -0.001911174 -0.0032024663 -0.0037074613 0.00056494074 -0.00029883906 -0.0036197717 0.0018356711 -0.0014778116 0.002433262 0.0027730686 -0.0009869228 0.001341216 0.0016396793 -0.00052579923 -0.0018570751 -0.0035350437 -0.0011833312 -8.1197744e-05 -0.0034094322 -0.0010645929 0.0026815992 -0.00031946937 -2.2579103e-05 0.00088907825 -0.003314836 -0.0005773778 -0.00037812226 -0.001333433 -0.00040045075 0.0012535169 -0.0017704144 0.0031751627 0.0004137591 -0.0020873088 0.0032919152 -0.0023180568 0.003237683 0.001128047 -0.0007522609 -0.0006366729 0.0005806747 -0.0030809792 -0.0034786726 -0.0038663878 -0.003118893 -0.0030022236 -0.0036635655 0.0025960458 0.0025141356 6.301979e-05 -0.0037374226 0.0010656841 0.00022700279 0.0030146223 -0.0034777166 0.0038853905 0.0030916398 -0.00080229016 0.0032974621 -0.0028054125 0.0017389577 0.00077813474 0.0038978916 0.00057636516 -0.00021075358
1397 0.0022284868 0.0014417223 0.0019587327 0.0021806979 -2.0172083e-05 0.0025386866 0.003083317 0.0027718963 -0.00015841582 0.0036539997 -0.0021789763 -0.00181772 0.0024499875 0.00026106727 0.0030058706 -0.0032760636 0.0002460243 -0.0028937366 -0.0003862415 0.0012591912 -0.0027108407 0.001742515 -0.0005463681 0.0028196662 -0.0010932157 -0.0031120074 -0.0007105846 0.00016852807 0.0016142128 0.0038294734 -0.00022048279 3.3911958e-05 0.001551817 -0.0025098498 0.0013655375 0.0018121932 -0.0005371332 -0.0033875518 0.0029230868 -0.0018057907 0.003195944 -0.003475448 0.0034790998 0.002742596 -0.0031238948 0.0008080865 0.002459353 -0.002959277 -0.003660886 -0.00047496177 0.003525786 0.0038678495 0.0002368733 0.003112515 0.00018139686 -0.003577449 -0.00051423436 -0.003094168 0.00083660684 0.0015781372 0.0028986032 -0.0023997359 -0.0009224421 9.868573e-05 0.0025716121 -0.00095884746 -4.6365378e-05 0.0007086034 -0.0027256138 0.0015453924 6.0076993e-05 -0.0019359215 -0.0009891225 -0.0013334302 0.0015171637 -0.0001544533 -0.0036348463 0.0024868336 -0.0010737027 -0.0023922187 -0.00010810354 -0.001937394 0.0012610718 0.000111613874 0.0021678233 9.088699e-05 -0.003005076 -0.002032752 -0.002061812 6.335766e-05 -0.001005698 0.0025665804 0.0017056104 -0.00052857556 0.0030825688 -0.00058507844 -0.00045687 0.00036702273 -0.001968081 0.003482533 0.0016060068 0.0029571957 0.002224378 0.00058335473 -0.0032326204 0.0008561641 0.0027942427 0.0005476625 -0.0009316952 -0.0007953575 -0.0017753352 -0.0038223334 0.0030670054 0.0006199797 -0.003844562 0.0031916592 -0.0011289478 -0.00033069268 0.0014931451 0.0021004234 -0.0026867182 -0.0021915103 -0.0037858668 -0.003474589 -0.0036125965 -0.0033597832 0.0008519808 -0.0036107572
1362 6.318838e-05 0.002661609 0.0017687208 -0.0012846141 0.0038266324 -0.0038133734 0.0010809483 0.0023252831 -0.0012378317 0.0021665306 0.00057535514 0.0032659476 -0.0019294098 -0.0009849078 0.00094785605 -0.0038554599 -0.0023177445 -0.0003700454 0.002172815 -0.0009870839 0.00073920115 -0.0036747565 0.00074104103 -0.0027967426 -0.0031593184 0.0008294333 -0.002846172 -0.002790856 -0.0034376006 -0.00062460586 0.002708936 0.0034200307 0.0016153156 -0.00048592457 0.0034119745 0.0024464494 0.0012615428 0.0028471365 0.0027155725 -0.0013932112 -0.0030216323 -0.0010350553 -0.002952464 0.0025766087 -0.003438565 -0.0023865735 0.0036576078 -6.310513e-06 -0.0036050354 0.0013894715 -0.0027929172 -0.00051087816 -0.0007071138 0.0033865161 0.0020718037 -0.0024269067 -0.0014979864 -9.071045e-05 -0.0037184095 0.0036558763 0.0003478181 0.0029036817 0.0007054676 0.0016314202 0.0029905553 -0.003139454 -0.0005342014 0.0012966886 -0.0021829258 -0.0012375222 0.0008709922 -0.0035466072 -0.0026202158 -0.0037386243 0.0008688674 0.0014063792 -0.0014847828 0.0008575018 0.0017829458 0.0031069953 0.0020423946 0.003161691 -0.0028849186 -0.0004803366 -0.0030090238 0.0038216866 0.0014092008 0.0029683623 -0.0023976886 0.00139785 -0.0008049305 -0.0035080123 0.0012656265 -0.003555397 0.0033721323 -0.0020838617 0.000596925 0.0025161006 1.1847938e-05 -0.0006248638 0.003242114 0.0035379087 -0.0010863895 -0.0009917082 -0.0026640159 -0.0028381757 -2.1884553e-05 -0.0021443458 -0.0018698967 -0.0017673057 -0.0025805556 0.0036759637 0.0022365279 -0.0023735918 0.0010415821 0.0033192832 0.0008526611 0.0008529596 -0.00078918395 -0.0030169433 0.0008732458 0.0035280024 0.0018784665 0.0020681568 -0.0010295166 0.0027104965 -0.000416356 -0.002548455
668 -0.0009524925 -0.0027284517 -0.003705693 -0.00028266647 0.0026945327 0.0024119334 -4.16917e-05 0.0016685307 -0.0005620607 -0.0022633018 0.0011963937 0.00063277094 -0.00061940536 0.0035067657 0.003098551 -0.0004907743 -0.0031405617 0.002758455 -0.003079558 -5.0131526e-05 -0.00042101467 0.0005399393 0.002977202 -0.0013687671 0.0032441234 0.0011935477 -0.0013037834 0.0015411173 0.002154563 -0.0008329391 0.0011780744 -0.0011449562 0.0012436437 -0.0025384862 0.002079474 -0.0006906487 -0.0038279449 -0.0017218142 0.000977219 0.00078800187 0.0023089892 -0.0016587545 -0.0037673179 -0.0038406907 -0.0022046245 0.0036354132 0.001286997 -0.0022282968 0.0018977394 -0.0030245958 -0.00093659334 0.0019360934 0.00020735154 0.0037552367 0.003179945 0.0038496072 -0.0015968175 -0.000294955 0.0030306992 0.0010316418 -0.0010882128 0.0026640908 0.0011413066 -0.0035758994 -0.0011816903 0.0010754662 -0.0030887958 0.002531312 -0.0001473847 -0.002499679 0.0016437928 0.0015061356 9.817916e-05 -0.0014964131 -0.000305543 -0.003282464 -0.0015152652 0.0032562655 0.0007165107 -0.001195496 -0.003509694 -0.0022734078 -0.0025244737 0.0033069244 0.0022178066 0.0034211366 -0.0024978775 -0.00086694915 0.0010125038 0.0012458764 0.000316226 0.0018601475 0.0031134777 0.002226819 0.0015592239 0.00095590553 0.001171242 0.003171719 -0.0012825932 0.0018894766 -0.0028626574 -0.0028543416 -0.0031795802 -0.0037806644 0.0032696403 0.0030018333 -0.0026332138 0.0038992113 -0.0013333398 0.0010027252 0.0033344964 -0.0035461078 -5.8728838e-05 -0.0024339806 -0.0024498396 5.0236602e-05 0.00032200495 0.0036832348 -0.003755624 0.0035045922 0.0008963687 0.003821457 0.0038489958 -0.0033102955 0.002984242 0.00082345586 0.0035649412 0.0025321804
1298 0.0037612175 -0.0014751229 -0.0021608097 -0.0028191952 0.0013190602 -0.0021927585 -0.0008931291 0.003453092 -0.001840609 0.0028384326 0.0004571423 4.7483672e-06 -0.00061128434 -0.00014279477 0.0003427766 -0.0005450305 0.003003125 -0.0022802476 -0.00022299803 0.0036264323 0.0022925031 -0.0026113247 -0.000856532 0.0030490262 0.0036896882 -0.0035267684 -0.0022908212 0.0011459556 0.0027475555 -0.00096104917 0.0024990004 -0.000610042 -0.0038047014 0.0037229506 -0.0028591186 0.0029990661 -0.0032102948 0.00036920758 -0.0034785767 -0.0006124932 0.00073335285 -0.0035598006 0.0025028584 0.0014620654 -0.0012878908 -0.001699269 0.0022968282 0.00045403797 0.0017565205 0.0005561187 -0.0012084992 0.0012115731 -0.003667755 0.0024230576 -0.0020375624 0.0009416487 0.0017042073 -0.0036781838 -0.0005600685 0.0005286672 0.0027492193 -0.0038120602 -0.0027758528 -0.0029188849 0.0025433665 -0.0021816995 -0.00020979372 -0.00053445133 -0.0017571996 0.0020869875 -0.0036134978 -0.0025741318 0.0028876085 0.0019108363 -0.003066354 0.00045732348 -0.0024985785 -0.0024074074 -0.00033728124 -0.0011381364 0.0017593293 -0.0015186814 0.0033466788 0.0025774885 -0.0013884864 0.0038176386 0.0038190125 0.0036795805 0.0023542915 0.0004784619 -0.0029949935 0.001058011 -0.0004689604 -0.00355506 -0.0032163844 -0.002869123 -0.003461411 0.0037151417 0.0031943962 -0.0033433002 -0.0035378356 0.002805514 0.00272261 -0.0015743693 -0.0021884982 -0.0025504413 -0.00092392863 -0.0031523579 0.0002010206 0.002742201 0.003830217 -0.0019660874 0.00076584273 -0.00088101503 -0.0026327719 -0.0037817287 -0.003581679 -0.0033424161 -0.0038511837 0.0035469516 0.0023594233 0.0036483929 0.00087431236 0.0032439774 -0.00023839099 -0.0036840246 -0.002685488 0.0018855714
1618 8.497205e-05 -0.0011198182 0.00038229537 -0.00091643434 0.0002040471 -0.0009489967 0.0016551758 -0.0034375242 0.00236926 0.001099558 -0.00077608356 -0.00010937035 0.0033797058 0.0011333976 0.0016341191 0.0032860965 0.0019500923 -0.00026668122 0.00059782335 0.0022983046 0.0034333095 2.984665e-05 -0.00374468 0.0023086679 -0.0019892622 0.0038588317 0.0025401001 0.0022011816 0.0012703083 0.00078900193 -0.0012300818 0.0032891734 0.0016476876 -0.0015129964 -0.0014199232 0.0036137963 0.0013655073 0.00329613 -0.002279473 -0.0008638705 -0.000921872 0.0015591984 -0.0024242895 -0.00024077971 -0.0020574925 0.0033658622 0.00054295146 0.0028515407 1.393524e-05 -0.0016988766 0.0010145063 0.0011463382 0.0009920171 0.0031634313 -0.0021643639 9.961026e-05 0.001252371 0.00075950025 0.0023865164 0.0006917711 -0.000207659 0.0034189848 -0.0029033737 -0.00061382115 -1.51073045e-05 0.0006442943 0.0017103079 -0.001715525 0.0021043841 -0.00094169856 0.0017628567 0.00080972543 -0.0035487905 -0.0006459818 0.00017861268 -3.6402453e-05 -0.002019311 0.0031707853 0.0016974731 0.0030165324 -0.0031792535 0.0011445435 0.0032137472 0.0013227451 0.00014134384 0.0024379324 0.000420889 -0.0035271612 -0.0035461276 0.0035662947 -0.00017248609 3.4386438e-05 0.0024087664 -2.346539e-05 -0.0021633846 0.003575523 0.0014697372 0.0029792336 -0.0026144262 -0.0018336338 0.002717071 -0.0018243128 0.0018417598 -0.0034300468 0.00019989733 -0.001216074 -0.002937543 0.000878029 -0.003088578 -0.0030877718 0.0026630545 0.0033164048 -8.515376e-05 3.4724926e-06 -0.0019136402 0.0018717747 0.0038419473 -0.0012337635 0.0036635583 0.0039014742 -0.00057734916 0.0032063501 -0.0035873693 -0.00095286116 0.003019669 -0.0002247705 0.0021328155 -0.0015300141
1467 0.0013780897 0.00080445776 -0.0035578462 -0.0023571828 -0.0015402867 0.0008584627 0.0013708592 0.0030142397 -0.0001755846 -0.0011072524 0.0023792514 -0.0011584262 0.002825485 0.0033761566 2.6605096e-05 0.002344621 -0.0020913796 0.0019557015 0.0030602398 0.0033811294 -0.0014911864 -0.0022311613 0.0028812257 0.0032150063 0.0016609543 0.0034803303 -0.0025697583 -0.0021942998 -0.0010636472 0.0006016269 -0.0025129612 0.0031616415 -0.0010820742 0.0031382248 -0.0020222825 0.001274781 0.0012880116 0.0030183804 0.0014927102 0.00037580618 -0.0030916526 -0.001301973 0.0028096214 0.0036216816 -0.0012702706 0.0033287697 -0.0005114187 0.0022276603 0.0027372472 0.003176236 -0.003086978 0.0017518416 -0.0023105673 -0.0005868439 -0.001076481 -0.0008648618 0.00071175094 0.0019495448 -0.0031134947 -0.003803205 0.0033118604 -0.0007461144 0.003346077 -0.0010759984 0.0033313094 -0.0034120027 0.0015930807 -0.0035305887 0.0007424231 -0.002197395 -0.0037460465 0.0017558546 0.00015181518 0.0010768691 0.0018008477 0.003783005 0.0009985326 -0.0006497458 -0.0028784694 -0.0035693867 -0.0030144632 -0.0003100428 -0.0030888005 0.0010859324 0.0034814714 -0.000409762 -0.00041823875 -0.0026913618 -0.002516616 -0.0012616789 -0.00086276676 0.0008435234 0.00044678777 -0.0009942823 0.0007495251 -0.00048310516 -0.0013529214 0.0016325242 0.0024735294 -0.0021381471 -0.0006819231 0.0018307948 0.0028509842 0.0017997805 0.0025058459 0.00015627309 0.0028279033 0.0002998454 -0.00078088563 -0.0034300191 -0.003269817 4.035496e-05 -0.0019901036 -0.0037646617 0.0024420605 -0.00046883637 -0.0009986763 -0.0008810559 0.0035250133 0.0007549205 0.0024626951 -0.0014202213 0.002464252 0.0034217823 -0.003552694 -0.0005891515 0.0013373968 -0.0016906295
136 -0.0033667167 0.0013330609 -0.00038019885 0.0026121272 -0.00294076 -0.0030018273 0.0013286481 -0.0034459287 0.0023069521 -0.0008434431 -0.0025282798 0.00325678 -0.0009362846 -0.003082418 0.0006336404 -0.002289695 -0.0034683093 -0.0022286684 0.0017905986 -0.002683591 -0.0015485736 -0.0019420281 0.001494874 -0.0009097455 -0.0036583813 1.147487e-05 0.0012051049 -0.0035855018 0.0024013189 -0.00021282074 -0.002578693 -0.0004887916 0.0026471089 0.0033432168 0.0005332027 -0.0032545167 -0.0020124053 0.00026970758 0.001378763 -0.00026260217 -0.0037854002 0.0013415877 -0.002016237 -0.003259652 -0.0024454324 0.0012743957 0.0027126684 -0.002621196 0.0022385123 0.00059324846 0.0018432249 -0.0038670213 0.0008319448 0.001529566 0.0033997316 0.0031691422 -0.0037179135 0.0021942186 0.00085660565 0.0003919681 0.0005735332 0.0018544287 -0.0026632063 0.0026380962 -0.0014942293 -0.0007356106 0.0024413802 -0.00057960494 0.002793876 -0.0032707162 -0.000523544 0.0032012963 -0.0033296933 -0.0029540998 -0.0016512282 0.0032051238 -0.003260472 -0.003866731 0.0018444358 -0.0037833594 0.0021888358 -0.003423106 -0.0013901441 -0.00065069844 -0.002381889 0.0018661589 0.0012171045 0.0016340172 -0.0027023093 0.0016849181 -0.0030696655 0.0037336547 -0.00046332908 0.0028204247 0.0031982176 -0.001750111 0.000105953666 0.0027965514 -0.00076258247 -0.0006915336 0.0017909845 0.0037651248 -0.0018194186 -0.0026271879 0.0025283287 -0.0013764465 0.002402587 0.003428665 0.00328133 0.0033906754 0.0028840036 0.0017772893 -0.0017054845 0.0031845123 -0.0023913686 -0.001686073 -0.0037919611 -0.00064482936 -0.0029157521 0.0028689306 -0.0025542662 0.001358947 0.003727614 -0.0027583628 0.0036632374 0.00012105215 5.7761925e-05 0.00046131285
1054 0.0005869846 0.0013656408 0.0027110064 0.0006205534 0.0029598973 -0.0035973035 -0.0015944117 -0.0016006996 -0.0036593538 0.0018889747 0.0006288492 -0.0019131417 -0.0016860166 -0.0022166334 -0.003698113 0.0037613574 0.003481203 -0.0018743941 -0.0035185358 0.0024007966 0.0008505391 0.0034763538 0.0016025609 -0.0006900426 -0.003001126 0.00072959275 0.003424277 -0.0019064159 0.0006802151 -0.0031856867 0.0012143204 0.00020205077 0.00029656314 0.0008296071 0.0028053152 -0.0016198255 0.0006730272 0.0034507022 -0.00039981087 -0.0012199712 -0.0027748756 -0.002431344 0.003458774 0.002823332 0.0021973273 -0.00083508017 -0.003076506 0.0010765764 0.0037774665 0.0006092793 -3.4161465e-05 -0.0012259139 0.00091084663 -0.003136925 -0.0012749275 0.0020542864 0.00032156572 -0.00027367088 0.0038609481 -0.0019052823 -0.0037285655 -0.0009148008 3.2156484e-05 0.0034088066 0.0003583974 -0.0037211315 -0.0036006295 -0.0026337926 0.002689862 0.0028066132 0.002401842 0.0021309904 -9.527934e-05 -0.0020860045 0.0025862742 0.001047355 -0.0010361129 0.0018425034 -0.0016315463 -0.00024274053 0.0020113797 -0.0019317325 0.0033349819 -0.0011669454 0.0013592931 0.000489632 -0.0035843647 -0.0034163836 0.0026416355 -0.0010165062 0.00025416724 0.0033209242 0.0017522525 -0.0028893272 -0.00330186 0.0020147618 0.002635805 -0.0018907221 0.0032278618 0.0032128498 0.0024078595 -0.0030834787 -0.0027297074 -0.002222337 -4.460482e-05 -0.00028030603 -0.0032163702 0.0028318088 0.0024024379 -0.0020489567 0.0034646646 -0.0014953522 0.0019725538 -0.00043714084 -0.0023692471 -0.0023005265 -0.0026045062 -0.0030688625 0.0029883764 -0.0007270427 0.0012016719 0.0017189226 0.0032071606 -0.0023931053 0.00082420954 -0.0035337184 -0.00156046 0.001869009
329 -0.0023938257 -0.0017492584 0.0016304203 -0.0028016716 -0.0017340005 9.975513e-05 -0.0035403452 -0.0015953787 -0.0032758573 -0.00030579965 -0.0009489982 -0.0012062807 0.0010355972 0.003715754 -0.0018483569 0.001234621 0.0007399303 -0.0025792932 -0.0033566752 -0.0001647563 0.001891086 -0.0029336603 0.0026055034 -7.926432e-05 0.0034009784 0.0014908917 0.00093150383 0.0015807054 -0.0026553168 0.0023629935 0.0028861992 0.0029060952 0.003894273 6.741605e-05 -0.001928422 1.4993073e-05 0.0009909639 0.0027490715 0.0028981643 0.00027761233 0.0029216472 -0.00059596536 0.0038878997 0.0030197066 -0.0035347352 0.0023838088 -0.00202033 -0.0031133916 0.001689705 0.002783827 0.002694488 -0.0024145413 -0.0028298432 -0.0034452167 -0.0016414355 -0.00065175863 -0.003020876 0.00057641073 0.0022568933 -0.0011205577 0.00035672908 -0.0021234693 -0.0026052967 -0.0023910594 0.0033066198 0.003552172 -0.00070289685 -0.0016630237 0.0024679515 0.0019311119 -0.002766285 0.00042871863 -0.0029262055 0.00026062495 0.003588112 -0.0023828493 0.0001822476 0.00072915293 0.001890851 -0.002183672 -0.0006532575 0.0031345366 0.00044151803 0.0026174542 0.0010300006 -0.0015254862 0.00047250208 0.002514414 0.0031987294 -0.0030003309 -0.0036409972 -0.0031394488 0.0036324516 0.0019472177 -0.001320025 0.0010068015 0.0038156628 -0.0038151476 -0.0014578535 -0.002715546 0.0004725602 -0.0038878096 -0.0004225805 -0.0007932955 0.0026543858 -0.0025146713 -0.0022835238 -0.0027203734 -0.0038197585 0.001777549 -0.002740459 0.00040562887 0.0029379644 -0.0023664273 -0.0037674564 -0.0014170724 -0.0036260935 0.0012574665 -0.0037042606 0.0015702645 -0.0016520427 -0.0037201205 -0.0015773957 -0.0007995484 0.0029799663 0.00044962793 0.00069081073 0.002087425
113 -0.0036375131 -0.003609804 0.003643424 -0.002596206 0.0032569438 -0.0020845956 -0.0028232622 0.0009098251 -0.0014888019 -0.002288275 0.0006826448 -0.0017336098 -0.0025544576 -1.4664524e-05 4.801297e-05 -0.0029006226 -0.002195157 0.00021330864 0.0029320898 -0.0024463313 0.0025480604 -0.003801243 -0.0020621018 0.002856032 0.00061801734 -0.0037730015 -0.0019568352 -6.3453153e-06 0.0006888321 -0.00051465485 -0.00035630085 -0.0033343164 -0.0029367816 -0.0036159866 0.0033578395 -0.00049462536 0.0029831363 -0.001871507 0.003064083 0.0022007735 -0.00047376036 -0.0026678545 1.6679942e-05 -0.0018881642 0.0022641914 4.5849192e-05 -0.0036219817 0.0030173005 0.0005731332 -0.0002669774 -0.0010162866 4.1506864e-05 -0.00060382864 0.003788819 0.0016786554 -1.11804975e-05 -0.0018026251 0.0015946947 0.001890613 -0.0026799524 0.0004983249 -0.0017143111 4.573111e-05 -0.00018786179 0.00016805479 -0.002032382 -0.00010952666 -0.00077415194 -0.0023952515 -0.0013051798 0.002361035 -0.0012519289 -0.0020125061 -0.0015010309 0.0021667269 -0.0008975088 -0.00023995753 -0.0015676949 0.001309255 0.0011927718 0.0023898557 0.0035013626 -0.0028688519 -0.0019910035 0.0036620067 -0.0021365702 -0.0005098888 0.0024559987 -0.00036232307 0.0013598008 -0.0010567567 0.0015675847 0.0009914514 0.0035396877 0.0024256282 0.0022267655 -0.0014512372 -0.00021516436 0.0030478428 0.002132313 -0.00068857847 0.0030953942 0.0037873725 -0.0038996818 0.0037295173 0.0017161041 0.0015168826 0.0012176568 0.0036712654 -0.0014484186 -0.0015774624 0.0016419078 -0.0026494316 -0.0009838978 -0.0006952413 -0.0014519424 -0.0038538661 0.0014225527 0.0032511756 -0.0029350566 -0.0026027213 -0.0005274986 0.00045344405 3.6591497e-05 -0.003193981 0.002193788 -0.0025568374 -0.0029622822
1763 -0.00042773393 0.00037134244 -0.00260313 -0.0020013077 -0.0010531949 0.003088823 -0.0029235345 -0.0032256867 -0.002111877 -0.0030629865 0.0034755424 -0.0032432212 0.0014531367 -0.0027531066 0.0015261184 0.0026002831 -0.0027778011 0.0010247246 0.002259229 -0.00097130827 0.00309148 -0.0006275865 -0.0016680228 -0.000427513 0.00199154 -0.0018321704 0.0006777683 0.00020366108 -0.0029225776 0.002348871 0.00013555614 0.00033108125 0.00016033008 -0.002705887 0.0028899452 0.0036368626 0.002338293 -0.0017141025 -3.4339762e-05 0.0014068668 0.002229428 -0.0025090906 -0.0033945674 0.0027075575 0.0006588956 0.00045133647 0.0035760112 0.0023499485 -0.003805955 0.0034505965 -0.0022827245 -0.0019731834 0.0001444224 -0.000975138 0.0021434054 0.0030177392 0.0008269863 0.0010860269 0.0013062204 -0.00022042035 -0.0020219102 -0.00055167585 0.0034338615 -0.0032493107 0.0029221762 0.0013651395 -0.0010436161 -0.0008162279 -0.0011664995 -0.00038050849 -5.188022e-05 -0.0016118692 -0.0014821772 -0.0029756406 0.0011088556 0.0010599162 -0.0022082003 -0.0022965427 -0.0017937513 0.00032883204 -0.0003993249 -0.0002434857 -0.0031868296 -0.0035337775 0.0006906117 0.0031128002 0.002244144 -0.00048029245 0.00022912523 0.00044439037 -0.0025161973 0.00010970054 -0.002914077 0.0010243801 0.002001558 0.00093298336 -0.0033862935 0.0027697922 -2.4807307e-05 0.0014866157 0.0010561971 0.0015258234 -8.400072e-05 -0.0025060696 -0.0032362044 0.00024057622 7.787003e-05 -0.0016945959 0.0008292946 -0.0034941926 0.0021959895 0.002877649 0.0033040117 -0.0016724232 -0.0036471598 0.0010014619 0.00025979528 -0.0023854366 -0.0014468473 -0.00033464245 -0.0007677445 0.00053224777 -0.0011240406 -0.0018722346 -0.0008978512 -0.0034183413 0.0023845285 0.0012609706
1469 -0.0014253418 0.0033150094 0.0012367498 -6.7542445e-05 -0.0028629757 0.0036653716 -0.001341142 0.0037066 -0.00052662 0.002421938 0.003163575 -0.00069605175 -0.0009455694 -0.002237309 0.0037893225 0.0012400391 0.0020808582 -0.0027718814 0.003856871 -0.00197267 0.0017477891 -0.0034079633 -0.0038739983 -0.0021811244 0.00024410937 -0.001208183 0.0023056099 0.0019514356 -0.0009661777 0.0025301287 -0.0004956941 -0.0026120828 0.0013452946 -0.00066783105 0.0029220963 -0.003416849 -0.0021523105 0.00013879621 -0.0015944969 -0.00014392888 0.002125344 -0.0010724415 -0.0013953727 -0.0016062068 -0.001544111 0.0014211406 0.0023551455 -0.002932569 0.00082681654 0.003334367 -0.0011180063 0.0011616307 0.0010291615 0.002165326 0.0033308368 -0.0004798084 0.0036437258 -0.003153465 -0.0005131062 0.0018980989 0.0012939207 0.0017865589 -0.0026506707 -0.0029271857 0.0019554996 -0.0034565262 -0.0024211914 0.0008969104 0.003647694 -0.0013253799 0.0027400693 -0.0007659969 0.0037469435 0.0037582687 0.0032830208 -0.0010945761 -0.001569628 -0.0011963926 0.0036913403 -0.002661789 -0.0009714039 0.0023767222 0.0035172163 -0.00011671753 0.0025941855 0.0022719917 -0.0036758527 0.0028890588 0.0035718384 -0.0027854624 -0.001139175 -8.666504e-05 0.001301381 0.0008765741 0.0011211855 -0.0027893018 0.0033930112 -0.003598206 0.003768172 -0.001450711 0.0010208985 -0.001916144 -0.0021664677 -0.00026319743 -0.0028093415 0.0038385824 0.00014411563 0.003777635 -0.0032544031 -0.0011677429 -0.0005278302 0.0035025964 -0.0011860959 0.0038688327 0.002210041 0.0007701211 0.0022099277 -0.0021862874 0.0026047078 0.002898456 -0.0020152715 0.0026614978 -0.00016880668 0.0006605354 0.00041928698 -0.0018561978 -0.00027229573 -0.00048373328
